740 300
MENÇÃO 0.014305071 0.013874362 0.10453967 -0.15263535 0.064591035 -0.2591963 0.007903317 -0.007993843 0.22164387 -0.061846774 -0.048067566 0.008286194 -0.11046447 -0.047088537 -0.107094906 -0.11514752 -0.07252499 0.34569606 -0.119112514 0.028983893 -0.052816678 -0.044610552 -0.2118685 0.33547524 0.038089205 0.16249493 0.032727458 -0.24640323 0.10134208 -0.08842294 0.10338034 -0.19422552 0.06259067 -0.13064076 -0.32330778 0.41906005 -0.11922622 -0.06705722 0.113988526 -0.095899984 0.0774741 0.15700072 -0.38332555 0.096960485 0.20295289 0.1913758 0.19159631 0.17991742 0.08902202 0.21828437 0.21642087 0.0036155493 -0.11435515 -0.2532083 -0.1394822 0.08604059 -0.1648119 -0.19203636 -0.20478068 -0.2667285 0.22147268 -0.2557729 0.24346377 -0.32215008 0.21442717 -0.027518792 0.25151098 0.031328484 -0.24429426 -0.060889635 0.20802979 -0.11309179 0.008838436 0.035312608 -0.12506281 -0.23530412 0.015771188 -0.03208753 -0.100060865 -0.104393415 0.038627636 0.09376928 0.18893549 -0.05726778 -0.37276235 0.027562562 -0.09051963 0.062485147 0.13969934 -0.2632334 -0.1275508 -0.1668032 -0.06012565 -0.05448013 -0.18607531 -0.027391791 -0.1379183 0.09056586 -0.000105158775 0.14242393 0.1246703 -0.016103024 -0.17443553 -0.08460317 0.007316196 -0.060634673 0.09254745 -0.27036712 -0.04584813 -0.15667334 0.22728111 -0.10199553 0.3006722 0.18082392 -0.14041643 0.047682066 0.048409306 0.22208188 0.34557286 -0.25331426 0.0367455 -0.036138337 -0.20474191 -0.06483707 0.042068128 -0.20720887 -0.09706521 -0.08443377 0.08362253 -0.2932842 0.2982102 -0.06683337 0.2450526 0.04804704 0.088554844 0.19295813 0.09862893 -0.32698312 0.006094448 0.0559945 0.04115636 -0.02199798 -0.012491661 -0.34443435 0.0012055216 0.031922255 0.3442961 -0.23655075 0.07873042 -0.14215407 0.12507913 0.26104268 0.14972506 -0.31663695 -0.15782942 -0.051406085 -0.07644018 0.22325535 0.029341117 -0.04387208 0.10700032 0.10087603 -0.040153123 0.15633343 -0.20910469 0.10367439 -0.255888 0.033749845 0.17280579 -0.06309992 0.24368037 -0.09202059 -0.1482706 -0.17816654 -0.38540742 -0.017586153 0.029564468 -0.37598857 -0.041498777 -0.1625155 0.1570786 -0.015335422 -0.15026271 -0.24456285 -0.03637267 0.15089573 -0.43874165 -0.17365684 -0.06491012 -0.1802942 0.14041483 0.12536462 0.07657091 0.0041966494 0.31074375 -0.07594479 -0.23015611 -0.106052175 -0.1330406 0.23517816 -0.07017552 0.12392246 0.04258395 -0.16632786 0.34032843 0.0370132 0.11646078 0.15871635 -0.016953796 0.12267821 -0.25419128 0.02075978 -0.12654799 0.03864525 0.033464734 -0.21132727 -0.24375992 0.12457663 -0.080655456 0.059624538 -0.11128815 0.12544958 -0.084374875 0.0803339 0.09423575 -0.10295151 -0.0421564 -0.22394365 -0.25633726 0.033156615 -0.13590966 -0.04024034 -0.046939474 0.2337469 0.029955223 0.25294274 0.20180395 0.18088137 -0.13317546 0.17833334 0.2125906 0.100196406 -0.3172171 0.055231255 0.18411854 0.18994188 0.05541385 0.08636008 0.027989203 0.12905815 -0.15071285 0.12677689 -0.05956881 0.10734249 -0.11246377 -0.06616252 -0.056118067 -0.062270205 -0.27794337 0.021599423 -0.08526364 -0.10399421 -0.17901514 -0.048054766 0.052470762 0.0090632485 -0.12040948 -0.1321577 0.011808088 -0.060206514 -0.075400986 0.023020923 -0.18557557 0.20194456 0.08697702 -0.12751448 -0.1138932 0.32103238 -0.109085225 -0.044590328 0.18612714 -0.29155406 0.258624 -0.16778925 0.35246792 -0.10418264 -0.24846584 -0.113585465 0.14365968 -0.19445704 -0.30316466 0.13292296 -0.07178323 0.006214878 0.046850927 0.12961836 -0.21763538 0.011507324 0.13876031 -0.040829886
e -0.17425455 -0.059364293 0.16019164 -0.0021064563 0.17069964 0.018490877 -0.052458435 0.116637446 -0.07424222 -0.018090714 0.117450885 0.0074072713 0.17621952 0.27301255 0.13818525 -0.28038558 0.080771625 0.10435178 0.15094565 0.19383757 -0.08012429 0.06727441 0.052898422 -0.057269808 0.21544543 0.1497168 0.032094758 -0.10978257 0.15249622 0.04654271 0.15319417 -0.009284637 -0.04647229 0.0807237 -0.049662773 0.3171733 -0.13477139 -0.24856995 0.2342396 -0.42250583 -0.18920365 -0.11042878 -0.095247395 0.031954173 0.2584198 0.17409836 -0.102677345 0.051987793 -0.050509416 -0.17272885 0.22592035 -0.14480458 -0.12718293 -0.11142728 -0.123835884 0.11715703 -0.07102672 -0.18567409 0.16872725 0.21909532 0.22312672 -0.19584595 -0.15153632 0.03582237 0.1895489 0.3113398 -0.018274179 -0.11058445 0.043643136 -0.011949307 0.46994284 -0.10146327 -0.21402149 -0.19703308 -0.11771371 0.101912804 -0.17040993 -0.2838058 -0.17078833 -0.05025181 -0.106888086 0.08313072 -0.111182824 0.3122686 -0.17399858 0.24639092 0.10154701 -0.118963026 -0.03193638 0.17844678 -0.23275557 -0.09804922 -0.21252996 0.23611511 -0.5037758 -0.3879421 0.06368374 0.10391478 -0.08814038 -0.018820593 -0.094837084 0.1576502 -0.24649814 -0.3203669 0.08936475 0.15117246 -0.26921058 0.06529245 0.05171301 -0.18182404 0.24096033 -0.093067996 0.18683644 0.2932643 -0.09341623 -0.114538215 -0.18400179 0.18103983 0.24705312 0.0156159615 -0.13508989 -0.17916343 -0.26222056 0.10785739 0.22630177 -0.13392551 0.09389121 -0.13266501 0.13236216 -0.28391212 0.3090649 -0.008367791 0.11847103 0.17381495 0.007981168 -0.044806574 0.09447158 -0.14772217 -0.09625411 -0.3372946 0.16772847 -0.12872608 0.33737478 0.0067619244 -0.1115032 0.024060182 0.16689101 0.04429551 -0.087519825 -0.18428534 0.09227883 0.11788988 0.221444 0.06799608 0.100287825 -0.13155423 -0.025627704 0.044366125 0.11603166 0.008038525 0.23967624 0.31053677 0.11123387 -0.15256171 -0.070371 0.18837129 0.17300572 0.20401452 -0.0654591 -0.017897444 0.07790496 -0.06845159 0.07118501 -0.17217572 -0.13896541 -0.07488997 0.050297286 -0.19387764 -0.027516063 -0.120308176 0.07176921 0.033529676 -0.18721783 -0.046047915 -0.42442748 -0.21662791 -0.30169603 0.30661145 0.32017955 0.031434752 0.23827781 0.10211379 0.11455332 -0.2643546 -0.26802468 0.0030898429 -0.13648617 0.43054658 0.15480551 0.043980353 0.059226077 -0.21437144 0.057935573 -0.018713586 -0.18834254 -0.004612022 0.33719492 -0.3292938 0.025067424 -0.08866666 0.16662312 0.11061442 -0.21357082 -0.23486708 0.21505581 -0.27634746 -0.13240267 0.11784002 -0.06781946 -0.101607285 -0.27135217 -0.31721416 -0.54875404 0.10735516 0.1871479 -0.39482915 -0.008622994 0.07053385 -0.13590445 -0.34736815 -0.0046986146 -0.28367954 0.24701339 0.179413 0.006712352 0.30210134 0.19126089 -0.1817824 -0.10953132 0.02440405 0.09299634 -0.067063 0.10619129 -0.082128756 -0.049020972 0.27037975 -0.18681543 0.001239737 0.42080483 0.036637522 0.17042917 -0.13501453 0.3109262 0.17750072 -0.13118497 -0.22761798 -0.120600864 -0.2789302 0.10490975 -0.120084286 0.15237142 0.13960782 0.18033688 0.03420794 0.06729733 0.361638 0.20579784 0.09827243 -0.07941355 0.11950547 0.08661891 -0.030796135 -0.048606765 -0.03808202 -0.27893314 0.054293364 0.19717225 0.28561696 -0.142039 -0.15356663 0.104625285 0.15785506 -0.057758164 -0.20845132 0.1700797 0.099866495 -0.5083852 -0.16270164 -0.22472188 0.30716422 -0.16353214 0.066557854 0.12862027 -0.35173663 -0.15230106 -0.2503358 -0.033451416 -0.010067989 -0.5126092 -0.030259568
que -0.33979875 -0.3241775 0.32680818 0.19180776 0.2181232 -0.41591805 0.018648136 0.10108339 0.24917233 -0.20136271 -0.35699886 0.09217659 0.13598959 0.13783753 -0.05935476 -0.11687832 -0.3760557 0.18992545 -0.11876453 0.13300289 0.18747221 -0.13512893 0.25249588 -0.05752148 -0.2492434 0.32668224 -0.049075093 0.09815691 0.13659132 -0.20183223 0.005553399 -0.33615443 -0.07972159 -0.10383107 -0.30893713 0.6409076 -0.06270745 -0.3876328 -0.08517486 -0.41539535 0.21790533 0.124005765 0.22447018 -0.08606281 0.490021 0.045624286 -0.15434481 -0.008377688 -0.014187645 0.053420186 -0.06942415 -0.36005998 -0.23388477 0.1037852 -0.06021574 0.38046464 -0.1800337 -0.05575297 -0.053304534 -0.08248584 0.14639956 0.018008605 0.17674132 -0.22978905 0.23434797 0.4949314 -0.10780381 -0.22655104 -0.209559 -0.36642358 0.49204755 -0.24600953 -0.10987403 0.12639683 -0.2201253 -0.12526631 0.077684455 -0.09329116 -0.1512497 0.12980685 -0.10541431 0.17431702 0.33143646 -0.26728037 -0.45071122 -0.07155742 -0.2226307 0.08089001 0.27466807 0.038099337 -0.03255631 0.108025685 -0.3388694 0.28121382 -0.47079924 -0.4134848 -0.074396394 -0.09101915 0.05842437 -0.11913298 0.14118114 -0.35495386 -0.16301677 -0.17276584 0.5239361 0.006098247 0.15941153 -0.16466862 0.31769902 -0.026565604 0.20092829 -0.028024493 0.29518998 0.07233206 0.025933845 -0.095099494 -0.1527111 0.040489867 0.32735297 -0.13136216 -0.1369071 -0.17064705 -0.19221382 0.12728052 0.098834425 0.018647803 -0.04556903 -0.47590923 -0.09396898 -0.3095848 0.19572213 0.22022872 0.009546229 0.118845515 0.06729708 0.2449143 -0.30579394 -0.39712533 0.04080392 -0.32035765 0.19743873 -0.055031456 0.06596474 -0.2509079 0.2780036 0.18932317 0.5530081 -0.1093117 -0.01939593 0.016852183 0.41223675 0.328704 0.31416085 -0.013870182 -0.46565998 0.08065651 0.04087251 -0.035503943 0.36315924 0.1656409 0.3568706 0.40713716 0.4019309 -0.17160664 -0.2545491 0.5090688 -0.25667548 0.10023351 -0.07146405 -0.1946379 0.23450203 0.056995872 -0.037434272 -0.06466282 -0.046186224 -0.15530312 -0.27084616 -0.41605785 0.19705433 -0.21310964 0.38758525 -0.0074790674 -0.32382527 -0.48470816 -0.18681961 0.018035352 -0.33395976 -0.15830702 -0.00608819 -0.24856897 0.020727422 0.14595869 0.14341873 -0.29590917 0.18725604 -0.27803272 -0.435106 0.26067072 -0.041237883 0.28642634 0.22887649 -0.08568439 0.22120367 -0.22237596 0.08448797 0.14889294 0.2259817 0.09916588 0.051159803 -0.40874344 -0.39853626 0.2926738 -0.0696949 -0.28847483 -0.047150917 -0.29297963 -0.18467811 -0.054518174 0.06245888 -0.013935353 -0.28534245 0.036082573 -0.4929396 -0.0018743508 0.13986453 -0.35900584 0.035885762 -0.14845057 0.07582883 0.029932613 -0.04756235 0.10826636 0.20479283 -0.048027035 0.15141076 0.16032827 0.24478666 0.22783977 -0.16255096 0.24804756 0.2836787 -0.022557886 0.14941438 -0.08010853 0.21973424 0.33916578 0.15622309 0.31537893 0.11099344 -0.0003269621 -0.191673 -0.11131962 0.28227198 0.22396143 -0.30524048 -0.19466111 -0.041605007 -0.51838046 -0.029663097 0.302106 0.054473694 -0.26759326 0.08329923 0.13358185 0.1235838 0.22699769 0.37827042 0.09404407 0.20192653 0.2439814 -0.05392786 0.15253495 -0.12782761 0.13958848 -0.016795466 -0.053662382 -0.02121632 0.1597575 -0.21512483 -0.117717974 0.11175878 -0.081414856 0.22902118 0.15470977 0.4671998 0.05297718 -0.42722726 0.07387215 -0.09287632 0.21357882 -0.29237273 0.16044132 -0.1266839 -0.08010613 -0.088786006 -0.1357667 -0.040105868 0.096843235 -0.25228032 -0.17419003
a 0.08634887 0.13560313 0.12418456 0.1147648 0.16647695 0.14460158 -0.20267104 -0.2958975 -0.34338355 -0.107519634 0.032178648 -0.0920667 0.1262621 0.15993525 -0.027277112 -0.16244781 -0.09856818 0.1394324 0.04482869 0.19424438 -0.07539731 0.11300929 -0.110116035 0.2517298 0.3169297 -0.0013630518 0.3098554 -0.31556636 -0.0124447495 0.17960382 0.10162117 -0.14100856 -0.0034885064 0.19867945 0.27015972 0.316081 -0.43177196 -0.32942072 0.45182857 -0.179401 -0.34653315 0.031281017 -0.23013851 -0.08382842 0.2844838 0.13089216 -0.13398191 0.06575266 -0.043653045 0.17726724 0.08587141 -0.1042891 -0.11805663 0.3555536 -0.025481988 0.0021568816 -0.093898095 -0.13836633 0.0787153 -0.14375643 0.07306886 0.019694587 -0.09406431 -0.28003222 -0.12622997 -0.09282 -0.050048523 -0.33629113 0.28392223 0.0897404 0.37205806 -0.0040003294 -0.13127093 0.16705176 -0.2528491 -0.1447979 -0.09732633 -0.12996638 0.005207471 -0.047449294 -0.07918106 0.11565471 -0.11541066 -0.08339818 -0.021820037 0.10433111 -0.12361228 -0.037628334 0.20440646 0.17724925 -0.18740182 0.05051433 -0.1925464 0.08270659 -0.48646513 -0.09947445 -0.10571303 -0.038014986 -0.03597015 -0.049333982 0.056899577 0.07417816 -0.10164625 -0.13015352 -0.048281882 -0.036023527 -0.20950872 0.20017992 0.22017415 -0.1049073 0.31432715 0.114235856 0.070821926 0.3471933 0.0024532042 0.015272301 -0.01107893 0.078652345 0.24905467 0.034063067 -0.10668727 0.033816367 -0.06921028 0.118521675 0.056999765 -0.06591415 -0.2567674 -0.30274868 0.013464398 -0.2432748 0.1203847 0.13879095 0.0511606 0.23769985 0.098391995 -0.13561572 0.04878859 -0.3399463 -0.3714601 -0.2525411 0.12722968 0.085667074 -0.04918726 0.047888845 0.22034338 -0.13467705 0.0072410447 0.096060835 -0.039775226 -0.058003142 0.04311728 0.13999598 -0.036571026 -0.02501546 -0.026023448 -0.4715494 0.07344137 0.36277965 0.06708144 0.07772856 -0.0551914 -0.007527347 -0.025364835 0.070951015 -0.07144154 0.0841644 -0.09181878 0.20009851 -0.011429071 0.09366045 0.34575394 0.06919058 0.17216879 -0.027879586 0.11412908 0.09596218 0.24501605 -0.040958308 -0.11791577 -0.047818847 0.24950625 -0.024495613 -0.2793026 0.06509 -0.23494278 -0.17310326 -0.28959414 -0.012699277 0.16600503 0.13726762 0.15474807 0.06883541 -0.07600559 0.14702961 0.14139533 0.06551303 -0.055566695 0.3993815 -0.0025149214 -0.20583461 0.0017259761 0.046492334 -0.075517185 0.19831377 0.09869527 -0.048328064 0.13805543 0.016333476 0.12082149 0.19419341 0.024566013 -0.2129625 0.0136992 -0.2769033 0.12857474 -0.29935852 -0.10846319 0.21969916 0.069127604 0.09625916 -0.26832202 -0.135015 -0.2650321 -0.2888427 0.093402795 -0.0935609 -0.057383887 -0.061080754 0.15785526 -0.30878943 -0.08894074 -0.19478273 0.004247855 0.1516617 0.03649673 0.23257625 -0.057441317 -0.1789987 -0.16913028 0.08444333 -0.10946464 -0.32024372 0.059723638 0.051302545 -0.014014971 0.16086179 0.1655758 -0.0346538 0.4326135 0.0817164 0.038251236 0.28852808 0.14786465 0.062375546 -0.03539681 -0.5252131 -0.15785007 -0.15421556 0.29392177 -0.2068207 0.017212285 -0.11510145 0.35157195 0.0683008 -0.13036792 0.35326153 -0.27218235 0.011174126 0.25876853 -0.047460932 -0.13832186 0.01505317 -0.27146134 0.1123199 0.19946982 0.15956603 -0.059910923 0.042991716 0.12816764 -0.23107186 -0.007269142 0.019500075 -0.19155876 -0.035613406 0.2978561 0.012473733 -0.2687563 -0.06053606 -0.27841145 0.1703471 0.025908569 0.042121135 0.16349307 -0.147013 -0.012786866 -0.04286946 0.017470058 0.0124698095 -0.28967524 -0.10160313
de -0.023064991 -0.091415375 0.081420824 0.17289522 -0.1124638 0.19345479 -0.114352465 -0.23711146 -0.049024567 -0.3436991 0.096661806 0.32798997 0.2703001 0.3284947 -0.17146672 -0.14875494 -0.1284823 0.44726092 0.12991303 -0.07367811 -0.2470628 0.32782286 -0.07668841 0.29537308 0.1295739 0.17813736 0.25236082 -0.022189498 -0.06944795 -0.24748258 0.24568819 -0.4848402 -0.26858363 0.20771709 0.14263771 0.232442 -0.21714018 -0.26708636 0.34300056 -0.14796345 -0.10016507 -0.23526025 0.24317208 0.058249213 0.23142217 0.17636462 0.026225142 -0.034516316 -0.23421453 0.2808218 0.25163874 -0.31952202 0.14730172 0.38924703 0.22877516 -0.04855417 -0.025931837 -0.035277896 0.009649055 -0.07855384 0.303953 -0.08498916 -0.036954243 -0.31434625 -0.14749783 -0.024976043 -0.03208567 -0.18294032 -0.0013357648 -0.38005844 0.020197798 0.106642984 -0.0023920466 0.15196061 -0.1546214 -0.12292998 0.023967199 -0.22825979 0.0576557 0.16188326 -0.048323784 0.04233208 0.023010226 0.191988 -0.010145204 0.19359173 -0.28725964 0.14557193 0.24657407 0.035399873 -0.17607778 -0.08015221 -0.20378341 0.11768644 -0.380288 -0.19340803 -0.047418505 -0.017734157 -0.2401161 0.21068291 0.12019969 0.23940238 -0.15675892 -0.16816422 0.21114367 -0.19680612 -0.08477701 -0.111272 0.016678365 0.15849072 0.3688209 -0.058721136 0.02185857 0.28264856 -0.23929873 -0.11949898 -0.104625605 -0.10252055 0.18975705 -0.18576734 0.1068039 -0.122803606 -0.25201222 0.19113891 0.21366586 0.10397834 -0.091931425 -0.061444245 -0.025743045 -0.14291161 0.29963133 -0.1904797 0.20638451 -0.08286714 -0.113849096 -0.22336675 0.12402327 -0.2594169 -0.21216874 -0.022677043 0.2727449 0.28916997 0.007876085 0.12214326 -0.13236845 -0.06713978 0.027681086 0.111716464 -0.024207521 -0.21097913 -0.1703266 0.23071489 -0.050986897 0.03290579 -0.08823687 -0.30425325 0.123147234 0.22160941 0.03441061 0.22945783 0.12271896 0.20956545 -0.03040254 -0.06336678 -0.2488246 -0.0024534774 -0.07443118 0.38123408 -0.123276874 0.23218687 0.43668893 0.16815549 0.016412932 -0.11018206 0.062822096 -0.12557761 -0.26968846 -0.14140652 -0.054395355 0.14467494 0.19880794 0.07092562 -0.2118929 0.17604709 -0.46683666 -0.21412423 0.0362864 0.17049462 0.18076557 0.01834549 0.009240035 0.14732933 -0.019436272 0.1148073 -0.03490408 0.10358893 0.015520143 0.28367603 0.13334039 -0.08146034 -0.0363817 -0.17748003 -0.18494585 0.18478025 0.16072164 0.15542457 0.23415856 -0.35543132 0.054595508 0.13382466 -0.11365526 -0.29369664 -0.10511727 -0.15474717 0.10412489 -0.28717253 0.054173425 -0.007800653 -0.10781469 -0.035248052 -0.1500001 -0.41947806 -0.12986328 -0.030496411 -0.14783293 -0.09537836 0.042839058 0.17455448 0.097460896 -0.23697466 0.1350632 0.1460792 0.18505225 -0.010817649 -0.19796005 0.16342312 -0.004691984 -0.19479348 -0.2497098 -0.28162012 0.020268906 -0.31149894 -0.03645534 -0.12728696 -0.05767287 0.18915842 0.040353447 0.09473031 0.39697134 0.14712991 0.12327736 0.16482776 0.15364693 0.11175285 0.20278716 -0.39202568 0.03693906 -0.3603399 0.20477702 -0.6536486 -0.022203296 -0.1209863 -0.10525604 0.25493 -0.12258047 0.47500777 -0.10543022 -0.047442712 0.11758653 -0.117486365 -0.13243873 -0.42464736 -0.13109721 -0.029102363 0.18709406 -0.06569559 -0.10442827 -0.034595 -0.28460506 -0.33245066 -0.1754191 0.16047618 -0.11316988 0.04472658 0.41659427 0.008424129 -0.2752656 0.0014814832 -0.11445607 -0.061167013 -0.33126605 0.104467705 -0.10235229 -0.34057978 -0.18996777 -0.084461704 0.1892266 0.07169131 -0.2703501 0.06833218
o -0.124555744 -0.12927836 0.29874548 0.30552542 0.30003974 0.016842635 -0.10938606 -0.14478163 -0.18204983 -0.27934298 0.23985228 0.18381965 0.082106896 0.14240351 0.12860669 -0.10447844 -0.12498568 -0.19494312 0.089345194 0.17124505 0.006945702 -0.14466263 -0.0053794608 -0.2657057 0.07645553 0.09356331 0.059476152 0.0069812373 0.27230284 0.047768176 0.10884144 0.0898129 -0.29311323 0.11726935 -0.37871635 0.17736417 -0.16036023 -0.3558744 0.12752026 -0.20826133 -0.065655015 -0.2652667 -0.02484815 -0.10639553 0.15071034 0.3873219 -0.17398944 0.010386698 0.063827 -0.20570344 -0.13867827 -0.492409 -0.29842734 -0.02350556 0.19380155 0.08359477 -0.0046171756 0.18418914 0.20619544 0.1474091 0.16453397 -0.121669136 -0.16565187 -0.21547773 0.1506609 0.23448274 -0.18958384 -0.30455223 -0.06852497 -0.43949017 0.5361407 0.24071634 -0.269161 0.16591659 -0.1952782 0.30052578 0.076208934 -0.026596596 -0.2107974 0.20108989 -0.10375463 0.18782118 -0.10539193 0.19541034 -0.25110963 0.18992744 0.19150542 -0.25848797 0.0072639524 0.09300621 -0.5536147 0.17699564 -0.16637462 -0.07492255 -0.41363037 -0.45201743 0.14564246 0.025688028 -0.20330416 -0.08585338 0.22708867 0.2890533 -0.1930523 -0.2926617 0.2767247 -0.1391604 -0.18770143 -0.1379365 0.16099569 0.1136958 0.27044937 0.14627248 0.14342746 0.012146271 0.19789498 0.03959083 0.036084484 -0.05235337 0.32804623 -0.058653783 -0.021933544 -0.38910547 -0.10644908 0.052629378 0.5542633 0.38514465 -0.19875884 -0.052387927 0.1704848 -0.2721326 0.20701624 -0.12245677 -0.076044016 -0.21965937 0.20331931 0.046274006 -0.040197857 0.041403286 -0.13969238 -0.37174588 0.2223179 0.07704665 0.18202329 0.04541536 0.22213233 0.07372219 0.03447886 0.22078635 -0.24919625 -0.32635564 0.0687422 0.041771136 0.40095657 -0.16358949 -0.1370143 -0.25710458 0.15159658 -0.17109172 -0.1376635 -0.20357354 0.20418498 -0.052586447 -0.087877326 -0.06632305 -0.1559417 0.23889817 0.05937051 0.08234306 0.23954345 -0.005305748 0.3169614 0.11713904 0.13649903 -0.34722823 -0.013628388 -0.21231546 -0.07181921 -0.21509477 0.01262267 0.11114066 0.22148123 -0.14338438 -0.42657125 -0.01951535 -0.06434779 -0.3551807 -0.19616403 0.15125783 0.027178343 -0.054170057 0.22548985 -0.036023453 0.024526944 -0.19035006 0.014812938 0.115626395 -0.099485934 0.013868816 -0.14500411 -0.04680306 0.46776924 0.015979115 -0.039398413 0.06896282 -0.15844813 -0.14881057 -0.0074282386 0.07913051 0.20780173 -0.25263545 -0.15376778 -0.05037835 -0.062712006 -0.062811635 0.36129522 0.0940182 0.14628814 -0.098227024 -0.19835514 -0.26847765 -0.28789535 -0.25465867 -0.45953485 0.10639462 0.22206677 -0.32344323 -0.13498825 0.05784999 -0.063311026 -0.24321814 0.0072518336 -0.23374666 -0.08692831 -0.05270433 -0.064284965 0.540362 0.14357512 0.03805465 -0.31941158 0.05910909 0.064784005 -0.3807786 0.05336758 -0.23826908 0.013775688 0.1514006 0.019122554 -0.17093357 0.44352484 0.32338533 0.18026589 -0.03979657 0.27925995 0.24495494 -0.20726436 0.16788554 0.28520235 -0.37505144 0.32310694 0.17312856 0.08019052 0.035271343 -0.048394147 0.20526469 -0.0485912 0.26958224 0.039157197 -0.10267026 -0.0030550829 0.010932101 -0.047635976 -0.38951984 -0.1658022 -0.07144778 -0.011715937 0.32898286 -0.09152104 0.1852351 -0.5112411 -0.3190378 -0.059447896 -0.010215451 -0.15647358 0.115074895 0.3206548 0.09670841 -0.18468525 -0.07602039 -0.2361702 0.4156781 -0.2565302 -0.017347315 0.010261718 -0.15645008 -0.08679698 -0.2113587 0.03860063 0.1059254 -0.28996313 -0.17257054
é 0.001510669 0.1361208 0.16064323 -0.09429956 -0.009454673 -0.040018253 -0.10557175 0.0030634734 0.09765794 -0.16355821 0.013633706 -0.11997403 -0.07854436 0.36001527 0.14300959 -0.24066094 -0.19425902 0.28509745 0.092052184 0.20872705 0.29707837 0.14819208 -0.056870412 0.30157253 0.028501397 0.4260213 -0.023623848 -0.26815054 -0.08962384 -0.08680506 0.13987134 -0.1266431 0.07742882 0.07118257 -0.04851375 0.36627442 -0.38818458 -0.3494551 0.0768784 0.0016172179 -0.036130853 0.050398037 0.15462194 0.24422988 0.23880464 -0.06607236 0.17919914 -0.078991905 0.09330317 0.10634162 0.1906654 -0.26448256 -0.0048492714 -0.17334116 0.18067656 0.013904978 -0.17191528 -0.06594523 -0.35677564 -0.08944799 0.07408358 0.10709074 -0.09220569 -0.1501441 0.34659252 0.0412553 -0.16399665 0.33848786 0.10774496 -0.15079981 0.20545065 -0.1459832 -0.11480603 -0.15783204 -0.03686207 -0.1831926 0.1573308 -0.20973846 -0.27254227 0.09879568 0.102499776 -0.14220622 -0.29143077 -0.013271199 -0.21722697 0.07233284 0.13071513 0.20950365 0.13107352 -0.044463065 -0.055380907 -0.048783194 0.0069275834 0.38852963 -0.06757592 -0.0871515 0.08762056 0.25403172 -0.10513772 0.30566886 0.101524316 -0.05110687 -0.087399796 -0.27829182 -0.06268821 -0.04366461 -0.029491667 0.095981844 0.06966353 -0.043916356 0.35184863 -0.12297566 0.028868658 0.14632022 -0.27193907 -0.06278421 -0.029468814 -0.038592856 0.2570186 -0.2557525 -0.0659727 0.031278446 -0.26136878 -0.25428143 0.3355342 0.13693607 -0.05659019 -0.071687065 -0.18215942 -0.2619539 0.21671909 -0.31447566 -0.009869412 0.3361896 -0.18393989 -0.06095274 -0.020945096 -0.19822723 0.27980798 0.18698153 0.2547438 -0.055555176 0.07393679 -0.387101 -0.20892726 -0.04809879 -0.040407866 0.3519211 0.11119254 -0.098349415 0.23289561 0.2143524 -0.039998557 0.09536401 -0.13240445 -0.30392122 0.006427527 0.029237082 0.4582141 0.38805252 0.15329225 0.20854865 0.0005919109 0.24452607 -0.3666698 0.11291549 -0.29786247 0.15006974 0.14439897 -0.049532644 0.22090712 -0.15957727 0.1306544 -0.11238648 0.07840634 0.0031008928 -0.044889294 -0.28323233 0.033980068 -0.23687306 -0.021450559 -0.0044437763 -0.16916272 0.017927643 -0.26499364 -0.24411783 -0.32685697 -0.026834188 0.1690424 -0.21968047 0.017806232 0.3112469 0.118536554 0.4577218 0.09496638 0.12382893 -0.104414344 0.10892652 -0.20821072 0.24390146 0.011594754 -0.2171146 -0.17865011 -0.07468694 0.057439033 0.1772772 0.2299353 -0.11729395 0.038731735 0.30312535 -0.108352326 -0.09781414 -0.024594348 -0.17146541 -0.31128082 -0.12054217 -0.15911481 -0.02817225 -0.11461116 0.14953253 0.013170896 -0.21408205 0.062752746 0.25028467 -0.15844972 0.038479224 -0.24158597 -0.025907252 -0.12531357 -0.120532274 -0.21236913 -0.056699153 0.018694477 0.24507959 -0.036887567 0.14801195 0.2020324 -0.06305729 -0.22756071 -0.22019324 -0.34349883 0.25805742 -0.14496934 -0.081350066 -0.07311017 -0.24014066 -0.107769586 -0.19431753 0.29652333 -0.19510983 -0.20580171 -0.22197458 0.03927842 -0.20724054 0.15570502 -0.04604175 -0.26528603 -0.28299707 -0.17854233 -0.28866646 -0.07195302 -0.052324492 -0.013128009 -0.0119486805 -0.17982376 0.05119447 -0.13398321 -0.0053916066 -0.029698482 0.24684307 -0.07475142 -0.14595714 -0.125984 0.014228385 -0.12031938 0.058825184 -0.27452615 -0.15160666 0.0111500835 -0.25764734 0.27020627 -0.17451698 0.08456186 0.0520349 0.26069564 0.17853597 -0.07470333 -0.27368644 -0.08765748 -0.27057475 -0.3837825 0.106523246 -0.11860008 -0.14888777 -0.24952735 0.4536296 0.08800601 0.16386631 0.044857904 0.15381688
não -0.2975662 -0.39636326 0.40883002 0.3165165 0.10808534 -0.14072497 -0.33523488 -0.19837739 -0.08234083 0.3266477 0.1583839 -0.13803703 -0.24276608 -0.14114915 0.09880619 -0.22186896 -0.2611769 0.18873253 0.09181332 0.15477128 0.17491436 -0.0135480715 0.109930106 0.06150068 -0.16382802 0.21880282 -0.003046351 -0.014868804 0.248822 -0.06596321 -0.15679576 0.18901739 -0.32007334 0.1065143 -0.22409281 0.3081675 -0.34689835 -0.31452766 -0.034754287 -0.18331498 0.13510264 -0.055728804 0.1412942 -0.14766683 0.22492014 0.061861895 0.17117594 -0.16858223 -0.025567563 -0.32601836 -0.19867931 -0.015736738 -0.29409733 -0.20806815 0.2398047 -0.010819936 -0.13290808 -0.25726447 0.0016410162 0.14223512 0.39226484 -0.15177388 0.043170217 -0.42043826 0.18398395 0.12017162 -0.13387313 -0.24637753 -0.009884438 -0.3794538 0.42957032 -0.19972512 -0.31434503 0.11051465 -0.06610914 0.086527996 0.32948515 -0.1418696 -0.23870263 0.13212343 0.04833583 0.18190959 -0.14940658 -0.03740707 -0.09356787 -0.01488175 0.07143836 0.0645802 -0.08050293 -0.11955435 0.013919862 0.12676314 -0.0890219 0.51405436 -0.40361267 -0.432557 -0.0059804176 -0.033712335 0.004309763 -0.07338297 0.010041933 -0.05811848 -0.2727251 -0.21216324 0.05116457 0.10315528 -0.010896014 -0.06469751 0.0873229 -0.2987549 -0.10699056 -0.31784695 0.038600888 -0.07630284 -0.011633381 -0.13346887 0.22731958 -0.074134335 0.3134264 0.114312716 0.32202375 -0.1626922 -0.4206469 -0.17671749 0.5853184 0.124628976 -0.11440794 -0.21041262 -0.105539545 -0.3589991 0.27536044 0.13483673 0.09515886 0.10259358 0.08765348 -0.19440041 0.073535025 -0.13882485 -0.19268814 -0.4031721 0.28986448 -0.22175431 0.3078271 -0.03518669 0.1638289 -0.0047241566 0.2805566 0.057013538 0.16372985 -0.084308214 0.56151676 -0.0097061675 0.13339426 -0.04549514 -0.16497661 -0.3366207 0.085617326 0.08903826 0.3107093 0.034155127 0.3888441 0.24836023 0.008815185 0.016558735 -0.14977889 0.50341547 -0.30226806 0.026981069 0.41167706 0.103954665 0.38456744 -0.14781734 0.12352102 -0.29919103 0.032676224 -0.23590061 0.04747413 -0.1716059 -0.23904228 0.1755203 -0.008338532 -0.06261029 -0.13203548 -0.32203546 -0.19685584 -0.1184411 -0.1498424 0.21413945 0.06334388 -0.23681752 0.25398004 0.09683105 -0.13987328 -0.4440363 -0.08600541 0.03409441 -0.08347151 0.22543165 0.17445658 0.04342867 -0.0016069796 0.16282853 0.0775055 -0.061253488 0.023512065 -0.073754184 0.4101343 0.25861958 0.19665255 -0.16886711 -0.27505115 0.12082557 -0.056526963 -0.30425322 0.15502866 -0.24110848 -0.0649375 -0.17026965 -0.20533203 -0.14512555 -0.23250093 -0.032465596 -0.43317005 0.22804242 -0.022883018 0.043794565 -0.12675287 -0.37770686 -0.00080795126 -0.40648398 -0.2954853 0.1919698 -0.032743104 0.13553403 0.18004802 0.05687446 0.1716377 -0.031438153 -0.25660896 -0.02383288 -0.0080734575 -0.16988063 0.058156885 0.04229699 -0.16838875 0.0036606581 0.058564536 0.23775572 0.13889685 -0.10331157 -0.24883446 0.16112101 0.07611889 0.25576457 -0.3664193 -0.07974451 -0.27664688 -0.48221365 0.28358552 0.09302206 0.01637927 -0.22420594 0.08741947 -0.23846313 0.23789793 -0.0076654227 0.026634302 0.14345253 0.06302119 0.082717925 -0.21820557 -0.18832558 -0.253598 0.13411488 0.08658768 -0.2964282 -0.051919762 0.27970064 -0.2703084 -0.27359903 0.3920354 0.06944891 0.07155072 0.15804932 0.25745663 0.20129576 -0.12012504 -0.16521913 0.013956058 0.004126834 -0.21809177 0.14785808 -0.28154922 -0.07387604 0.14249343 -0.18205729 -0.059392404 -0.01856819 -0.09567327 0.10015457
da 0.035966933 0.124500826 0.03901523 -0.061600644 0.06117188 0.071309246 -0.011448748 0.004114774 -0.23170409 -0.3761407 -0.16168582 0.48205322 0.24697664 0.22918983 -0.29990172 -0.14887354 -0.360168 0.3257569 0.22311307 0.17647023 -0.05372996 -0.058376674 -0.22112419 0.27557278 0.21018253 -0.05421862 0.2365049 -0.37813506 -0.17854847 0.014798997 0.58367133 -0.48117056 0.06301236 0.13852073 -0.025839945 0.6009104 -0.40356192 -0.25167292 0.11622195 -0.21240935 -0.17271312 0.051184516 -0.14011677 0.15998763 0.11538882 0.17604367 -0.06499839 0.082124 -0.29216802 0.075346604 0.13813972 -0.27955714 -0.21053809 0.27392808 -0.28499958 0.07456708 -0.18529603 0.028628098 0.3169594 0.4493698 0.071796454 0.029037533 -0.2106621 -0.105115384 -0.1410185 -0.020486258 -0.23762491 0.110565074 -0.26810303 -0.04046792 0.2561959 0.25873834 -0.16905856 -0.3007891 -0.1528925 -0.3864589 0.16323328 -0.098384224 -0.18805131 0.2002232 0.044950046 0.3325613 0.16788204 -0.054221243 -0.24946576 0.29713234 -0.24783197 -0.1056609 0.6730827 0.23144926 -0.06992423 0.0648096 -0.1775807 0.10374056 -0.4921507 -0.34218124 -0.2829901 -0.041569438 -0.0730926 0.37696496 -0.028162833 0.27593437 0.03896711 -0.40472117 0.38885218 0.20102596 0.25951663 0.036799762 -0.017029958 0.16013493 0.50333995 0.375343 0.09362256 0.5943702 -0.22881494 -0.3171354 -0.21430653 0.080279745 0.2375671 0.043172218 -0.18040688 0.029547976 -0.05539031 0.28171948 -0.44862306 -0.026369018 -0.110078946 -0.22935654 0.543968 -0.24894829 0.07498689 -0.3379747 -0.011644313 0.06959334 -0.28266752 -0.22098967 -0.018988812 0.015284588 -0.06085401 -0.08950692 0.17342028 0.26882955 -0.2685986 0.00071828626 0.17752741 -0.036181375 0.10848044 -0.030268842 -0.036206484 -0.1794035 0.08957157 0.35425782 -0.17047206 -0.12946275 0.071950674 0.009389251 0.110671006 0.107783794 -0.15145352 0.13539387 -0.2520486 0.23213331 0.41910937 0.11858376 -0.06132143 0.09430981 -0.18812779 0.07645705 -0.5871237 0.003066925 0.23729926 0.23298731 0.28688246 0.18200658 -0.13641256 -0.07461026 0.07055592 0.13111337 0.46818113 0.03959582 0.34140113 -0.07583579 -0.18680605 -0.059673034 -0.648914 -0.132815 -0.38381094 -0.050225955 0.22947198 0.28436485 -0.12494217 -0.0075656786 0.08132335 0.17865185 0.23218758 -0.09991372 -0.109876096 0.35459554 -0.092899784 -0.00038068116 -0.11549099 -0.29654983 -0.090076536 -0.49924377 0.033227764 0.17293407 -0.13252611 -0.057547756 -0.082896985 0.22486004 0.24625243 -0.025680147 -0.3644945 -0.050616123 0.019122045 -0.5327079 -0.30893686 0.2569329 0.34524018 0.16891386 -0.24621904 -0.19746484 -0.38977784 -0.028260566 0.18002237 -0.21564399 -0.042106874 0.43229112 -0.11392422 -0.09217901 0.6460011 -0.22964501 0.4254744 0.34439754 -0.3522932 0.5188079 -0.09188 -0.092769206 -0.0073457663 0.23250581 0.108227715 -0.049635336 -0.000110155685 -0.23659821 -0.0152382525 0.517871 -0.06455508 -0.15422218 0.42525145 0.17790243 0.20731346 -0.018188082 0.29138836 0.33922386 0.03805269 -0.69156176 0.08175301 -0.5304073 0.30118862 -0.025690401 0.22730137 -0.15349357 0.09608438 0.45591414 -0.24042474 0.4025958 -0.021807028 0.17692535 0.1366081 -0.026856204 -0.08774016 0.03698953 -0.28180873 -0.11476184 0.17171407 0.09327759 -0.15913966 0.32869455 -0.16983698 -0.107920215 -0.04288874 -0.029852176 -0.2150013 -0.14142925 0.42428935 -0.22634676 -0.4639616 0.0016320777 -0.4483615 0.33298585 -0.15861483 0.126709 0.09338645 -0.31335208 -0.17574044 -0.10850597 0.010109608 0.2133816 -0.37285542 -0.072128646
com -0.13762064 -0.18011786 0.25574672 0.21844487 -0.011374979 0.22635864 -0.06767548 -0.054359347 0.093845494 -0.21009316 0.120347805 0.09982634 -0.05400609 0.69709307 -0.1777995 0.112620324 -0.090788804 -0.08052072 0.034216013 0.077894464 -0.08610679 -0.28741693 0.030142272 0.26456985 -0.069064334 0.29967287 0.15304318 0.011805554 0.25113246 0.36574563 0.22906587 -0.30046242 0.09641186 0.16768095 0.020298187 0.23587023 -0.08984948 -0.32008108 0.1304294 -0.22345378 -0.19863325 -0.19821039 0.3819156 -0.08456907 0.36925852 0.120092385 -0.062687755 -0.5527415 -0.26669422 0.031656157 -0.20827271 -0.1405539 -0.30265248 0.071627736 -0.05038351 0.051671553 -0.01161063 -0.001097149 -0.058887787 -0.0942928 0.2023253 -0.18608725 0.1012854 0.1337741 0.26865453 -0.049405716 0.10851886 0.0021829007 -0.056988284 0.15837707 0.32576057 -0.17959389 0.13282762 -0.1637522 0.027099075 -0.010111386 0.18332201 0.0020558308 -0.1491197 0.121253654 0.0350763 0.033055045 -0.065502755 -0.065622225 -0.14060287 -0.19258343 0.21720871 -0.013091011 0.2019898 0.13864559 -0.07925449 -0.0019597034 -0.19480969 0.15898241 -0.28712186 -0.3222946 -0.0829245 -0.14622046 0.17244536 0.32036233 -0.03459573 -0.0049823555 -0.011861325 -0.3014455 0.22953476 -0.007312403 -0.24770874 -0.28718686 0.118368536 -0.3009407 0.33055902 0.16075869 0.070846625 -0.0575173 -0.044443756 -0.34593615 -0.06514738 -0.10703525 0.5081434 0.28137228 -0.4981318 -0.030069446 -0.077252746 0.36333817 0.21305156 -0.13275482 -0.21664181 0.056856196 -0.083202966 -0.15333234 0.3665472 -0.08047493 0.04498078 0.22115627 -0.092289396 0.09498797 -0.19685782 -0.41659644 0.007552223 -0.23477137 0.053660575 0.018065687 0.12989637 -0.065440595 0.081854574 0.4107396 0.048640914 0.05217964 -0.24850577 -0.11531472 -0.024353955 -0.09827588 -0.05233559 -0.15330625 -0.10993489 -0.49432334 0.08088263 0.16032995 0.49110827 -0.1353181 0.042551182 0.28279558 -0.07704258 -0.044748865 0.13665642 0.2516553 0.2385464 0.13946044 -0.058825944 -0.045241397 0.04923852 0.1873096 -0.25555912 0.03174768 0.17805752 -0.43436527 0.11378178 -0.045251455 0.0080951 -0.16091637 0.040935084 0.12666303 -0.029098006 -0.06531558 -0.32377958 -0.18510959 -0.29924318 0.09509182 0.16237041 -0.13259716 0.18426283 0.0072796587 0.10413105 0.32146204 0.09442928 -0.13694659 -0.37104538 0.51016647 -0.04183728 -0.07420179 0.15937793 -0.2948281 -0.05606484 0.24443616 -0.33405972 0.42805266 0.27472037 -0.043467067 -0.34144747 -0.23084475 0.21828154 0.0745161 -0.20317908 -0.15237428 0.029918715 -0.19256748 -0.16073196 -0.011490555 0.039061323 0.1796305 -0.18542372 -0.03352067 -0.32467368 -0.19620632 0.004622073 0.028310528 -0.28101712 0.084813446 0.10723052 -0.15053299 0.18274327 0.07406476 0.2826797 -0.20220202 -0.13140984 0.18550748 0.08134207 0.061061528 -0.3763601 0.37290436 -0.2329481 -0.178227 -0.23596878 0.12012281 -0.02986145 0.12585194 0.03211924 0.11876538 0.49666604 0.2220937 -0.059684433 -0.24946634 0.0050414964 -0.13198325 -0.1310678 -0.4127925 0.24079752 -0.50697356 0.29341078 -0.30574724 -0.14626443 -0.30800816 -0.056413326 0.30826753 0.015553536 0.26971278 0.03835906 0.13981286 -0.03821698 -0.21560052 0.22245438 -0.029824257 0.33180088 0.018754646 0.07738832 -0.015575248 0.0009152473 -0.08828185 -0.01754068 -0.4455333 0.16474117 -0.027130999 -0.07696072 -0.053861644 0.5020922 0.16961029 -0.22331317 0.07627696 -0.26662228 0.14859286 -0.4941202 0.046086524 -0.14318311 -0.12550801 -0.14415848 0.22154306 -0.25176594 0.1523318 -0.2626902 -0.23545456
ela -0.11534649 -0.43690068 0.1769394 0.31373292 0.16876848 -0.1116316 -0.22288002 -0.20185149 -0.1977515 0.22932535 0.20669863 -0.24458344 -0.27804878 -0.1427215 0.06254065 -0.2962296 -0.4236168 0.19108222 0.007872516 0.22051686 0.21011972 -0.082444526 0.23419622 0.011983422 0.005335915 0.033129096 0.250897 0.2478481 0.3365986 -0.045923427 -0.20885192 0.17004755 -0.03665833 -0.014051689 -0.22483625 0.28925183 -0.32448676 -0.29652104 0.11433369 -0.06437822 -0.014262523 -0.13541816 0.0185438 -0.23879394 0.15945649 0.21767357 -0.083549544 -0.06460306 0.025558086 -0.239824 -0.2731934 -0.06751971 -0.2641438 0.009383235 0.13339294 -0.072263 -0.08016475 -0.03489606 0.12324404 -0.07910971 0.29093713 -0.15593603 0.105137855 -0.5000758 0.17059858 -0.038832523 -0.047927078 -0.46350768 0.034428068 -0.43983036 0.5168881 -0.062416244 -0.198414 0.15938975 -0.25713632 0.095088094 0.23326924 -0.05038962 -0.10560151 0.105586655 0.019185776 0.18391839 -0.22586927 -0.02748304 -0.1377039 -0.10575554 0.22699425 -0.028816054 -0.03284671 -0.25759906 -0.13815755 0.13644178 -0.15761589 0.21094751 -0.42042404 -0.2538138 0.09786669 -0.10214687 0.007150775 -0.2636173 0.060837924 -0.09192363 -0.1280742 -0.10621342 -0.03583798 0.02330945 0.03975694 -0.03937131 0.17069097 -0.24621499 0.007658107 -0.13879412 -0.03903216 -0.088384345 -0.07126468 -0.050066613 0.269713 0.027184635 0.30771792 0.15998237 0.15752955 -0.121178515 -0.24810791 -0.060863316 0.6134958 0.033123713 -0.12067884 -0.21405482 -0.059902806 -0.10214105 0.26444367 0.25712842 -0.058558423 -0.08809918 0.12768932 -0.14315699 -0.06399768 -0.28304988 -0.21606112 -0.3536618 0.13514578 -0.10950099 0.33211172 0.060764655 0.37462017 0.06905251 0.09409813 0.1059836 0.08851234 -0.1802507 0.3964469 0.15853254 0.09604947 -0.11918934 -0.0107353 -0.35795316 0.045809366 -0.012995515 0.21000071 -0.1870381 0.23011152 0.13354854 -0.1325733 -0.031629097 -0.07924876 0.36812478 -0.17898098 -0.016056469 0.36248896 0.031262476 0.36994317 0.10974509 0.03697391 -0.13834415 0.0766703 -0.15844168 0.05121614 -0.24366821 -0.18879819 0.19881915 -0.06132272 -0.1045768 -0.24442318 -0.12955572 -0.024682794 -0.068599395 -0.05705477 -0.024933882 -0.066275716 -0.09814988 0.34547058 0.08827237 -0.011224454 -0.22832608 -0.11949768 0.107486576 -0.1334497 0.17145906 0.082066394 -0.21806364 0.19227245 0.13106787 0.12933913 0.1236063 0.12967457 -0.0508495 0.32809877 0.33048064 0.25116563 -0.11457099 -0.04956256 0.028269472 -0.039968573 -0.16362384 0.14135823 -0.21548933 -0.063383795 -0.09849459 -0.14078888 -0.18155497 -0.27102482 -0.114651255 -0.2874163 0.13264734 -0.14029783 0.05026328 -0.25939876 -0.178741 0.04576588 -0.25346318 -0.39125755 0.1497623 -0.053438175 0.11335095 0.2468146 0.11311872 0.22747011 -0.084614016 -0.35102105 -0.021205613 0.013726449 -0.26429063 0.035053205 -0.11644362 0.050510943 0.16856709 0.16432121 0.17701192 0.09823443 0.1813778 -0.16410814 0.25153092 0.2178893 0.18718848 -0.31800708 -0.13356315 -0.2170097 -0.37081558 0.37572247 0.21722941 -0.086698115 -0.046911534 0.20593043 -0.18072252 0.21911739 0.13731694 -0.21685392 -0.04038573 0.1346363 0.13605598 -0.24411348 -0.24532449 -0.27885854 0.048741184 0.17030448 -0.022357507 0.031581935 0.19264881 -0.278157 -0.046537973 0.11638635 0.13938648 -0.14760679 0.18578705 0.29376426 0.10062161 -0.14117134 -0.09568225 0.00531378 0.11766742 0.00723518 0.06639281 -0.001159499 -0.053486682 0.06973812 -0.16592225 0.00072132 -0.16722377 -0.16914706 -0.019422466
você -0.13212982 -0.17481583 0.1552017 0.26160115 0.050434057 0.22788325 -0.19188148 -0.39081725 -0.14828798 -0.07261248 0.1558592 -0.2885823 -0.27084944 0.2559602 -0.06169862 -0.21653512 -0.2796041 -0.2970004 -0.017723966 0.21864599 0.14942326 -0.017584864 0.054042604 0.054690663 0.036576234 0.3276461 0.2761514 -0.12965608 0.19176486 0.030804856 0.30911106 -0.099551246 -0.057108965 0.25839922 -0.10994138 -0.034395482 -0.4547263 -0.20709549 0.34002343 -0.0357732 0.2758954 -0.15211251 0.04274557 -0.110062584 0.12195271 0.078438886 0.022818113 -0.17124164 0.03517716 -0.24370852 -0.24759777 -0.014443943 -0.5997996 -0.20442335 -0.029784057 -0.18162733 -0.06413562 -0.29850823 -0.024751002 -0.48935473 0.14635347 -0.0023737184 0.07387223 -0.20780863 0.61123407 0.027722735 0.03370738 -0.25076374 -0.31734794 -0.17968781 0.14638314 -0.14544389 0.1326111 0.25039387 -0.01917032 -0.27240765 0.32996297 0.10628326 -0.24620141 0.098780714 0.1261751 0.055882204 -0.3034273 -0.012606522 -0.1785212 -0.30593127 0.29026744 0.22086625 -0.18381697 -0.22813405 -0.3908162 -0.13964792 0.1041879 0.21000093 0.029504517 -0.13419895 0.01956345 0.10511182 0.043998305 0.15203415 0.15016364 -0.44803658 0.13167375 -0.1957044 0.033578187 -0.1453117 0.035395764 -0.24086115 0.18827887 -0.251178 0.05988275 -0.037519198 -0.18137376 -0.011478944 -0.23783703 0.12472169 0.26162833 -0.06908069 0.30238983 -0.00874639 -0.12910633 0.16911638 -0.12094586 -0.061181385 0.47947046 0.018993111 -0.2503855 -0.02862417 0.11658586 -0.1526919 0.45886713 0.20272224 -0.17781797 0.08898591 -0.17044097 0.1847157 0.106767006 -0.19605513 -0.15358692 0.035994027 0.26444736 -0.04610717 0.2578009 -0.1503901 0.20003039 0.29452166 -0.030964114 0.18493716 -0.048463665 -0.2827663 0.14029515 0.066165276 0.23545374 -0.5030295 -0.28971314 -0.27493256 -0.10146136 0.021203695 0.47845507 -0.1282869 0.00084896805 0.0052632736 -0.15979882 -0.06669222 -0.079191275 0.38044226 -0.12456342 0.03033057 0.53672916 0.057276968 0.12724826 0.03578024 -0.17860065 -0.3484908 0.0759309 -0.14864868 -0.022110924 -0.11451965 -0.15922049 0.033200074 0.15762015 -0.13942583 0.18361141 0.0424838 0.24049252 -0.11017528 -0.48394307 -0.3930058 -0.13546085 -0.07676514 0.14636539 0.3523603 0.03184704 0.020481968 0.04464376 -0.023578016 -0.17579056 -0.16565566 -0.39926973 0.14381538 0.051813714 -0.19130898 -0.092163235 0.19481918 0.009240395 0.14168958 0.030436562 -0.013646264 -0.041764423 0.44314188 -0.30271903 0.021434154 -0.19007231 -0.174238 -0.066948526 -0.15069978 0.07314259 0.13842854 0.0386606 -0.0123435585 -0.08569969 -0.33594492 -0.30687454 -0.013691172 -0.37578645 0.17599607 -0.35389364 -0.1707898 -0.08341526 -0.22040969 -0.06638854 0.08033839 0.09826891 0.26734605 -0.16901812 0.3406293 0.17926028 0.27325317 -0.3451244 0.30351147 -0.21960542 -0.2556894 -0.10392571 0.14525793 0.022412732 0.17418867 -0.18401666 -0.1257494 0.15067902 0.34006152 -0.07564308 0.029858235 -0.014035632 -0.0109591 -0.1981884 -0.28375167 0.21295843 -0.27705505 0.049223848 -0.033573665 0.047304466 -0.42804167 0.001034724 -0.023970125 -0.2135368 -0.044380642 -0.24633028 -0.33677208 0.016081618 0.039616764 -0.15386726 -0.20348816 -0.074743815 -0.11837996 0.076716125 -0.1228681 -0.20642684 0.27052176 -0.21989936 -0.18530595 0.11388986 -0.20276614 -0.06427693 0.27148762 0.4582624 0.17218894 -0.08169949 -0.0767449 -0.040684752 -0.043678105 -0.4832266 0.17525457 0.018418776 0.1395801 -0.1356144 0.16293469 0.174584 0.18332563 0.07575163 -0.08697266
uma -0.081012584 -0.39201567 0.04275195 -0.07965154 -0.02615128 -0.3367476 -0.10257278 -0.4451759 0.18453568 0.17457142 -0.39722195 -0.058339655 -0.14404675 0.124495916 0.059884764 -0.18229026 -0.6363652 0.257989 0.2486075 0.03612781 0.061630685 0.5583102 0.04348953 0.4179574 0.35078573 -0.005593795 0.15753809 -0.35545957 0.057204854 -0.24372192 0.20702437 -0.6539898 0.08033367 0.06485193 0.044518545 0.32175773 -0.31979075 -0.0016319356 0.31902733 -0.0017689983 0.15090345 0.1219558 0.032673966 -0.02716366 0.15160817 0.124769434 0.38426915 0.13061792 -0.24931589 -0.14680675 0.16655889 -0.046331994 -0.34206128 0.47736245 0.1018017 0.1496485 0.05663686 -0.3799926 -0.057298183 0.033871647 0.018649774 0.036728706 -0.14966276 -0.63907653 0.34492096 0.2739999 -0.29955602 0.0043282406 -0.46828744 -0.2639296 0.21693991 0.03219955 0.093832225 0.17511979 -0.14806941 -0.24738756 0.19507967 -0.20169751 -0.22019503 0.22352351 0.010135117 0.08985286 -0.04710415 0.0067722583 0.022758678 0.6134238 -0.5168719 0.13333346 0.246857 -0.24462532 0.3336014 -0.07076 -0.162406 0.5755538 -0.30998886 -0.28289703 0.033274196 -0.11105707 -0.35165155 0.4266341 0.23451635 -0.2789282 -0.28585204 -0.20332448 0.31204343 0.17084263 0.21303536 0.014082087 0.13226113 -0.18579257 0.39082476 0.0056405147 -0.3951765 0.40027308 -0.25985122 0.05042963 0.083649 -0.2709611 0.06943319 0.044352144 0.074709535 0.22572637 -0.25123036 -0.05588681 0.17389348 0.10688199 0.09902603 -0.11267718 0.11285601 -0.12619443 0.3131364 0.05599954 0.08943937 0.01666287 -0.29496565 -0.29291868 0.053068545 -0.15203883 -0.57125366 -0.07659611 0.522445 0.19862929 0.0816809 -0.26961598 0.28281307 0.045148537 0.20957775 0.09376398 0.03880871 -0.25548348 0.09326398 0.5536711 -0.24426934 -0.3147668 -0.020495128 0.32196656 0.029928215 0.33493456 0.30653247 0.045486674 0.08898413 0.21616668 0.17080577 -0.24153754 -0.0033526304 0.4122563 -0.4761759 0.030748311 -0.3522331 0.45303524 0.35215616 -0.0019895043 -0.00938668 -0.14575747 -0.2610252 0.21271735 -0.28545833 -0.095316485 -0.09377387 0.06280755 0.26051342 0.30450124 -0.022699004 0.08874625 -0.27625537 0.025681475 -0.35546973 -0.2640944 -0.113071926 0.10206096 0.12732801 0.12816583 0.22644305 -0.34143373 0.0793055 -0.026054343 -0.013243024 0.22254299 -0.06764132 0.037128657 -0.2547444 -0.18845072 -0.098703235 -0.28141958 0.22403784 0.1117862 0.21288216 -0.3958106 0.054821257 0.413318 -0.4161007 -0.052217 -0.32699347 -0.27649084 -0.110890456 -0.62545824 -0.0050169756 0.3967694 0.03623034 -0.10006709 -0.41216356 -0.34631893 -0.21733768 0.11322958 -0.32424232 -0.13483767 -0.24759878 0.097508445 -0.040291615 -0.09835946 0.09308812 0.046173815 0.4636754 0.4238921 0.11124722 0.2660072 -0.004738618 0.10314343 -0.086777225 -0.024295047 0.35885683 -0.168106 0.033077046 0.20752454 -0.09868655 0.19980408 0.002964077 0.08004259 -0.028275905 -0.4229293 0.09432136 0.07591042 0.03808028 0.399261 -0.11003634 -0.38934147 0.084746234 -0.5888615 -0.13124123 -0.48021576 0.23181507 -0.086483635 0.06762558 -0.04339662 -0.3620086 0.31859064 -0.13684891 0.027562164 0.50649023 0.045508288 -0.27857807 -0.265184 -0.30397055 -0.04841401 0.38081697 -0.18055594 -0.016216202 0.15467598 -0.41055733 -0.18973829 -0.039098058 -0.040163785 0.14488405 0.33714336 0.6269565 -0.12754025 -0.34093085 -0.36844113 -0.20067231 -0.39717326 -0.46219692 0.17921908 -0.0191083 -0.0349161 0.15855984 0.1230646 0.35489795 -0.17216311 0.038406007 0.13235784
pra -0.10759235 -0.14154214 -0.0919495 0.07056107 -0.13152732 -0.31926122 -0.09209407 -0.16364834 0.012375833 -0.21113966 -0.092595205 -0.038748313 0.09787392 0.27739164 0.12744687 -0.20557874 -0.29769295 0.19173215 0.2518267 -0.059220824 0.011677684 0.14151366 0.15222886 0.15218367 0.5159703 0.08191897 -0.04183579 -0.11521395 0.33310723 -0.00085498753 0.21526347 -0.51858974 0.34462592 0.27282202 0.12128437 0.5182107 -0.17953166 -0.03799213 0.20849991 0.192417 -0.38629848 -0.033859227 -0.029896492 0.082599975 0.319971 0.16920905 0.17405833 -0.010059874 -0.45146582 -0.22100146 0.22492541 -0.20273909 -0.17574173 0.52861553 0.53541064 0.32578158 0.24278474 0.12553374 0.095241815 0.20789477 -0.24768278 -0.033269063 -0.11684394 -0.3798132 0.33549654 0.7214008 -0.31778383 -0.067770354 -0.24793108 -0.03854349 0.49182436 0.021825658 -0.36257243 0.06008164 -0.36402756 0.037895896 0.15058702 -0.27985153 0.03939658 0.16695444 -0.050781634 0.26729152 -0.26809293 0.09975498 -0.26073447 0.59821695 -0.18534718 -0.09268723 0.56300396 0.033574194 0.10030218 0.12893164 -0.46021128 0.27735177 -0.427817 -0.49250424 0.22175866 0.19754611 -0.1915568 0.4854658 -0.15025346 0.27268046 -0.31121027 -0.46888062 0.44280285 -0.05919174 -0.078936905 0.058761895 0.20518525 0.008870196 0.5493615 -0.15936087 -0.03625893 0.3586114 -0.31338364 -0.14116351 -0.12993298 -0.16891062 0.4510718 0.023227096 -0.12720172 -0.015791342 -0.2869975 0.34339118 0.47244498 0.5232107 -0.10406628 0.20570375 0.09134321 -0.089449726 0.24912629 -0.1449923 -0.027334958 -0.06331962 -0.2830271 -0.050275933 0.0029382692 0.018815221 -0.52515584 -0.37356305 0.37299713 0.2998933 0.0435931 0.045841612 0.10021476 0.24167879 0.11781595 0.27835318 -0.088024944 -0.02907579 0.01728148 0.48229793 -0.1032473 -0.09700483 0.15293364 -0.17598553 -0.25729507 0.16949634 0.2877153 -0.009224129 0.14359644 0.310994 0.17704768 -0.106425464 0.08051873 0.22623485 -0.35006344 0.0105173765 -0.26003066 0.35210824 0.3030961 0.17643724 0.17300282 -0.051105972 -0.0564647 0.25628906 -0.44545227 0.05126658 0.07024966 -0.05921043 -0.22231816 0.32806322 -0.17019384 0.053846948 -0.51795614 -0.2661787 0.010674825 -0.058444504 0.14345624 0.23506607 -0.06267176 -0.046488877 0.12402911 0.057802357 0.18932873 0.07492474 0.19268568 0.42460126 0.07526685 -0.06454914 -0.14660054 -0.19078161 0.031305805 -0.20331246 -0.07974612 -0.123692855 0.34500897 0.081575245 0.3656497 -0.095979296 -0.075819306 -0.11301943 -0.23281959 -0.4195856 -0.1208432 -0.29937026 -0.20433646 0.2965185 -0.14824402 -0.044341292 -0.51276606 -0.19108567 0.0050333776 -0.05483342 -0.0588333 0.034366813 -0.13074996 0.3810297 0.12514134 0.04413637 0.16172579 -0.4850868 0.56033874 0.3232777 0.36251768 0.4219684 0.04859327 -0.19311884 0.08157429 -0.015377266 0.17195208 -0.14177395 -0.081708185 0.042435843 -0.20729823 -0.11278527 0.12643681 -0.16780987 0.24226967 -0.38926142 -0.012604037 -0.003998722 0.14836296 0.30656853 -0.2524593 -0.22483353 0.33640754 -0.6244773 0.009526376 -0.49435553 0.36040387 -0.008221533 0.30422366 0.13251866 0.06221713 0.78955084 0.030178323 -0.054413892 0.5000569 -0.20723572 0.07496849 -0.030613543 -0.111876324 -0.0040636733 0.029985372 0.16088924 0.24270983 -0.24216741 -0.39360482 -0.18358363 -0.30589327 0.05504476 -0.21842527 -0.041129813 0.46529558 0.16857296 -0.39910427 -0.30756927 -0.4479975 0.17080441 -0.2836891 0.035367765 0.10513373 -0.29429334 0.1476641 -0.049896304 0.011887346 -0.09697384 -0.34314838 0.089112796
puta -0.24775653 0.32313985 -0.015760347 0.38478613 0.48444456 -0.06511225 -0.26751107 0.20085904 0.13100773 -0.4364602 0.46553567 0.04526527 0.36363542 -0.113300875 -0.297522 -0.22424118 -0.15970844 0.4385824 -0.053012524 0.5051559 0.2951587 -0.5076725 -0.045098495 -0.06863378 -0.087520584 0.19273284 0.03996995 -0.30778196 -0.079454176 0.19454914 0.25827578 -0.35180515 0.029231336 0.17770943 -0.65797216 1.1562732 -0.2275557 -0.5668258 0.2503881 -0.21222171 0.22328399 0.26124427 -0.06785961 0.2524066 0.16555195 -0.40570158 -0.07388914 0.18562664 -0.2351355 0.10421185 -0.095577225 -0.37116966 -0.3169701 -0.23993203 0.056660388 0.06391458 -0.46619087 0.009660701 -0.0048466097 -0.4546021 0.02615101 0.3973142 -0.18703158 0.0061584953 0.4127221 -0.02543494 -0.38171282 0.11544962 -0.118639514 -0.054319028 0.25250918 0.106055945 -0.6432251 0.0016595246 -0.08707587 -0.4187073 0.5151572 -0.31068018 -0.23374195 0.21614335 0.115870535 0.58664966 -0.18167017 -0.23656535 -0.61148155 0.40106195 -0.2630559 0.16735221 0.8424104 0.08711014 0.17126456 -0.06098667 -0.18861689 -0.21681437 -0.19481443 -0.58925533 -0.44638664 0.12176747 0.49649167 -0.08092249 -0.09146145 0.06661162 0.059572916 -0.44915822 0.47465506 0.028213527 0.18581665 -0.3105876 0.36795795 0.40337256 0.18247204 0.093963034 0.20963648 0.39491463 0.08731418 -0.13672887 0.019037645 0.34800658 -0.09875285 -0.4537944 -0.27160662 -0.19000961 -0.025832178 0.03224482 -0.39419553 0.705708 -0.11891742 -0.8007681 0.2751081 -0.39198506 0.29991826 -0.0777672 -0.39948982 0.20939726 -0.015135239 0.4983054 -0.41216177 0.15394029 0.16218361 -0.4064311 0.27351376 0.19161238 -0.5362478 0.032221865 0.08256137 0.19534853 0.25754324 0.16663963 0.14751954 -0.0882761 0.7305784 0.6577408 0.14748909 0.0075643416 -0.439286 -0.19796148 -0.25424632 0.28645644 0.1133504 0.28917155 -0.023813728 0.17097677 0.48782304 0.356743 -0.31267267 0.14606988 -0.8097097 0.024519283 -0.02486977 -0.24481826 0.24002431 0.29739746 0.53171486 0.30447298 0.11153554 0.5530386 0.22966869 -0.22585751 0.59634244 -0.37968206 0.7327238 -0.111691914 -0.49472806 -0.12883319 -0.5302878 0.12791468 -0.5802209 -0.68805635 -0.011618746 0.015552545 -0.5292896 0.6073183 -0.25634554 0.05414139 0.7543886 -0.25659943 -0.39429143 -0.14906713 -0.600311 0.6173342 0.2820914 0.17560354 0.37067676 -0.6668018 0.14100467 0.21954186 -0.22740792 0.4648039 0.6023857 -0.37492555 -0.28635806 0.09069111 -0.29748663 -0.20066656 -0.45622173 -0.40292466 -0.09949648 0.38052118 0.016613364 0.39396393 -0.29086667 -0.18869255 0.036264796 -0.4478829 0.33399138 -0.26416034 0.13811433 -0.14667858 0.2743812 0.28873333 0.033757236 -0.34473935 0.45421928 0.14142206 -0.17099997 0.45775583 0.2918079 0.07620307 -0.06333363 0.27703884 -0.06925666 0.34081966 -0.067835 -0.27346498 -0.3010395 0.4271357 -0.25055608 0.020826971 0.050603747 0.058881804 -0.061419863 -0.18326488 0.4276772 0.5173387 -0.06939572 -0.6134 0.096462354 -0.11349832 -0.099561304 0.31999665 0.08394228 -0.632994 0.2178828 0.62105465 0.010718944 -0.10962388 0.24213392 0.09002949 0.24804968 -0.11625953 -0.111883886 0.41007924 -0.3002985 -0.0065471767 0.5748844 0.15412869 -0.693364 -0.09700743 0.04637764 -0.28306276 -0.029914321 -0.24539149 -0.21168514 0.32171398 0.047566537 -0.1492056 -0.46958044 -0.32140663 -0.3778492 0.16990691 0.15357208 0.044114478 -0.15562113 0.028600184 0.0030183608 -0.771813 -0.38387048 0.24894993 0.08084054 -0.037025813
do -0.078442916 0.08876545 0.47781667 0.07390082 0.0903425 0.14077345 -0.5129838 0.17049704 -0.13547039 -0.21977168 0.025693538 0.31696403 0.036656313 0.21963464 0.134599 -0.096486576 -0.037016153 -0.015043621 0.013094082 0.11135148 0.06266509 -0.0032684924 0.015228883 0.0017447195 -0.16829725 0.118422925 0.01591645 -0.16080108 -0.24706039 0.2664904 0.24550201 -0.08708908 -0.32590944 0.25205883 -0.13256602 0.18230125 0.13552502 -0.38825166 -0.19349124 -0.18292768 0.247441 0.10949634 0.0012664255 0.10911077 -0.057607826 0.15495624 -0.2661906 -0.1623412 0.00871912 -0.17637761 0.14352728 -0.2501311 -0.18335582 -0.16135983 -0.0020626432 0.027425747 -0.070182756 -0.040557265 0.26921874 0.3317902 0.3710523 0.16304275 -0.20884117 0.13514613 -0.0810862 0.11646312 -0.40207246 0.05951423 0.0077528083 -0.12317078 0.53038377 0.3714015 -0.30476278 -0.05206482 -0.07610818 0.32116774 -0.17547238 -0.07773332 -0.32036185 -0.04408557 0.05654295 0.07969798 0.22747567 0.004284695 -0.29175636 0.27093098 0.35062578 -0.23614429 0.1417998 0.26519385 -0.27242538 0.100511916 0.12238094 0.26281306 -0.48501924 -0.5176717 -0.05701413 -0.008063961 -0.22003596 0.050666664 0.14091204 0.57801765 -0.14023705 -0.35836637 0.022426814 0.22920257 -0.24923174 -0.083033554 0.15948881 0.23989649 0.54263884 0.045583237 0.10110502 0.22834386 0.21403897 -0.36195195 0.01845348 0.058959223 0.3471326 0.05264493 -0.04783996 -0.27091268 -0.15603425 -0.002194139 0.20396505 0.12443537 -0.11669972 -0.06948176 -0.006688105 -0.21137974 0.14046396 -0.4242075 0.13237506 0.118009806 0.45306236 0.013075882 -0.1702336 0.25473216 0.01717767 -0.2818464 0.16537915 -0.037318837 0.027730498 -0.065194055 -0.013585429 0.0035232971 0.11727164 0.23417263 -0.07177549 -0.2506241 0.0666594 -0.17259471 0.29045695 0.21009967 -0.03697645 -0.101944454 0.2333433 -0.13157772 0.09150454 -0.1540908 -0.17878032 0.05673543 0.21327499 0.06632088 -0.17550528 0.24213466 -0.00032716754 -0.020707104 -0.104678385 -0.04528057 0.12852079 -0.12496888 0.15354063 -0.12597035 -0.0331368 -0.13519713 0.11908139 0.12627494 -0.009162159 0.015584278 0.3221303 -0.17925477 -0.15915649 -0.22446223 -0.3625228 -0.35361138 -0.0097719645 0.44281632 0.36186686 -0.3003027 0.12351663 0.05722337 0.0019100767 -0.010871506 -0.10744119 0.02480677 -0.034673408 0.51966065 0.19895841 0.2708458 0.27333802 0.10661385 -0.0587961 -0.22251184 -0.2246222 -0.08168341 0.11721225 -0.006042891 -0.12239779 0.0393748 0.1288271 0.112876415 -0.069730625 -0.04915831 0.25164592 0.106890626 0.14677767 0.1203721 -0.10752356 -0.24877511 -0.2836911 -0.2551971 -0.2833238 0.16924834 0.28975034 -0.3724526 -0.064719945 0.3570164 -0.15240674 -0.22128655 0.30922002 -0.15318821 0.22094825 0.031910453 -0.23979907 0.43987036 0.06727137 -0.1917012 -0.20820384 0.08146184 0.0921361 -0.07344737 0.026596554 -0.16263139 -0.017838528 0.057084784 0.09241349 -0.2952233 0.6365708 -0.0556632 0.25013858 -0.24008766 0.27739945 -0.014381793 -0.026034703 0.1239757 0.090593316 -0.45695427 0.14372282 0.04052533 -0.094354376 0.18454884 -0.16755325 0.38798505 -0.24359965 0.18188596 0.04294985 0.08657636 -0.09105863 -0.15507504 0.103367865 -0.5030719 0.10192493 -0.0049859765 -0.10538846 0.29378387 -0.2570238 0.12790672 -0.22432943 -0.46977204 0.022536112 0.08402545 0.005666851 -0.24244843 0.018876629 -0.05473841 -0.06649054 -0.26636964 -0.29435813 0.3098786 -0.1971888 0.12129338 -0.10527071 -0.44840598 -0.072740056 0.109294996 -0.0674775 0.19967477 -0.17987727 0.04332412
 -0.06625821 -0.03357178 0.05139626 -0.22445285 0.050721955 0.15255347 0.20051691 -0.25995037 -0.016686734 -0.44565472 0.36828238 -0.19707733 -0.21437183 0.23364817 -0.25857162 -0.09531515 0.22656213 -0.41140762 0.2291337 -0.19136277 -0.058564775 0.12798716 -0.02387715 0.0067938045 -0.0075968453 -0.08152415 0.29169357 -0.1424093 0.2538352 0.28823772 0.22600849 -0.24552882 0.020957446 0.005599473 -0.34026778 -0.012023634 -0.15551843 0.2965253 0.24834138 -0.17580082 0.133198 -0.20750222 -0.12234253 0.16828436 -0.044870794 0.10235096 -0.008282419 0.1985823 0.24625003 -0.015542728 0.17064363 -0.25983468 -0.24385358 -0.2173647 -0.1795823 0.0106051015 -0.110768504 0.04711166 -0.15936676 -0.13212006 -0.13228455 -0.12483123 -0.015330385 0.009728295 0.65385675 0.08258434 0.20589256 0.14301927 -0.41175693 0.09250257 0.15354507 0.11957557 0.06867087 -0.11087667 0.20234956 -0.20282415 0.08817842 -0.04178612 -0.38535663 -0.051701043 0.04304848 -0.24053879 -0.023553804 0.28628045 -0.24768439 0.09921788 0.0917148 -0.028949931 0.10392053 0.0606765 -0.32113105 -0.28251255 -0.2815395 -0.06362322 -0.03256991 -0.1327279 0.017889073 0.18996635 0.07541692 0.16867834 -0.04566144 0.1908827 0.012516328 -0.17205466 0.25596178 0.29957232 0.035127565 -0.20851117 -0.24755183 -0.19051328 0.3269474 0.08696355 -0.002309064 0.34391543 -0.34033528 -0.13124742 0.16995683 -0.11256087 0.06646146 -0.08697033 -0.38353762 -0.06960183 0.025735592 -0.09993907 0.29096013 0.084799334 0.012139547 0.22400488 0.41189513 -0.17578413 0.31522334 -0.2167045 -0.0872022 -0.18363634 -0.23161036 0.16094711 -0.013324592 0.055094227 0.113580495 0.35991403 0.09018652 0.05755343 0.36279288 -0.10103324 -0.21466158 0.23492926 0.041765634 -0.11821354 -0.237982 0.09691473 -0.42009753 -0.009950554 0.18434449 -0.15774058 0.09757354 0.28987652 0.055555876 0.11132535 0.022686064 -0.31064656 -0.19331747 0.01496929 -0.019315695 -0.005767985 0.07801242 0.112960786 0.17786983 0.07633848 0.12356766 0.10322102 -0.06879253 -0.08816841 -0.1968038 -0.20591894 -0.30547762 0.183832 -0.06325996 0.070702605 0.14774714 -0.18168043 0.19751912 -0.11638124 0.18021347 0.080029264 -0.04879999 -0.16474396 -0.4318957 -0.28866106 0.023954824 0.27297217 -0.031535424 0.23008339 0.2223201 0.1631466 -0.05723941 0.08395372 -0.050312147 -0.5733254 -0.2219821 0.14053452 -0.0022135521 -0.42930666 -0.07424602 -0.027559195 -0.23505157 0.07547775 -0.33256918 -0.3287743 -0.56989205 0.30784023 -0.057700995 -0.321466 -0.3030987 0.14102654 0.021915182 -0.20219189 -0.12217683 0.21983376 -0.03675211 -0.12673536 -0.25492677 -0.35253623 -0.3010354 -0.07119155 0.09567207 -0.23518313 -0.35748354 0.41227168 -0.19906466 0.13221692 0.22798045 -0.18642351 0.17013758 0.13548481 -0.5033413 0.4047498 -0.06975084 0.39817324 -0.00538608 0.51440823 0.16055402 0.17201403 -0.10421122 -0.021375336 -0.14984143 0.10367425 -0.41662082 -0.08002053 0.18004799 0.4327644 0.3694844 -0.056665834 0.15292384 -0.084493525 0.27695772 -0.15968324 0.31456134 -0.030372294 -0.013086494 -0.003111802 0.29889008 -0.12756337 -0.14478873 0.062421907 -0.48855752 0.06951616 0.14780623 -0.04822295 -0.02582904 -0.025666555 0.10740926 0.10987927 0.15586269 -0.32869288 -0.13371654 0.066030264 0.09034255 0.33465093 -0.22626615 -0.1810913 -0.17186067 -0.13847768 0.08824157 0.022235954 0.10849344 0.0033860554 -0.09679682 -0.014517039 0.03285748 0.12758319 -0.4060818 0.021194136 0.14943416 -0.055300508 -0.1775581 0.14434338 -0.02677473 0.357329 -0.06341103 -0.15465479
gil -0.19573854 -0.19853371 0.08967384 0.07097828 0.81498575 0.24051796 0.30302832 -0.42160544 0.052837353 -0.0670939 0.7112966 -0.15753394 -0.1120506 0.10060186 -0.18792048 -0.31082943 0.32394406 -0.21605352 0.3582612 0.4922056 -0.21007267 -0.6021775 -0.26146838 -0.030760452 -0.13443147 0.3851603 0.3351089 0.02239791 0.4870119 0.31435198 -0.08872845 0.25136623 0.0025217677 -0.17175657 -0.84111136 0.063997224 -0.50194514 -0.44807574 0.471672 -0.6471748 -0.51777923 -0.335225 -0.46346626 -0.039493915 0.14047284 0.13180766 -0.104267664 0.059525132 0.53818744 -0.0759848 0.09850063 -0.38112167 -0.5592147 -0.6192478 -0.40039986 -0.12075978 -0.40153456 -0.21872275 -0.019078434 -0.042225588 0.26933715 -0.58996105 0.15543996 -0.2190466 0.7450318 0.04108336 0.57881176 -0.39131582 -0.08364388 0.08258014 0.47267348 -0.006575002 -0.1625534 -0.27359807 -0.35616627 -0.103763305 0.14172927 0.151971 -0.3300335 -0.15385748 -0.3072726 0.12744159 -0.35716173 0.46528962 -0.7726471 -0.088016845 0.67858875 -0.2816113 0.15160526 -0.34300014 -1.0294917 -0.21616939 -0.46140814 -0.13867009 -0.20359728 -0.20366238 -0.4112829 0.24779694 0.01800759 -0.124241926 -0.19021751 0.23815173 -0.6968137 -0.25955325 0.27084804 -0.19872469 -0.39312786 -0.3693223 -0.004865159 -0.5116085 0.31093293 -0.18028739 0.67129564 -0.06688843 -0.42469487 0.29916897 0.31029963 0.23329654 0.9492011 -0.20096827 -0.50080585 -0.54185116 -0.47625068 0.09843326 0.7965945 -0.43869966 0.020086164 0.18581422 0.32820874 -0.7752252 0.7744884 -0.017984925 0.2878567 -0.2505042 0.21099775 0.51963407 0.39011154 -0.51785207 0.25787434 -0.39793083 0.13003193 -0.21089004 0.7373468 0.114653304 0.25334227 0.14096107 0.100062646 -0.23310311 -0.35313323 -0.4217488 0.03457237 0.1025722 0.21441624 -0.35458878 0.059173632 -0.27173024 -0.12982102 0.34033746 0.24629758 -0.51803285 0.67052644 0.3821747 -0.32725805 -0.19012615 0.083882235 0.2034254 0.28948978 0.1933456 0.68551165 -0.52082187 0.20028356 -0.023227543 -0.28625074 -0.7361641 -0.30329853 -0.45946413 0.4475406 -0.43909743 -0.066458955 -0.5415128 0.32964808 -0.22048971 -0.45667335 0.18770623 -0.17167851 -0.19712478 -0.58176625 -0.15287736 0.115207024 0.17175952 0.63757426 0.3129801 0.41157427 0.002653515 -0.16090463 -0.13942832 -0.5742801 -0.09258622 -0.5628729 -0.06095294 0.37612492 -0.34375942 0.25478485 0.303608 -0.18536979 0.20111673 0.15349051 0.044659924 -0.13137424 -0.022755962 0.07814859 -0.21896179 -0.4740988 -0.0530087 0.05859852 -0.36835176 -0.5937195 0.08189965 -0.46157268 -0.13612197 -0.30553862 -0.5243335 -0.73820937 0.28286904 0.23711595 -0.2904937 -0.26679164 -0.4113637 -0.38178024 -0.42038763 0.035061967 -0.23699026 0.043254655 0.25712973 -0.5064262 0.5626135 0.39266002 0.2858013 -0.92534965 0.55263805 -0.1340183 -0.44170496 -0.22651206 -0.09215214 0.06295094 0.5250832 -0.25800312 -0.16197506 0.38766128 0.5419434 0.20477906 0.31764802 0.4540513 -0.098759905 -0.36656514 -0.38469276 0.113494225 -0.028734004 0.07647716 0.003110017 0.18300618 0.013056022 -0.112437405 0.032056697 0.028478103 0.37914878 -0.031762186 -0.22750266 -0.24823223 0.24626955 -0.04985972 0.24630228 -0.17325003 -0.10719163 0.002159961 0.3019933 0.20437056 0.74946415 -0.39778557 -0.34557882 0.48801342 -0.1740095 -0.017661754 -0.52959305 0.36614725 -0.10918942 -0.71103024 0.14166707 0.046896737 0.6851548 -0.44297448 0.26008853 0.3717748 -0.02461661 -0.3787185 0.091058455 -0.10758912 0.36765307 -0.63264483 -0.47248185
se -0.06279477 -0.3143474 -0.07455979 0.1858386 0.1525558 -0.19983773 0.044179883 0.017417237 0.014960368 0.14155516 -0.114583336 -0.091056146 -0.1522251 -0.031793527 0.0047655785 -0.108488336 -0.40061396 0.06706605 0.21959426 0.4060909 0.15527226 0.053771358 0.16707812 0.15982918 -0.23212813 0.36394292 0.15215327 0.15193631 0.15664111 -0.05946655 -0.08139204 -0.19329348 0.11849379 0.12680541 -0.11872779 0.3137711 -0.40023378 -0.33442456 0.003931076 -0.37876257 0.079066 0.14185236 0.19334987 -0.18606696 0.04634043 0.14054155 -0.104715995 0.034848355 -0.05927766 -0.21399437 -0.08511531 -0.15789744 0.000100581325 -0.0097961705 0.14735216 0.07302045 -0.056332827 0.005945676 0.10708747 0.21783027 0.23085524 0.16756864 -0.04635678 -0.37461698 0.41145968 0.08182794 -0.14646375 -0.28281945 -0.11709305 -0.43578067 0.35929322 -0.0684853 -0.19956064 -0.12166769 -0.18400672 0.0041913628 -0.07335777 -0.26558074 -0.19121101 0.03384123 -0.14900409 0.10706877 0.05955924 -0.0929069 -0.19206497 0.090516016 -0.002316251 -0.104408786 0.16431023 -0.0035649985 -0.17862171 0.16515438 -0.10387883 0.5234381 -0.44878566 -0.26253316 -0.105932705 -0.14812365 -0.29128212 -0.14096479 -0.037628286 -0.13955934 -0.2638442 -0.17765631 0.032418266 0.09607869 0.2182669 0.18524238 0.114501186 -0.05924126 0.15388808 -0.17280252 0.039091527 0.01973677 -0.3461862 -0.038522102 0.21002121 0.031401444 0.33700123 0.09028848 -0.1130341 -0.015488776 -0.40725118 0.0070921285 0.09115774 -0.083838895 0.03261436 -0.0454574 0.07711812 -0.1276495 0.347898 0.2531726 -0.050511833 -0.036246948 0.11370583 -0.18978317 -0.045871824 -0.1936164 -0.16805851 -0.28149524 0.32009405 -0.21878456 0.07304841 0.06236555 0.37939623 -0.09431108 0.10495226 0.08862111 0.088262394 -0.03946708 0.47069213 0.19143443 0.0031015126 -0.028740691 0.017551 -0.0019847546 -0.012798307 0.13942198 0.4801846 0.08224301 0.25386187 0.2845554 0.1627349 -0.02251815 -0.17692469 0.3782024 -0.15843686 -0.07050162 -0.017499477 0.09473002 0.31224808 -0.15610768 0.21795456 -0.1112993 0.024557317 -0.08302984 0.017168982 -0.07353685 0.1318614 -0.059434436 0.2987162 -0.10449291 -0.32729763 -0.124362946 -0.3569619 -0.10311001 -0.07159395 -0.033816867 0.18377328 -0.05929192 0.0020494438 0.22805487 0.2965592 -0.21746317 0.016568117 0.0074699875 -0.2027006 0.40164357 0.15906425 0.121037066 0.010887908 -0.09876313 0.028935991 -0.20541473 -0.022258926 -0.0836214 0.17239992 0.007253055 0.10814924 0.0931979 -0.21263461 0.085850656 -0.1660255 -0.2533259 -0.060186412 -0.3000356 -0.19499387 0.14068535 -0.26879656 -0.011012575 -0.33430088 -0.31651625 -0.34295377 0.04767787 0.10322761 -0.17664953 -0.12655829 -0.014315876 -0.05639968 -0.17010194 -0.03411355 -0.035049647 0.28086272 0.37780863 -0.13243465 0.102467395 0.17374691 -0.087657064 -0.33609796 0.061211582 0.032664537 -0.11524112 0.20187731 -0.1353043 0.013288606 0.092855364 -0.033326793 0.25684622 0.31404558 -0.13453183 0.12127636 0.13447092 0.42578405 0.3274126 -0.25284505 -0.23614347 -0.23751344 -0.36986023 -0.039928794 -0.0041927355 0.21520542 -0.020209067 0.11325458 -0.23383021 -0.16598336 0.2025663 0.1477015 0.24079837 0.19392729 0.03461514 -0.11168923 -0.21103963 -0.20511296 0.039083652 0.15523647 -0.18535009 -0.053227462 0.2604042 -0.29401907 -0.1946889 0.09375268 0.025853336 0.04375674 -0.045156673 0.21739122 -0.018330783 -0.18698889 -0.1287998 0.0075161587 0.08487469 -0.22301146 0.039554596 0.040564056 -0.27416828 0.091808036 -0.14297853 0.25272632 0.026045207 -0.15179783 0.027372217
FACE 0.34516132 0.41414317 0.56169957 -0.21067919 0.07609328 0.09176397 -0.24097762 -0.048824225 -0.14986573 0.12474782 -0.09933159 -0.54438394 -0.418783 0.28218442 0.1792575 -0.29771152 0.06681681 0.841482 0.2865161 -0.30875954 -0.13457264 0.5493809 -0.36486515 0.35780963 0.039541807 -0.20381586 0.35540456 -0.40874553 -0.492567 -0.1775607 -0.42353225 0.03781924 -0.29982224 0.14240284 -0.15292437 0.29834995 0.041757077 0.6494877 -0.19721304 0.21607599 0.2775989 0.46565542 -0.55457723 0.24705625 0.36923963 -0.07041424 0.18820393 0.09745277 0.6066641 0.23092091 0.72803396 -0.16588892 0.27284086 -0.013287883 0.31572682 -0.07181524 -0.18469074 -0.6789016 -0.697364 0.17921646 0.5202958 -0.11009197 -0.29174262 -0.44018206 0.113368295 0.092885666 -0.007816761 -0.10474975 0.32302526 0.24560659 0.70194024 0.17122443 -0.17271365 0.38470712 0.39640957 0.15605998 -0.14352205 -0.39995587 -0.6980195 0.10692455 0.48494497 0.04665539 -0.2080228 -0.45798188 -0.05437449 0.61696184 0.1915945 0.06712258 0.23808677 -0.18604751 0.39802468 -0.14728571 -0.05120986 0.061657146 -0.6150199 -0.16415042 0.4256353 0.092366226 0.39396936 -0.14176293 -0.072913215 0.5968829 -0.13475153 0.02728779 -0.5253668 0.42370752 -0.29442075 -0.19272314 -0.2612405 0.075764336 0.9858942 -0.6211165 0.0053521297 0.5173128 0.31520805 -0.68216026 0.23570889 0.46461254 -0.08084486 0.17108952 0.10887296 -0.061694123 0.16015646 -0.5507001 0.60787314 -0.14138481 -0.074524105 -0.06472526 -0.052240975 -0.24107257 -0.16230124 -0.68245625 0.27963617 0.09716787 0.25563604 -0.46314484 0.031641793 -0.2120049 0.10361629 0.45256382 -0.0048675667 0.1685322 0.22282954 -0.105972454 0.05698343 -0.34799686 -0.12327277 -0.38380378 0.045452017 0.100570545 -0.1962801 -0.15191548 0.5195602 0.29693753 -0.5632656 -0.06637931 0.73919463 0.2502643 -0.17264327 -0.34544003 -0.5261625 -0.550678 0.22911267 0.22884937 -0.34203666 0.003851186 -0.46407145 -0.106410295 0.24322312 -0.033030815 0.29049093 -0.361062 -0.1237355 -0.05197999 -0.65481544 0.28640154 0.43925938 0.006380363 -0.40270287 0.14983289 0.05223912 0.1592813 -0.018979764 -0.4737765 0.015372904 0.2744441 -0.37986907 0.0339761 -0.036144447 -0.58656067 0.22482538 0.5146498 0.002465908 0.20906103 0.14366513 -0.16321066 -0.081848465 -0.17172995 0.38277024 -0.0070011094 -0.11772456 0.68232965 -0.351599 -0.44131467 -0.065326914 -0.18171175 0.13561562 -0.23635803 -0.59714025 0.4406619 -0.25342575 -0.33494234 0.0132827945 0.48909822 0.4614319 -0.08543278 -0.14324136 0.23297192 0.11020729 -0.18700838 -0.26621664 0.3035725 -0.49612102 0.08901912 0.08352818 -0.22319616 -0.21018931 0.31927207 0.13821417 0.20286366 0.031877913 0.1327106 0.037612252 0.19515668 0.16370831 0.4129605 0.029846078 0.00045200007 0.24240313 -0.20056489 0.51411444 0.057838276 -0.16489737 0.15519746 -0.07835726 -0.07602205 0.09376149 -0.4931067 -0.046927422 -0.1587978 0.011219144 0.26563078 -0.36886194 -0.32219496 0.09068413 -0.19917592 -0.3927156 -0.15489283 -0.05123584 -0.10111311 -0.21096864 0.42165613 -0.354745 -0.02925692 -0.23200984 -0.17335594 -0.23087591 -0.18218462 -0.14045382 -0.17582102 -0.23321405 0.25547895 0.13098653 0.48856547 0.17140205 0.3597052 -0.04205806 0.36851937 0.13072757 -0.4359944 0.37320966 -0.20941702 0.58725774 0.13177724 0.1286973 -0.5534249 0.06498218 -0.16080606 0.096384935 -0.44382244 -0.17185494 0.27159488 -0.5502477 -0.07649696 0.3095604 0.6652111 -0.026974756 0.25193322 0.5741232 0.45554653
eu -0.228322 -0.2536136 0.13949807 0.15744889 0.05309414 -0.058241013 -0.2902011 -0.22670184 0.20656209 -0.023315892 0.1924773 -0.09110054 -0.1768938 -0.11780488 -0.10324536 -0.09539042 -0.11662106 0.260818 0.08447259 0.40283704 0.026473666 -0.23868646 -0.085332945 0.49816775 -0.28259128 0.12936214 -0.35384586 -0.0826778 0.49573562 0.17443198 -0.19030476 -0.1723359 -0.25974512 0.18901128 -0.14904039 0.7408364 -0.02358526 0.0649402 0.20263574 -0.036535632 -0.10185898 -0.055180892 -0.12335514 -0.119822465 0.14477745 -0.07874498 0.13094884 -0.071270674 0.026029995 -0.010974344 -0.08579714 0.05433079 0.04995134 0.21135096 0.5133425 -0.116983704 -0.14929247 -0.4066413 -0.5472277 -0.43122324 0.48574024 -0.23821303 0.25302342 -0.37263998 0.2400211 -0.06327389 0.10935292 0.096784726 0.3579683 -0.19726749 0.39629263 -0.1278422 -0.36644447 0.19968085 0.10543818 -0.18929663 0.2351949 -0.13603193 -0.34399888 0.05822714 0.19089979 0.2849431 -0.43030068 -0.3226113 -0.42637515 0.0042214277 -0.1136935 0.19135356 0.2808683 -0.011291454 0.16576491 -0.11312169 -0.027203685 -0.07437849 -0.22498453 -0.38928014 -0.2976577 0.39945614 0.4577533 0.07269988 -0.29389843 0.28785858 -0.3498366 0.019956436 0.11949916 -0.22338818 -0.30800647 -0.105930686 -0.053387664 -0.18851227 0.26486003 -0.3506378 0.004160047 0.14673834 -0.23603362 -0.30935025 0.34827772 0.069683485 0.31355268 0.08327317 0.3838144 0.19665846 -0.27973562 -0.29506552 0.19928502 0.24066558 0.054033097 -0.043850925 -0.16051215 -0.45502356 0.47419116 -0.06424415 0.097778164 -0.25375074 -0.165268 0.19290794 -0.19680533 -0.22266896 -0.14476345 -0.13317871 -0.022773044 0.069708504 -0.056768414 -0.10235177 -0.18531664 0.33072898 0.5060544 -0.0098480135 0.047250185 0.39698416 0.3252538 0.058840476 0.15923685 -0.024640907 -0.17683068 -0.72863036 -0.17344096 0.5192323 0.14592856 -0.13305198 0.012670826 0.2123606 0.110301025 0.24018389 -0.318538 0.0788093 -0.17327279 -0.07705218 0.2279191 -0.10849582 0.41868415 -0.28140733 -0.03199516 -0.14612164 0.02004127 0.2914465 -0.046055254 -0.07342917 -0.3921823 -0.02413867 0.11530191 -0.0026026894 -0.21350521 -0.3610316 -0.12228799 0.08429647 -0.30605504 0.13356338 0.03533031 -0.032587957 -0.0041735456 0.03300681 -0.41353843 0.07135759 0.44633305 -0.062443733 -0.061664023 -0.11780025 0.056835867 0.17292912 -0.17427042 0.16541125 0.2029971 -0.047979467 -0.039184846 -0.1002824 0.029331485 0.53596234 0.24998741 -0.22088031 -0.2622217 -0.11829344 -0.13624935 -0.06330856 -0.21323828 0.12688093 -0.33277693 -0.16164944 -0.32224497 0.19925688 -0.24906646 0.509439 0.19012766 -0.23597732 0.11326455 0.46897137 -0.3472859 -0.45107892 0.37893724 0.12636541 -0.27018133 0.1451541 -0.05952848 -0.09385347 0.52873844 0.016894428 0.14056289 0.17824161 0.07349039 0.075181134 -0.2007228 0.08548693 -0.1941885 0.21300285 -0.13818982 0.094511114 0.13421813 0.31820282 0.16241081 0.21587111 -0.7201128 0.2606705 -0.24145415 0.40589425 -0.13268097 -0.0543923 -0.03805555 -0.1717128 0.028472606 -0.29734904 0.035300966 -0.4330678 0.06523588 0.101006255 0.4250588 -0.22480378 -0.29226002 0.11043388 0.19016507 -0.37488502 0.047717586 0.08800057 -0.15669227 0.569708 0.39873856 -0.35923728 -0.1273963 -0.003500142 -0.06464768 -0.20106956 -0.028568825 0.11795285 0.12039259 0.016966868 -0.12846197 -0.029103333 0.010742358 -0.04113613 0.019133553 -0.004815718 0.013555475 0.176356 -0.38369974 0.04457457 0.16021459 -0.18911937 -0.37853107 0.00073127646 0.13212256 0.041208882
essa 0.034715503 0.16047023 0.29569495 0.016442481 0.21114688 0.06114311 -0.1996238 -0.09435668 -0.24510536 -0.1791718 -0.07535987 -0.1755148 -0.053857792 0.048803877 0.07905767 -0.30654195 -0.34914184 0.36393157 0.03233543 0.016544819 0.19352189 0.047691144 -0.15429936 -0.16537285 0.45708528 -0.27737328 0.17494091 -0.32619134 -0.14644526 -0.02089954 0.21506129 0.042899463 0.15287742 0.08968774 0.012290429 0.45973328 -0.15962063 0.030551169 0.4280765 0.056470666 -0.084574476 0.30444762 -0.75414604 0.011103352 0.117295764 0.36335254 -0.06811301 0.4678481 -0.19675955 -0.048543863 0.334411 -0.20113194 -0.2585291 0.2767355 -0.1096242 0.34657812 0.030661799 0.07000496 0.09415717 0.098080926 -0.04671726 0.24771316 -0.19739291 -0.25027397 -0.17736925 0.55266494 0.054125596 -0.1394695 -0.1791348 0.15668365 0.7976661 -0.045669712 -0.07521546 -0.0010234441 -0.2960646 -0.29856452 -0.09321179 -0.120956 -0.269968 0.19946273 0.09808524 0.19262801 -0.086673744 -0.12787852 -0.227891 0.15242955 -0.020540873 0.02436612 0.35091048 -0.04528729 -0.023004811 -0.14989212 -0.08138675 0.044031195 -0.2733263 -0.15430303 0.09625414 0.08827245 -0.16623162 0.16360244 0.18657848 -0.078105494 0.06653446 -0.16580704 0.048481934 -0.026209293 0.061453216 0.14532337 0.3122931 0.09140235 0.6381859 -0.036608133 0.078513145 0.63663155 0.09748208 0.08974374 -0.32168493 -0.04816115 0.37436673 -0.028728206 -0.1278115 0.05746537 0.09634457 0.21379913 0.09398149 -0.22561966 -0.37947574 -0.263373 0.33489627 -0.07955033 0.0865469 -0.16396262 -0.050207917 0.10623186 -0.23248912 0.0062333695 -0.035454433 -0.1372531 -0.25006124 -0.048004694 0.23700845 0.2048073 -0.038770374 -0.34571692 0.19996493 -0.16228938 -0.008631413 -0.0050378386 -0.104356736 -0.10344982 -0.037416086 0.31528094 0.12812509 -0.18868376 -0.02047353 -0.103680275 0.119734 0.065315664 -0.14009216 -0.26546046 -0.16270122 -0.12526196 0.3674195 -0.21664897 -0.09043082 0.18689655 -0.113897964 -0.026693687 -0.30235663 -0.11310618 0.262601 0.22021832 0.07128965 -0.334736 -0.20815848 0.42950723 -0.013610612 -0.0147769945 -0.027861815 0.026369926 0.00961224 0.10253017 -0.028491715 -0.15179308 -0.30186114 -0.16321035 -0.45080194 -0.20727324 0.13621749 -0.0066439556 0.17197531 0.059952654 -0.015438346 0.05434797 0.2704083 0.03170452 0.08914243 0.19516401 0.15508519 0.03940066 0.025599314 -0.2102586 0.056756206 -0.21341668 0.19184801 -0.14688832 0.23517081 -0.08079627 -0.032694843 0.4713166 0.16700456 0.2570575 -0.14193602 -0.11800781 0.15446307 -0.28988588 -0.18194462 0.3175952 0.2512661 0.03033912 -0.24935274 -0.17461407 -0.27272296 0.012010322 -0.06387375 -0.08866576 -0.22748953 0.29294786 -0.089366764 -0.0055320757 -0.022201827 -0.5464562 0.095681414 0.47749156 0.17989694 0.46189487 0.16042775 0.011778941 -0.011830363 0.1784013 0.33589348 -0.018278508 -0.12637435 -0.006287883 0.2760703 0.24555773 0.1615098 -0.43343335 0.10146353 0.053951323 -0.03530186 0.15957743 -0.026896395 -0.25706536 -0.09208143 -0.32168353 -0.045530725 -0.5153003 0.07073947 0.08650862 0.09368076 0.112301946 0.4298118 0.22801192 0.10938436 0.35780397 -0.34184346 -0.15492634 0.004695385 0.27523792 0.061909463 0.15309234 -0.33159244 0.0049386476 -0.03830879 0.41016486 0.024109581 0.43071112 -0.24825884 0.14195889 0.100954615 -0.04308562 0.17192943 0.0732643 0.49101597 -0.16376078 -0.49135822 -0.18865263 -0.123574845 0.18297859 -0.15741761 0.17639193 0.23577489 0.032658715 0.19226003 0.14699718 0.0642241 0.06185909 -0.26729646 0.04813673
gostosa 0.24246728 0.20101653 0.24805166 -0.22760975 -0.06159458 -0.091528654 -0.46277988 -0.24788019 0.13000508 0.10805352 -0.09887817 -0.45653355 -0.23215102 -0.074519284 0.22688523 -0.40382677 0.036249865 0.15076853 -0.09595389 -0.07862903 0.24247998 0.31972638 0.21595994 0.17564629 -0.18863907 -0.031902988 0.0914965 -0.50719815 -0.24884103 0.110549405 -0.20876782 -0.25891975 -0.09277602 -0.043825127 -0.17366843 0.09097956 -0.010523719 0.2211812 -0.28035906 0.2285464 0.6096439 0.3038344 -0.33116823 0.32273182 -0.0054687685 -0.3038907 0.08308776 0.087033235 0.37100545 -0.04944042 0.36563593 0.043727797 -0.13627444 -0.39053243 -0.011612081 -0.15752429 -0.37110645 -0.5123753 -0.40685567 -0.3486071 0.15018629 0.05919792 0.12823817 -0.19474743 0.4888681 -0.31740725 -0.28910232 0.030872557 -0.044510562 0.11596992 0.25158608 -0.0019235932 0.027456773 0.46451706 0.02476169 -0.05709508 0.03048216 -0.048799805 -0.5727699 -0.091727175 0.30848682 0.10162911 0.04098355 -0.38023832 -0.25557035 0.24143691 0.22204132 0.24833538 0.095634185 -0.40215132 -0.0040608216 -0.09574026 0.08988015 0.08504085 -0.09328801 -0.14261048 0.08689152 0.15312436 0.025057646 0.022086577 0.1091783 0.029213246 -0.12235192 -0.20910725 -0.27839684 0.17723136 -0.13810137 -0.2960848 -0.002846543 0.0061150766 0.44960073 -0.35545152 0.10462693 0.2786386 -0.07703515 -0.16565315 0.34670275 0.24091002 0.22381698 -0.23706147 0.007235568 0.16716586 -0.14135124 -0.5424194 0.29777032 0.2502483 -0.053974893 -0.17843094 -0.14551035 -0.15789542 0.12359558 -0.18763849 0.08610368 0.42184794 0.236416 0.11523027 0.21684062 0.13503343 0.039458808 0.28259334 0.064738415 0.100270204 0.19119816 -0.28172612 0.03724272 -0.021985082 0.21784699 -0.022820579 0.27274093 0.10689817 0.12312763 0.20008734 0.35028136 0.056926165 -0.4372056 0.077986926 0.20935455 0.069756314 0.30178207 -0.10246109 -0.34372282 -0.22116809 0.025276484 0.24072406 -0.2275202 0.20981269 -0.85937005 -0.16245583 0.41486937 0.028247463 0.24041052 -0.4072156 0.21542268 -0.1673068 -0.2916196 0.5513793 0.29433817 -0.17758791 -0.20414947 -0.08877985 0.35077435 -0.11852575 0.22853446 -0.33262292 0.2714802 0.050953828 -0.32291564 -0.46945998 -0.17401448 -0.34292844 -0.04921942 0.56992346 0.043744493 0.13192217 0.30276623 -0.050082177 -0.26305014 -0.14774701 -0.20894651 0.19760156 -0.18870221 0.42634186 -0.09516432 -0.26968074 0.20911331 -0.28031504 -0.108204074 0.23002067 -0.19054662 0.50478506 -0.4111868 -0.17849118 0.099324554 0.082592845 -0.15617752 0.024987042 0.03464093 0.3494938 0.02257998 -0.18146464 -0.22182375 -0.031676486 0.13730282 -0.16102497 -0.0084139705 -0.027207483 -0.10828218 -0.026033456 -0.07920533 0.009370818 -0.20041141 0.09602486 0.12916665 0.18808094 -0.048270054 0.22396922 -0.09153454 0.08459464 -0.04471949 0.15904965 0.13126 0.14986445 -0.14103632 0.21314523 -0.10689788 0.036661804 0.05154319 -0.35522163 -0.16705917 -0.31651157 -0.23876058 0.2832126 -0.2552242 0.012746347 0.09426906 -0.015041048 -0.18468538 0.061147925 -0.3067439 0.056739587 -0.049328607 0.0762414 -0.24765821 0.014750695 -0.23370555 -0.29791638 -0.3966916 -0.45443878 0.19646376 -0.17540053 -0.36787882 0.068837486 -0.011761158 0.33279786 0.27910084 0.050498024 -0.37184322 0.07893623 -0.0915485 -0.13089019 0.16723818 -0.15237273 0.14308536 0.047278166 0.0071157883 -0.08046826 0.009157952 -0.22412619 0.03460203 -0.4773704 -0.012456758 0.28774378 -0.05716182 0.00564648 0.12673336 0.50796926 -0.27100554 0.3147466 0.5669127 0.20225139
burra 0.047072954 -0.014802107 0.3307647 0.06361795 0.23830053 0.04869109 -0.4607839 -0.25295573 0.08589793 0.044600833 0.4696357 -0.5811204 -0.24475372 -0.054309286 0.22822459 -0.34109378 -0.19882794 0.23497392 0.093080595 0.24246806 0.37600923 0.24924272 0.08439225 -0.13443696 -0.11302624 0.202483 0.1504682 -0.1902278 -0.19236763 0.14463069 -0.31095803 0.21570118 -0.23195685 -0.00867812 -0.24461475 0.15607712 -0.2867272 -0.5655206 0.1615917 0.3041821 0.43841296 0.080410615 -0.039987836 0.17431757 -0.15816662 -0.25194442 0.31538686 0.11312846 0.31894585 -0.16406518 0.01764966 -0.32179993 -0.026023645 -0.39399514 0.21457426 -0.10237954 -0.19451556 -0.24127503 -0.30918708 -0.35294336 0.10899704 0.20661148 -0.065240756 -0.5079428 0.32143456 -0.27262202 -0.04597761 -0.08513911 -0.04858574 -0.40006995 0.25847444 -0.25436285 -0.12378935 0.21359365 -0.08749035 -0.025848348 0.21541815 -0.45162758 -0.5816277 0.042257022 0.08974719 -0.046257243 -0.24855351 -0.006290075 -0.21474051 -0.024253942 0.19176716 0.07803814 -0.11456208 -0.37403792 0.06981365 -0.37489942 0.07795665 0.57795006 -0.012818035 -0.08786779 -0.08720612 0.110821515 -0.027925486 0.0074125384 0.21576864 -0.063077286 -0.3104978 -0.11214477 -0.24560276 0.03153167 -0.20754153 -0.01862129 0.21914943 -0.24697742 0.2725768 -0.50734633 -0.06562258 0.02864685 -0.19919081 0.30180025 0.23965578 -0.108995944 0.21756606 -0.35405824 0.008771018 0.08940286 -0.27150476 -0.48344186 0.8907913 0.37776697 -0.21791476 -0.3756935 -0.18297414 -0.18275155 0.34155804 -0.012033996 -0.0241698 0.15322278 0.094903745 -0.150337 0.055745192 -0.09591952 0.09444851 0.06702625 0.15832713 -0.23038058 0.47062796 -0.39104953 -0.011934587 -0.15571284 0.11247368 0.24756211 0.4083869 -0.3865862 0.49026757 0.09623626 0.07546716 0.08655187 -0.33292612 -0.16629112 -0.15780571 0.13167587 0.5236627 0.19801897 0.21623448 0.1799441 0.044962376 0.11625669 -0.28822738 0.14160521 -0.3481258 -0.0066218516 0.6793233 0.009603485 0.28730544 -0.23526092 0.18787143 -0.43493617 0.018064715 0.3664562 0.14820836 -0.25932494 -0.16227925 -0.06283163 0.0998515 0.008818366 -0.1195154 0.12516229 -0.018644292 -0.24921355 -0.1596502 -0.056240533 0.14858866 -0.3131365 0.15106955 0.5366924 -0.2216232 -0.15852629 -0.06580975 0.14273125 -0.079213835 -0.23920918 -0.17594628 0.40520343 0.015530041 -0.0035810855 0.10444555 -0.12635656 0.18848631 0.0061939773 0.19060186 0.013033444 0.12736961 0.5013638 -0.5633379 -0.09924356 -0.029951237 -0.23780823 -0.32465902 -0.14004155 0.06261227 0.2642118 -0.099806935 -0.16704339 -0.05165206 -0.20267975 0.12414006 0.13357297 -0.20995173 -0.09374793 -0.24429344 -0.34743327 -0.07945749 -0.33877173 -0.43614092 0.2622347 -0.1745343 0.33307654 -0.13764785 0.015458499 -0.01785679 0.03482341 -0.21918462 -0.29334247 -0.068384975 0.043318637 0.03862422 -0.120521106 -0.12855926 -0.3396022 -0.24576502 -0.17109576 0.103686094 -0.2583293 -0.16535515 0.26915577 0.19011465 0.06779021 0.17631403 -0.0019200853 -0.52321225 -0.19058026 -0.057933636 -0.295599 -0.14062375 -0.06231815 0.09189701 -0.22761385 -0.14578351 -0.37120178 -0.13967976 -0.19235148 0.19027509 0.2992245 -0.1760542 -0.21262757 -0.14084992 -0.010111964 0.101637095 -0.07575303 -0.50018126 0.17687632 -0.16929881 -0.3100009 0.34674114 0.03013845 0.022582343 0.29461026 0.04371102 0.1368163 -0.1061647 -0.3612709 0.19659017 -0.44270256 -0.19796856 0.26862162 -0.39358458 0.05440497 -0.15641488 0.34342667 0.07475612 0.2853307 0.26779276 0.14781892
no 0.12516215 -0.24393432 -0.15711361 -0.14726886 0.2993684 0.3398401 -0.018711263 -0.14478289 -0.18925564 -0.1390597 0.255751 0.14679764 0.042983346 -0.15597044 -0.15590148 -0.001708908 0.037438367 -0.11922918 0.36555445 0.15860415 0.016395457 0.11448124 0.26891577 -0.18016355 -0.1423347 -0.09469928 0.49932113 0.2702466 -0.10470544 0.3965395 -0.19597085 0.059847742 0.23423913 0.25251725 -0.10996385 0.15142286 -0.41767958 -0.43312398 -0.07922157 -0.46594846 0.107937425 -0.14579473 0.09464393 0.09196277 -0.023680585 0.021714833 -0.1834311 0.011299248 -0.038633123 -0.16133212 -0.16605702 -0.41042274 0.07416981 -0.1803424 0.04437962 0.1063546 -0.23630662 0.32219648 0.09501898 0.45440102 -0.04223305 0.17238502 -0.20226611 0.047646504 0.072638676 0.015595463 -0.1913922 -0.10356648 0.22694099 -0.14886734 0.52961755 0.48428577 -0.13464972 -0.061870776 -0.06736144 -0.106291875 -0.18428859 -0.30188182 -0.43587717 -0.11959474 -0.15165322 0.03302069 0.10170486 0.42636508 -0.1301576 0.33384413 0.43470386 -0.19170704 0.16882369 0.114170015 -0.43080384 0.26801997 -0.40483654 0.10801187 -0.4945873 -0.3871337 -0.14364514 -0.10110013 0.06776806 -0.41171336 -0.049764104 0.39672 -0.08953362 -0.04055497 0.16720264 0.403949 0.19153856 -0.01920863 0.08320913 0.14860702 0.44032007 0.13850665 0.3036025 0.222767 -0.0025749644 -0.52067876 0.2916926 -0.10832452 0.24006324 -0.17239694 0.04888832 0.058195744 -0.34662142 0.22136234 0.26767966 0.26442456 -0.039423183 -0.12006967 0.24105082 -0.080742344 -0.07477647 -0.10666985 -0.24628624 0.14380299 0.20431769 -0.10261077 0.017519671 0.15876944 -0.14958826 -0.12317805 0.15272762 -0.06303702 0.26180938 0.24435464 0.24813487 -0.09911453 0.16437665 -0.035093643 -0.11481248 0.19277936 0.24807955 -0.19784011 0.2819859 0.42848513 0.30575687 0.08939837 0.3115798 -0.1197284 0.10430908 -0.23159191 -0.13175556 0.11131267 0.070533745 -0.17624626 0.19197527 0.38183913 -0.13770445 -0.19753711 -0.1496341 -0.07364509 0.22335902 -0.054835666 0.2772463 0.09680317 -0.05886308 -0.042932853 0.14491199 0.2656047 0.34857002 0.02864647 0.44977883 -0.17996202 -0.37514585 0.16457027 -0.49336675 -0.17977573 0.15343079 0.048154246 0.39452824 0.16283795 -0.11648798 0.0070970478 0.2083147 0.13493723 -0.24115355 -0.000113039976 0.0437594 0.39367676 0.26735288 0.11024591 0.062009584 -0.09155034 -0.07152397 -0.2177292 -0.5426933 -0.17728542 -0.08347928 -0.04173012 -0.01646324 0.1371381 -0.14362504 -0.283815 -0.0013796843 -0.3648929 0.17769599 -0.2558458 0.013560157 0.15020442 -0.17931254 0.021858033 -0.121870294 -0.28561413 -0.27011138 -0.24077474 0.46207762 -0.077362716 -0.2692895 0.46159258 0.032203563 0.19997026 0.067431174 -0.17841299 0.23447141 0.20462246 -0.35349593 0.19393645 -0.1426796 -0.02839344 -0.14097272 0.09515141 0.09152395 -0.23415737 0.07707471 -0.31211495 -0.15129274 0.053543955 -0.0039687445 0.16330649 0.6092206 0.18617807 0.5452002 0.27998596 0.57701474 0.21692702 0.086044244 -0.20195015 0.2905089 -0.3815137 -0.06695557 0.1384555 0.19902723 0.043812603 0.0059110094 0.121348 -0.43740386 0.42141393 0.18238907 0.059363756 0.17853296 -0.147191 -0.1036176 -0.076190956 -0.27289698 0.075995475 -0.28878304 -0.22406611 -0.08400915 0.15975681 -0.16122407 -0.42100528 -0.055539418 0.30571938 -0.07658541 -0.02834179 -0.16169411 0.22212593 -0.3270266 0.14939132 -0.26413256 0.4022412 -0.084007524 0.15876812 0.06854485 -0.38697565 0.0987983 -0.14301144 0.257475 0.41950193 -0.19036593 -0.026549745
louca 0.093861565 0.035823997 0.12804216 0.041895296 0.23306037 0.25819692 -0.41489387 -0.20511343 -0.076852836 0.07415943 0.44838834 -0.38988084 -0.124456756 -0.118685015 0.007908849 -0.4155155 -0.0647974 0.30000082 -0.072505474 0.09439545 0.33275956 -0.14748526 0.33745208 0.018321034 -0.07797085 -0.11674982 0.3142243 -0.26157525 -0.16547437 0.24096656 -0.33377683 0.13330814 0.10956108 -0.07301568 -0.12865469 0.27487776 -0.06345526 -0.55324155 0.2759353 0.16190238 0.20271628 0.08578521 -0.36827987 0.13448441 -0.23931344 -0.18216455 -0.14163667 0.20793417 0.05309814 -0.09331826 0.1314316 -0.10371008 -0.19571863 -0.28631294 -0.10003155 -0.01371362 -0.31637692 0.00032910187 -0.028626604 -0.34799665 0.08804538 0.38870454 0.092826664 -0.04360586 0.123555996 -0.4426032 0.049102403 -0.21963082 0.15025388 0.12121244 0.4560388 -0.13442163 -0.046037972 0.07070816 -0.3136321 -0.14942409 0.09586554 -0.28549007 -0.17671591 0.026345808 0.010890174 -0.025951106 -0.22197579 -0.12483867 -0.31136364 -0.15988669 0.27562842 0.09048989 0.048073903 -0.17097723 -0.09261723 -0.30612808 -0.18366212 0.06217683 -0.13809548 0.049160294 -0.072188854 0.035864353 0.019935094 -0.2047561 0.036828645 -0.14030147 -0.050885115 -0.11528838 -0.40776777 0.049007483 -0.31438297 -0.08304219 0.41295412 -0.1567992 0.27820832 -0.25668555 0.073214486 0.19131073 -0.14430675 0.32927284 0.1205649 0.28511766 0.35130802 -0.20341702 -0.45071355 0.11482869 -0.044854376 -0.08420534 0.21521515 -0.11621359 -0.23633672 -0.47093964 -0.16741057 -0.011135451 0.29377732 0.068211004 -0.08717143 0.3402064 0.041149642 -0.029906554 -0.13753417 -0.17409793 -0.113650575 -0.103459865 -0.0457412 0.034502275 0.20109984 -0.09668788 0.10788842 -0.23002225 -0.16284715 0.1919569 0.26276883 -0.30557153 0.24176462 0.17728268 0.018213559 0.062024962 -0.13968323 -0.32594672 -0.02586642 0.16686289 0.40266046 -0.055039153 -0.12205767 -0.021839797 0.030006612 0.2199689 -0.12600023 0.06925975 -0.31609702 -0.020232616 0.38570204 -0.19269285 0.11580434 0.044890612 0.024286086 -0.053137075 -0.01895656 0.41750997 0.5004957 -0.18665785 -0.16183403 -0.13223128 0.1502499 0.04164497 -0.08629426 0.23965104 -0.28612474 -0.16393264 -0.31070888 -0.34614965 0.24670234 -0.14565437 0.08992981 0.55831975 -0.032291085 0.20693724 0.098953016 0.12851316 -0.25262892 0.08885083 -0.11907269 0.007457933 0.16144958 0.01860674 0.07619526 0.06993381 0.20984364 -0.011578594 0.37747964 0.15462275 -0.031180587 0.2999551 0.11140788 0.014578171 -0.01623438 -0.116110995 -0.2402805 -0.45900017 -0.11563899 0.2731404 0.008409766 0.0007700065 -0.21114516 -0.24208878 0.16449127 -0.19231458 -0.091387615 -0.07077103 -0.40833107 -0.21167123 -0.058829363 -0.20415726 -0.4355481 -0.07822105 0.019497182 0.16893467 0.009367789 0.059482224 0.1952794 -0.18937176 -0.3973915 0.09400001 0.015377215 0.043774176 -0.08287346 -0.10179204 0.023995772 0.05269737 -0.09911584 -0.18568924 0.06510877 0.022840934 -0.12771188 0.24692231 0.10742928 -0.24141215 0.098964155 -0.42964235 -0.5561284 -0.16852917 0.0692708 -0.12622486 -0.33433214 0.041561447 0.34653586 0.11486406 0.07608667 -0.24476649 -0.3040033 -0.2546459 0.1505058 0.21545821 -0.09130274 0.014969473 0.060826022 0.05373626 0.13963576 0.2825772 -0.28915524 0.02047554 0.11655137 -0.06901092 0.21309029 0.06908939 -0.23702157 0.19015002 -0.05879877 0.06839238 -0.25471643 -0.22347838 0.053177964 0.026257252 0.080141105 0.18684211 0.14988953 -0.06393219 -0.07951408 0.084142365 -0.2701972 -0.005629698 -0.05356131 0.03995275
karol 0.14627492 0.15610386 0.12412011 0.09303002 0.75908387 0.1870489 0.27023092 -0.014398044 -0.2663682 0.17306994 0.3122934 0.012451024 0.030548187 0.11651475 -0.2091938 -0.17542763 0.22881785 0.22919121 0.2427031 0.5621305 -0.25968304 -0.61665404 -0.27385068 0.35993314 0.020540409 0.35413623 0.5098678 -0.053074576 0.038925223 0.5227667 -0.07374707 0.15069963 0.42927033 0.16723473 -0.25451544 0.15514241 -0.53282 -0.52048314 0.35980612 -0.6081421 -0.61935246 0.14363924 -0.36061722 -0.13789436 -0.008767689 0.06803779 -0.052809875 -0.102194466 0.31367055 -0.26373833 0.15412252 -0.23126529 -0.3826415 -0.38193637 -0.3891103 -0.07365602 -0.07044341 -0.31516904 0.15287967 0.24873354 0.3869556 -0.19486937 0.08887643 -0.08458909 0.06046967 0.05097794 0.26874882 -0.48303872 0.035704203 0.141812 0.43584877 0.042923097 -0.11320319 -0.4979576 -0.40588096 -0.26003218 0.04878871 -0.019373434 -0.3407415 -0.09483951 -0.15537812 0.107857965 -0.09402591 -0.09109478 -0.60237694 -0.01679671 0.60244465 -0.19916013 0.34582338 0.20849574 -0.41018385 -0.4240098 -0.4244785 0.024857527 -0.45032007 -0.328922 -0.27702633 -0.07835691 0.25285897 0.031337358 -0.39373875 0.1679299 -0.45173806 -0.09995574 -0.25344592 0.30759057 -0.58321935 0.062562205 0.1650929 -0.66379374 0.05333201 0.08023512 0.3854158 0.018613568 -0.22984433 0.16085884 0.005055776 0.7112639 0.40239385 0.06813738 -0.6654534 -0.31836998 -0.11021721 0.048853256 -0.026238542 -0.7326566 -0.04607932 0.24357104 0.24925686 -0.30131447 0.20294154 -0.013697556 -0.07380438 0.19465315 0.63231355 0.112100646 0.16092464 -0.3942296 -0.022628326 -0.77210903 0.10925255 -0.20445189 -0.054891385 0.3459697 0.58240634 -0.073667236 -0.22697283 -0.19361214 -0.11598965 -0.47510812 0.26621908 -0.035442617 -0.117867686 -0.14198443 0.19453932 -0.24427126 -0.06986595 0.28393957 0.023404812 -0.24048287 0.30147257 0.23111711 0.06849749 -0.16426478 0.0045447988 -0.048675448 0.29635984 -0.010897534 -0.059450284 -0.36975124 0.042607456 0.018187208 -0.2196023 0.05806475 -0.22877122 -0.3867492 0.7600142 0.058154438 0.10332187 -0.3575503 0.3015474 0.026997583 -0.31019592 0.33313113 -0.52887136 -0.17640465 -0.46004018 0.16201147 0.2818183 0.12530164 0.4296547 0.033784453 0.18781547 0.037823077 0.19297801 -0.09898019 -0.70901555 0.33693075 -0.10253131 -0.1973963 0.21399912 -0.20478533 0.09564807 -0.0742009 -0.25498906 0.27885872 0.13951142 -0.043360576 0.26032698 0.17846876 0.28918028 -0.16743244 -0.30785686 -0.09920438 -0.016570095 -0.45537984 -0.6374313 0.38145548 -0.06343515 0.29010192 -0.058511514 0.09974721 -0.76528984 0.1498887 0.4227283 -0.30400747 -0.3016232 -0.20444907 -0.29267797 -0.15497068 0.27197683 -0.1805441 0.17336597 0.24535246 -0.1873387 0.27964073 0.13368386 -0.106331624 -0.631868 0.58940566 -0.29081464 -0.3704384 -0.18407032 -0.040202245 0.18189803 0.34423736 -0.121660374 -0.5165061 0.5846851 0.2866951 0.49427888 0.32818016 0.24795623 -0.24087068 -0.47341648 -0.75919384 -0.36290157 -0.06445143 -0.15934755 -0.20428768 -0.037102815 -0.1238892 0.122122414 0.22620182 0.0026903835 0.31364858 0.1412974 0.06886836 -0.37000105 -0.06668689 0.07903509 0.21006677 0.10820834 0.017496789 -0.23993215 0.2484109 0.23082928 0.6490532 0.49529147 -0.49517646 0.37544754 -0.09587713 -0.18676919 -0.29179302 0.1212652 -0.44630736 -0.41921955 -0.11183357 -0.21851982 0.31477654 -0.035922248 0.24603643 0.23093386 0.005164495 0.072493196 -0.10480006 0.0128946975 0.03380517 -0.3076967 -0.1803548
na -0.013475129 -0.2495838 -0.30981907 0.16108105 0.030976554 0.15312599 -0.016893242 -0.054644033 -0.1912745 -0.19137342 0.10416228 0.17106111 0.12488966 -0.032799702 -0.45716292 -0.17216514 -0.30516735 0.28488645 0.2993736 0.16878444 0.050701927 0.065817796 0.2085274 0.09151952 -0.039035454 -0.026728505 0.3103596 0.1159807 0.114802465 0.02997003 0.088273786 -0.3175335 0.12859264 0.1460538 0.06232746 0.36698306 -0.33819023 -0.282157 0.14806071 -0.29100066 -0.066342205 0.028660426 0.09748067 0.006864888 -0.024457542 0.04245554 -0.08111791 0.18452531 -0.23812172 0.010736253 -0.023437588 -0.2267047 0.17725363 0.2238891 0.10929439 0.13478 -0.13284594 0.29195195 0.1730596 0.28022537 0.033126112 0.24980587 -0.06518417 -0.33463576 0.05864355 0.08478124 -0.09632332 -0.15582635 -0.058397736 -0.26825896 0.35846806 0.10589508 -0.07407099 -0.1559891 -0.13765274 -0.2907889 0.0067778826 -0.32912925 -0.09036719 0.19698013 -0.17398527 0.17343207 -0.039001316 0.14255762 -0.24676892 0.22190471 -0.23667112 -0.11589918 0.2735741 0.0661531 -0.19283067 0.0732022 -0.2724283 0.08936542 -0.3715116 -0.14529665 -0.24628448 -0.042353198 -0.1577059 0.0034412534 -0.04303946 0.13943104 0.06489633 -0.066967435 0.19233376 0.16354682 0.23476219 0.2066404 0.11232374 0.2082594 0.35284272 0.09077533 -0.014251765 0.32653484 -0.2878309 -0.19986735 -0.07662089 -0.0071239066 0.111451 0.0030495315 -0.10809783 0.040971704 -0.109681785 0.33393577 -0.098289646 0.04762958 0.0077935336 -0.105019845 0.317183 -0.034828436 0.14897749 -0.015985955 -0.15836625 -0.08075295 -0.33293056 -0.17699543 -0.088101216 -0.017530955 -0.3167344 -0.0983106 0.30221865 0.21614191 -0.2448508 0.16970426 0.21268046 -0.12792037 -0.07156945 0.14926925 0.0036745153 0.08765641 0.19379681 0.21461268 -0.13172378 0.09973894 0.14263712 0.00092229183 -0.0071842675 0.13701555 0.14408183 0.09481351 0.0011935339 0.34167483 0.3131991 0.038400043 0.0077446247 0.22293293 -0.25317252 -0.0069362256 -0.3209949 0.20631328 0.25645682 0.15348896 0.22781278 0.038123082 0.0143959 0.12773447 0.065598495 0.16390456 0.41005826 -0.082994446 0.3184439 -0.13005055 -0.23659123 0.13302758 -0.6283738 -0.208383 -0.12785625 -0.19447976 0.1727324 0.21269754 -0.15223204 0.17069024 0.11980135 0.110870175 0.24084844 0.058335 -0.0036715737 0.28149444 0.10378363 0.10460295 -0.054659564 -0.21459214 0.0060836286 -0.2450415 -0.098155536 0.0030298133 0.08950918 -0.06571423 0.27003396 0.19244494 0.045454364 -0.04309819 -0.20371136 -0.20587397 -0.052342433 -0.55731267 -0.1675306 0.2324615 -0.057719156 0.2557161 -0.17777559 -0.3319321 -0.23617046 -0.10575743 -0.0069894674 0.005440734 -0.10037437 0.29332885 0.10289349 -0.01032045 0.15222909 -0.11136058 0.36454463 0.4104048 -0.20099227 0.24548441 -0.062175773 -0.15386745 -0.08539377 -0.011385694 0.05145638 -0.19312654 0.14665057 -0.20686354 -0.052700136 0.2932444 -0.11367129 0.1843184 0.3459547 0.16060881 0.27318513 0.13675706 0.49767032 0.3711807 -0.02703298 -0.5951076 0.023451151 -0.5112493 0.08338692 -0.17061006 0.1778433 -0.109122746 0.16214687 -0.0032857668 -0.2621459 0.34585533 0.096730314 0.09592954 0.3790744 0.015867706 -0.032374367 -0.030394286 -0.35783303 -0.13309461 0.21614836 -0.03280965 -0.06244294 0.16874881 -0.16562499 -0.11286376 -0.2177902 0.016964132 -0.21135503 0.07921957 0.20889015 -0.046291973 -0.31540093 0.00800623 -0.10464475 0.27821204 -0.11544516 0.09487094 0.1759375 -0.3321676 -0.045399856 -0.38589826 0.26198104 0.1271908 -0.28656846 -0.024709927
