740 300
MENÇÃO -0.047128808 -0.18127447 -0.16270207 -0.022151947 -0.112386726 0.025977654 0.039091326 -0.13484927 0.20516947 0.15846726 -0.043915298 -0.1740994 -0.175622 0.18487048 0.34335235 -0.07091802 0.123349965 -0.18373764 -0.28313273 -0.034990862 0.090368554 -0.19655396 -0.056044858 0.08544845 -0.025003899 0.39034748 0.1524837 -0.1743748 -0.05997909 0.22787824 0.14320344 -0.17792588 0.080132596 -0.17040235 -0.18605033 -0.01965455 0.28302485 0.060497236 -0.08603766 -0.14639406 -0.11857301 -0.10046551 -0.02699319 -0.093309425 0.36710456 0.07160752 0.051411252 -0.21619305 -0.037323955 -0.26002654 -0.12637629 -0.1815318 0.1470923 0.40128884 0.10154003 0.12821236 0.024212943 0.0626403 0.035268933 -0.12350342 0.045527257 0.2215893 -0.35405788 -0.13240036 -0.053951815 0.089705065 -0.19049278 -0.020464685 -0.047916338 -0.124217376 0.18486089 -0.0015960342 0.24703476 -0.19858198 -0.119708724 0.18064256 0.1691723 0.02980429 0.33141732 -0.062755615 0.058797482 -0.1626573 0.006952984 -0.08772416 -0.080309734 0.11509283 0.003949966 -0.46519694 -0.20795849 -0.23833697 -0.18874958 -0.13046661 -0.19826163 0.06659735 -0.17401882 -0.06633332 0.0077353884 -0.10395789 0.15300652 0.10688524 0.046545006 -0.04152273 0.017138904 0.13873176 0.165575 -0.0604119 -0.12346958 -0.39936736 0.1148156 -0.05561249 0.03233832 0.10038734 0.0018369354 -0.12553582 -0.021817528 0.15749471 -0.063588865 -0.036820374 0.07891149 0.07741685 0.09078209 0.07891693 0.010030226 -0.2746666 0.20687793 0.025798855 -0.18321699 -0.20103651 -0.043789636 -0.076007865 -0.08670193 0.22778036 -0.1418955 0.06790812 -0.009717676 -0.0039118053 -0.2198264 -0.18530072 -0.23646112 0.10754162 -0.016551161 -0.1584046 -0.005832327 0.15834957 -0.0053942227 -0.29698187 -0.52708536 -0.13162242 -0.14979635 -0.067836314 -0.10012996 0.070427746 -0.13915026 -0.06580892 -0.37113905 -0.075692035 -0.2555192 -0.04573165 0.15063997 -0.40562844 0.31158313 -0.0050588357 0.2211073 -0.064037554 -0.16655773 -0.15376484 -0.16191609 0.28421658 0.06557028 -0.19670238 -0.10354301 0.034819532 0.0037268538 -0.22229117 0.0019702637 0.049779367 0.359542 0.06731447 -0.25728965 0.16708134 -0.12445379 -0.11466075 -0.003957702 -0.017087707 0.12993565 -0.14461395 -0.15665811 -0.28016803 0.22490987 0.04288892 0.24626762 0.040729485 -0.4410619 0.020762986 -0.0069928654 -0.18147218 -0.0063276305 0.15831506 0.058719035 -0.11226821 -0.13197061 0.055437654 -0.023527173 -0.14951977 0.048035376 -0.32523325 0.06713183 -0.15334366 -0.33653235 -0.16144192 0.02110282 0.26263028 0.119579904 0.2626994 0.08468929 -0.07395251 0.21370605 0.17752731 0.17570686 0.10790847 -0.05507461 0.009069484 0.07826739 0.15249984 -0.21212725 -0.2094289 0.072000295 0.06155555 -0.22335523 0.009221977 0.0042878655 -0.24844366 0.030684454 -0.13639124 0.006890466 -0.11165955 -0.0036260886 -0.11876751 -0.3896624 0.020804903 -0.0121892085 -0.030329362 0.04709704 0.077803634 -0.08492851 -0.28879115 -0.040900618 -0.0034456064 -0.13457406 0.24727668 -0.011467007 0.2231402 0.04786641 -0.028635908 -0.26870015 0.110479556 0.0184812 0.2241856 0.046596434 -0.075639114 -0.042450808 0.12573564 0.34434882 -0.036628574 0.11680315 0.061897434 -0.4155061 -0.19048394 -0.15660082 -0.2668324 -0.19554016 -0.19293663 0.036837846 0.24837954 0.0046755425 -0.24273802 -0.022129517 0.11058826 -0.08697614 0.13308653 -0.1061709 -0.16925234 -0.30177236 0.09324344 0.15674415 0.0041013043 -0.113055274 -0.28351226 -0.19356197 -0.22297463 -0.12685208 0.0042571924 0.0026626007 -0.0028577324 0.038835198 -0.24330144 -0.052348353 0.27300194 0.23775786 -0.015209744
e -0.036161344 -0.01924102 -0.13796765 -0.08462286 0.3009141 0.02023405 0.0567454 0.13403846 -0.29191583 -0.23228677 0.056358095 -0.22420603 0.1659404 0.17612694 -0.06383835 0.23216929 0.073122926 -0.39005053 -0.08446725 -0.050763525 -0.026864538 0.0156899 -0.33004317 -0.13460313 -0.4142609 0.4166114 -0.0061243717 -0.041093975 0.2611529 -0.015835142 -0.064302936 0.17690475 -0.23410793 0.073586464 -0.2515895 0.1447088 0.15053119 0.007396114 0.01830323 0.06992166 -0.2901864 -0.078990474 0.07680064 0.006177188 0.34748143 -0.096572556 0.35186 -0.24866925 0.31219044 -0.15700325 0.19324896 -0.10682551 -0.03899742 0.042654954 -0.24176095 -0.25324282 0.24593948 0.050016917 0.15660226 -0.39470524 -0.34012434 0.12595078 0.008390144 0.017272798 -0.31912845 -0.009646895 -0.49747226 -0.03784007 0.15687706 -0.013409236 -0.18866114 -0.13921183 0.14667061 -0.17387739 -0.15246835 -0.043182503 0.25849313 0.12812287 0.48451182 0.22881395 -0.041833792 0.20325938 0.035518788 -0.13221961 -0.057951517 -0.075643145 0.10839682 -0.17909725 0.14016972 -0.07538844 0.20506239 -0.17643641 0.08394919 -0.14694208 -0.043239612 0.13712747 0.17303964 -0.114984445 0.10101773 0.0943584 -0.23444824 -0.22599642 -0.11498518 -0.12209588 -0.17218192 -0.03151372 0.09178409 -0.15700802 0.32900432 -0.20529144 -0.14316893 -0.18167856 0.24907048 -0.122590385 -0.11204975 -0.07860594 -0.027361121 -0.044316694 0.09921528 0.0495199 0.33399493 -0.0028314486 -0.38942224 -0.11017564 0.157383 0.16039814 -0.08243239 0.035585146 -0.23208153 -0.33411497 -0.021127727 -0.15294956 0.042451642 0.20384577 -0.20694304 -0.1702418 0.011540466 0.24498552 -0.068001494 -0.19616623 -0.21424477 -0.059678797 0.14414968 0.046163436 -0.069498524 0.18488841 -0.18754591 0.086164825 0.1771714 -0.055972736 0.32023555 0.2560488 -0.1809788 0.112677105 0.24793237 0.06364322 -0.073784724 0.028650803 -0.10265033 0.12833785 0.16056225 0.16263019 0.21885727 -0.017066402 -0.11336875 0.042423405 -0.05379302 -0.0014569937 0.07842963 0.05341196 -0.27766478 -0.037680402 0.118709154 0.060313452 0.11378666 0.04964179 -0.019594053 0.07244756 0.003048879 -0.004035119 0.053867366 -0.23717967 -0.18351516 -0.027676234 -0.064219214 -0.19206181 0.026125731 0.12800385 0.05239627 -0.121317215 -0.2510512 -0.15646234 -0.08919484 0.04769821 0.18153486 -0.31803915 -0.03340072 -0.19816169 0.23307635 -0.221972 -0.019405512 0.06176815 0.18509702 -0.09808214 0.13132674 -0.1568854 0.12626272 0.33387822 0.24624735 -0.09595543 -0.13255021 -0.10519615 0.15795946 -0.09730151 0.039463628 0.120114416 0.2651957 0.08415435 -0.12398255 0.093660474 -0.12804803 0.09161498 -0.11183913 0.31669405 -0.00159671 0.080336876 0.3768136 0.13982937 -0.11739092 0.021273702 0.45715714 -0.10916255 0.08377101 0.08574581 0.3623879 0.17664135 0.20863715 -0.17201893 -0.22127731 -0.023079293 -0.33052683 0.14437087 0.07238263 -0.032994397 0.23968197 -0.100951724 0.17422724 -0.11613019 -0.13167015 0.17776579 -0.13217302 0.006584784 0.17121156 -0.012040312 -0.17885263 0.28487557 -0.21135369 -0.06075403 -0.13186382 -0.11610668 0.14679533 -0.08585986 0.2339946 0.2898765 -0.04975466 -0.029508438 -0.24078104 0.02764041 0.057620127 0.095265105 -0.16656673 -0.3510063 -0.14494514 0.11913348 0.019139187 0.052091416 -0.03994498 -0.038818475 0.08968089 0.12580112 -0.022988087 0.030688774 -0.18120839 0.028996695 0.014698761 0.22792889 0.20374666 0.020967893 0.123682074 -0.2004726 -0.011128126 -0.22104722 0.24887422 -0.19306369 -0.08638123 -0.16934842 -0.16319843 0.13352577 0.08609218 -0.022117274
que 0.27764124 0.14498883 -0.49043956 -0.33453166 0.10552344 0.14369701 0.22156586 0.28728613 -0.36184183 0.13101214 -0.2119307 0.0075705955 -0.025120256 0.34924856 -0.26761 0.2509111 0.0070481957 -0.4646788 -0.2082927 -0.114165306 -0.16401032 0.018723255 -0.28482047 -0.15370034 -0.25255013 0.57742673 0.44207215 -0.41986796 0.13527933 -0.24937768 0.29694784 -0.2720117 -0.4085836 -0.0152969165 -0.10844672 -0.15746671 0.14989957 -0.0467623 0.13550045 -0.24904504 -0.2730899 0.0776252 -0.2433142 0.12014637 0.17468418 -0.19173712 0.45027837 -0.07589123 0.3164017 -0.037137616 -0.31316215 -0.1289749 0.16515362 0.16484243 -0.06003284 0.10850967 -0.012772177 -0.04068506 0.2577246 -0.045105815 -0.12023838 0.3119162 -0.32738683 -0.05781084 -0.18270954 -0.049421053 -0.41495577 -0.10400084 0.20343816 -0.13153246 0.23812774 -0.11133557 0.28564638 -0.78821 -0.104288645 0.3757761 0.08229042 -0.08139661 0.40066645 -0.11317564 0.15128867 0.053318433 -0.1349123 0.107863426 0.0863244 -0.12734991 0.15882573 -0.53546435 0.32132006 -0.25908476 -0.08083228 -0.07544772 -0.26371008 -0.1311687 -0.087547146 0.040228985 -0.008003418 -0.1439653 -0.20542921 0.3935543 -0.016129741 0.12564382 -0.36936033 -0.12164318 0.14332698 -0.13149624 0.5647951 -0.6497156 0.2503108 0.03147388 -0.12230376 0.18519853 0.028460165 -0.2882836 -0.4297799 0.16711773 -0.07657755 -0.07292118 -0.029897096 0.20514612 0.13539886 0.03648077 -0.29970953 0.1323354 0.12682424 0.011559437 -0.470518 0.14620705 -0.09448697 -0.15449715 0.0022575674 0.10386169 0.017638575 0.14299455 0.080816016 -0.024236457 -0.26037475 -0.09031835 -0.44309777 -0.20326237 -0.31030038 -0.24752247 0.11222295 -0.0870319 0.15942009 -0.3580365 -0.5387768 -0.12572157 0.025748646 -0.054794043 0.2317915 0.08447804 -0.20442759 -0.011474941 0.043006584 0.056522243 -0.096661255 -0.31913155 0.097992405 -0.21406673 0.24717931 0.06261409 0.063133396 0.14762665 0.0124593945 0.15256263 -0.22863135 0.13593213 0.036463924 -0.21086675 -0.267053 -0.015907794 0.28213605 -0.0828657 0.2932709 -0.13638125 0.039572358 0.026181536 -0.19865496 0.24932906 -0.05282939 -0.46153447 0.046675086 0.20524327 0.2335419 -0.23334512 -0.18768243 -0.14756085 0.06842774 -0.18248472 0.00862345 -0.11229685 -0.14816491 -0.43159062 0.46573687 0.10037222 -0.057065792 -0.07648135 -0.109767154 -0.020949095 -0.22584128 0.005006659 0.082799144 -0.039542276 -0.13273667 0.1133471 0.50918895 0.41649902 -0.13481921 -0.04857352 0.012081155 0.09028661 0.043507565 0.32222432 0.22506636 0.13526112 -0.052860662 0.029285295 0.29269195 0.1585479 0.11918244 0.14039308 -0.03580087 0.048056144 0.083622 0.18175378 0.028291045 0.30711845 -0.22536404 -0.03512794 0.3307623 -0.5048312 0.17027089 0.048098754 -0.32674047 0.23197797 0.14011739 -0.17077628 -0.22155905 -0.2765224 -0.3369179 -0.027362356 -0.116271816 -0.25846475 -0.12300756 -0.28181398 0.2365206 0.17541565 0.021380521 0.22536206 -0.15694031 0.0590994 0.08065394 -0.20213921 -0.19096167 0.25314897 0.01287146 0.5247515 -0.13473684 -0.36745945 0.2587907 -0.14037359 0.39286813 0.37813628 0.2602903 -0.071943335 0.0662875 -0.16365461 0.21693358 -0.3533635 0.022093825 -0.088494115 0.031411104 0.14142203 -0.25036064 0.30541584 -0.097805634 0.12632354 0.1115297 0.46051523 -0.25025034 0.08302984 -0.30498433 -0.01030783 0.51886046 0.4739706 0.1579504 -0.19607992 0.039151896 -0.24433234 -0.17293723 -0.41002828 0.10314214 -0.07297473 0.13701959 -0.08611164 -0.36011556 0.11908065 -0.30898774 -0.11208689
a -0.1075283 0.19210105 -0.034926817 0.052861243 0.057298202 -0.18361135 -0.15549655 0.033992767 -0.08710504 -0.16564542 -0.24801236 0.008966548 0.06822991 0.12571903 -0.016767066 0.10523623 -0.39752313 -0.49371457 -0.18214999 -0.00383487 0.035028428 -0.08042143 -0.23488805 0.050618116 -0.2767002 0.45682195 -0.0070979684 0.13938273 -0.08442202 -0.2638655 -0.05843358 0.10300941 -0.10932513 -0.039785035 -0.23680016 0.1530636 0.21963167 0.020229876 0.00025720382 0.14922687 -0.42261553 -0.077559665 -0.26952517 0.051825527 0.5344024 -0.24592298 0.3159033 -0.05978648 0.26571497 -0.13976458 -0.017124912 -0.08752469 9.991642e-05 -0.032815672 -0.0664707 0.1408819 0.14668904 0.03777514 0.24530694 -0.09077294 -0.062273532 0.090144545 -0.057158887 -0.005170213 0.10859734 -0.18400082 -0.1763875 0.076418474 0.10898999 -0.062131427 -0.23869136 -0.12398637 0.21813042 -0.22933704 -0.027876701 0.25564092 -0.26360348 0.31799692 -0.2821352 0.23659822 -0.1398006 0.09555537 -0.018867426 -0.198762 0.12401158 -0.15380959 0.1170041 0.008800522 0.23190649 -0.18100607 -0.08447305 -0.12997085 -0.024218675 -0.11494908 0.0107628945 -0.122837156 0.041979276 -0.068782195 0.1929969 0.14211242 -0.14123009 -0.27974048 -0.43200085 -0.043250054 -0.13776043 0.122275904 -0.1807108 -0.03559036 0.31007683 -0.20412381 -0.15536585 -0.32323492 -0.1552355 -0.17805374 -0.0054005464 -0.20607367 0.119312584 -0.15111968 0.1700574 0.43275338 0.04209056 -0.027917763 -0.1426293 -0.13785544 0.10959968 0.26281187 -0.07830522 0.12773362 -0.21541311 0.044198945 -0.2296397 -0.20028795 0.08134174 0.23993956 0.03779691 0.047121067 0.064183235 0.23355356 -0.06268665 -0.29495835 -0.16202694 -0.31119287 0.3540414 0.122199304 -0.09484246 -0.09211363 -0.28886497 -0.07284337 0.1750082 0.3097292 0.34650192 0.025069473 -0.23474038 -0.15190138 0.1587071 0.008307283 -0.26909357 0.02401024 0.004474665 -0.07981482 0.23362325 0.01416002 0.1751225 -0.14693034 -0.22903448 -0.14101018 0.08465495 0.24099688 0.036799066 -0.04799047 -0.19313903 -0.051340953 0.3477927 -0.07118355 0.36783516 -0.24647436 -0.045418475 0.105680235 0.27679098 0.061821602 -0.018913131 0.03666225 -0.05280796 0.17862402 -0.16015181 -0.23558572 0.15432759 0.04905346 0.082960494 -0.30786708 0.19109692 0.07447596 0.03777965 0.2051786 -0.01772288 -0.35710567 0.22482482 0.15061566 -0.053880453 -0.09061053 -0.03707171 0.30299446 0.15291405 -0.10514833 0.14641859 0.05115914 0.058289792 -0.08604654 -0.15792403 -0.055315778 -0.22594562 0.10550543 0.07047853 0.05923864 -0.12967849 0.120751806 0.18193866 -0.031970955 -0.0010970137 0.078974485 0.118477 -0.026258932 0.1568021 0.16358216 -0.20803605 0.086249456 0.1184016 0.00057340146 -0.14803806 -0.007919478 0.059946105 0.011317537 0.017513137 0.034548234 0.09027289 -0.19907677 0.07134435 0.042130303 -0.15364216 -0.048173264 -0.09833219 0.07502056 0.05117824 -0.04494657 0.13221706 -0.08366458 0.3776635 -0.10961262 -0.03564226 -0.083874546 -0.06327433 0.039151438 0.10868488 -0.057111304 -0.32404736 0.4331291 0.06648208 -0.084436364 -0.081249975 -0.3145892 0.199632 -0.42253545 0.1006951 0.2660309 0.14206132 -0.0028576704 -0.24587332 0.26901165 0.36634597 0.13343172 -0.2933212 -0.5283865 -0.13745733 0.14122863 0.09256355 0.0012752627 -0.16490792 -0.13636543 -0.31102863 0.055748418 -0.401734 -0.37212223 -0.19829753 -0.26596794 0.439495 -0.13798732 0.18979284 -0.31740797 -0.0016096602 -0.15304093 -0.11719571 -0.2534134 0.19955304 0.06848634 -0.17481512 -0.17557648 -0.24148113 -0.034868702 0.15160389 -0.19593304
de -0.28847474 0.096527286 0.049209233 0.19476491 0.010322603 0.021041514 0.21367997 0.06455418 -0.09219147 -0.12367287 -0.0659865 -0.09068932 0.23673542 -0.07292254 -0.18325032 0.285931 -0.04401271 -0.49122348 0.06508605 -0.10661773 -0.17513703 0.046213135 -0.49218446 -0.22042713 -0.22947435 0.35964155 -0.14907433 0.0054183668 0.2175035 -0.25111666 -0.15732796 0.16922714 -0.0017988728 -0.12851065 0.028381165 0.242109 0.33089748 0.0037514553 0.2222812 0.00855179 -0.4547821 0.056639053 -0.019835068 0.1856392 0.32199493 -0.0092399595 0.4384203 -0.16394822 0.28612503 -0.2905905 0.13521619 0.16328979 0.16745807 0.061494738 -0.26603743 -0.29459056 0.023515906 -0.12264158 0.20843051 -0.27637658 -0.38653144 0.32339168 -0.023777112 0.12512384 -0.0922101 -0.31050125 -0.25713 0.4135411 0.018234264 0.11351004 -0.21625598 -0.07441069 -0.10904257 -0.01977822 0.32905906 0.083405785 0.10352258 0.2873844 0.019228166 -0.24203445 0.05926942 -0.20215677 0.15242867 -0.10898784 0.13231315 -0.117297366 0.12236776 -0.03032429 0.12266589 0.2081962 0.005765403 -0.11156615 0.07144509 -0.014977611 -0.054974835 -0.10367707 0.2167343 -0.07423751 -0.09646826 -0.052154582 -0.3124912 -0.39181697 -0.19115946 -0.101925984 -0.15323274 0.30360246 0.03143088 -0.24597846 0.2801145 -0.23649837 0.045856293 -0.13509318 -0.24199183 0.00661882 -0.28981534 0.28535154 0.0009544704 0.06030935 0.038293242 -0.0137017295 0.097905174 -0.00783572 -0.14521337 -0.094168544 0.19253244 0.109161794 -0.32260334 0.155769 0.16555358 -0.09793381 0.20757689 -0.13027173 0.20830564 0.20584129 -0.010398417 -0.12846777 -0.14467049 0.039898053 -0.11114815 -0.23543298 -0.04811344 -0.18901943 0.1337754 -0.094469965 -0.20965086 -0.080354206 0.19339055 0.14458616 0.19085206 0.4405382 0.13940947 -0.08467026 -0.15724084 0.30643633 -0.13176167 -0.07844647 -0.25177848 0.21203506 0.08492923 0.10265035 0.0030366683 0.18198912 0.1359976 0.08805562 0.15266456 -0.07788975 -0.050133206 -0.043879587 -0.06063989 0.06972836 -0.24629343 0.16334975 0.02646492 0.07942415 0.35156888 -0.22486278 -0.33339986 0.12769963 0.21874845 0.062760174 0.094184235 -0.05812109 0.18757734 0.14515488 -0.40893865 -0.21522963 0.23154126 -0.1492438 0.086475626 -0.30034474 -0.016723622 0.11311816 -0.20675053 0.07480981 0.018943004 -0.3717571 0.15206963 0.119074784 -0.09669029 -0.29824764 0.2730606 0.2054482 -0.025832934 -0.04806852 0.14751735 0.007901274 0.22392152 -0.3174467 -0.11413659 -0.16260628 -0.08144586 -0.077816844 0.15699504 0.1865055 -0.10494144 0.20953423 0.22894335 -0.10533896 0.16128203 -0.14552373 -0.016092543 0.2118604 0.043053634 0.09381336 0.04976054 0.12422016 0.2667435 0.22825202 0.1277466 0.20668733 0.33654463 -0.2883934 0.022604926 0.083077006 0.32815227 0.14400235 0.24203917 -0.018425755 0.03293616 -0.03329963 -0.3461839 0.30968317 0.08468893 -0.3655367 0.122312635 -0.0059973905 0.47307667 -0.2186162 0.13211805 0.10348179 -0.014555981 0.13996375 -0.12420209 0.11925565 -0.5087722 0.37285775 -0.18138489 -0.04840442 -0.4202935 -0.38272583 0.18175413 -0.06884612 -0.09574748 0.38939846 0.023491329 -0.066621885 -0.08206265 0.06450278 0.2549588 0.02197155 7.1713584e-06 -0.1974909 -0.08054175 -0.23963681 -0.038731534 -0.10649612 -0.075315446 -0.27748805 -0.029211184 0.10182371 -0.25972944 -0.15602207 -0.037533324 -0.33462846 0.28125605 -0.02034988 0.16340785 -0.18903677 0.15364793 -0.259683 -0.095263846 -0.22039387 0.031984843 -0.35885578 -0.121471256 -0.14697503 -0.09947612 -0.0472063 0.10323143 -0.21570456
o -0.11429675 0.29898602 -0.2578763 -0.17909347 0.28026798 -0.0226464 0.082560934 0.18369515 -0.19711965 -0.041374747 -0.18426126 0.2056337 -0.35095406 0.38839397 -0.38332382 0.07041489 -0.24093758 -0.40333998 -0.2910986 -0.093752936 -0.029852547 -0.027655445 0.08490035 -0.014855897 -0.4269452 -0.0050885836 0.18082307 -0.070645906 -0.35308754 -0.3072227 0.0057773166 -0.39111573 -0.18007049 -0.054463316 -0.3899467 -0.11106959 -0.0035474855 0.29691216 0.056311153 -0.19975834 -0.67517877 -0.06752093 0.05109076 0.1206465 0.51689416 -0.41320917 0.39664382 -0.39669678 0.37664673 0.23285879 -0.06883939 -0.0434408 0.07084317 0.2496582 -0.08195254 -0.17819268 -0.09809719 -0.031749945 0.14174604 -0.24179332 0.3164277 0.15898411 0.26518518 0.07485658 0.13326652 -0.12391675 -0.55576956 0.16830038 0.4024398 0.5291191 -0.105583176 -0.01591539 -0.038362775 -0.3659014 0.26692387 0.12789598 0.10857194 -0.2567949 0.09820196 0.21347956 -0.17610371 0.11992126 -0.058095384 -0.13525388 0.095009744 -0.01930231 -0.013148655 -0.25813097 -0.20995584 0.012622726 -0.14421459 0.16423972 0.10643462 -0.049827423 0.23139203 0.1280105 -0.030825812 -0.16684651 -0.391324 0.5377744 -0.110941194 0.15891725 -0.19099125 -0.056310214 0.1483333 -0.11622628 -0.061791766 -0.08617668 0.18445005 -0.1183334 -0.11449279 -0.24980018 -0.08093557 -0.29589015 0.022026122 -0.17996295 -0.25214896 -0.0142629035 -0.05828118 0.020002905 0.21755846 -0.10643155 0.06439636 0.14056553 0.18202975 -0.023580445 0.002942176 -0.11102868 0.050926518 -0.031384002 0.011855917 -0.21583664 0.20122018 -0.07785449 -0.12507468 -0.12181245 -0.08839031 -0.148936 0.10661538 -0.043548398 -0.15801606 -0.18152331 0.5416238 0.035905264 -0.21547374 0.009197255 -0.2687897 0.14440013 0.074489065 0.3894471 0.34943467 0.115940645 -0.12376372 -0.53223014 0.37068847 0.02016496 -0.063635975 -0.10892293 -0.14514571 -0.21657604 0.017789397 0.1294538 0.11111444 -0.04177143 0.058576394 0.2240804 0.031713266 -0.20430852 0.42877722 -0.024764413 0.0051458045 0.03626059 0.34644067 -0.044073187 0.15208216 0.1250673 -0.018217493 0.11250384 0.014927241 -0.15919465 0.043891955 -0.03451542 -0.25637606 -0.20233624 -0.11215286 -0.2584435 -0.09616914 0.18262321 -0.22842981 0.070958585 -0.15801533 0.18792886 0.06757276 -0.054443557 0.23434211 0.008909727 0.20066744 -0.0844226 0.04691129 0.05222526 0.037654586 0.22924611 0.15820496 -0.04098629 0.17387047 -0.08650596 0.018771844 0.24186385 -0.05600774 0.13471615 -0.2810193 -0.18916397 0.20804122 0.41601178 -0.19235742 0.20307025 0.2414554 -0.258815 0.09206534 8.44528e-05 -0.048163097 -0.23690869 -0.028624894 0.07189209 -0.037658274 -0.06852232 0.2691639 -0.13872439 -0.14622812 0.007946393 0.43973738 -0.052962657 -0.023956016 0.081615545 -0.16660006 0.33061233 0.61005396 -0.03314051 -0.1490918 -0.15600507 -0.020213036 -0.241875 0.12198661 -0.18316337 0.060229555 -0.09696495 -0.05368077 0.25579873 -0.024276322 0.012591764 0.119424306 -0.17215124 0.009410782 -0.0026468202 -0.17999701 0.31086832 -0.074289754 0.16548496 -0.36720565 -0.24823898 0.3524651 -0.039639555 -0.013998109 0.28053746 0.23394258 0.13084918 0.13849938 0.0054974025 0.23638555 -0.21471752 -0.14449528 -0.21785012 -0.14935674 0.23408057 -0.41859424 0.13621978 -0.2249546 -0.13622937 -0.04119077 0.458227 -0.16192083 -0.73608136 0.38922393 -0.015591728 0.3751389 -0.13654485 -0.018237669 -0.5004655 0.08268019 0.23278777 0.041486178 -0.44326615 0.1481972 -0.20095259 -0.09047315 -0.114731774 -0.26295868 -0.16922638 -0.32503894 0.05976169
é -0.3265911 -0.18714368 -0.041806202 0.08809052 0.27642497 0.14516012 0.41653574 -0.1701076 0.16128027 -0.052173033 0.10004774 -0.18129842 -0.009219 0.028817248 0.1248195 -0.083361186 0.222891 -0.02717515 0.058765437 -0.08594222 0.0033575012 0.15399988 -0.22023699 0.14188905 0.02237869 0.116591565 0.27276918 -0.21235034 0.1383252 0.021973804 0.009390981 0.033656232 -0.044666324 -0.035953056 0.09404706 0.08832846 0.1783628 -0.06279681 0.03102674 -0.3311616 -0.23116365 -0.12832063 0.18396036 -0.077932775 0.27595365 0.0032062142 0.35002795 -0.11755524 0.40363103 -0.47857004 -0.1770155 -0.102662265 0.37601337 0.3275353 -0.15508641 0.06741972 -0.1883444 -0.20238012 -0.016200086 -0.052774105 -0.3629758 0.34986037 0.06369389 0.25091785 -0.026877934 -0.084053785 -0.24802299 0.20791948 0.05321488 -0.042610917 0.06753481 -0.15049697 0.19535212 -0.078187115 0.01033999 0.22576667 0.16321263 -0.0036301962 0.4212295 -0.030965451 -0.038214397 -0.19974014 -0.029771687 0.13374576 -0.00386212 -0.1463021 -0.11906146 -0.5546966 0.11325911 -0.16929005 -0.3098747 0.027295273 -0.028363353 0.12324176 -0.24577042 0.18640722 0.25076875 -0.018779816 -0.038053323 0.021537771 -0.18693772 -0.20283966 -0.0937958 0.23386227 -0.14632635 0.122975975 0.2316326 -0.16271123 0.11114792 0.09008925 0.1456248 0.10031895 0.106725544 -0.26158303 -0.018936565 0.39640892 -0.04409639 -0.12572642 -0.1505708 -0.12961233 0.29588303 -0.033597548 -0.1608953 -0.2323601 0.15209492 0.20843446 -0.14121507 -0.16776101 0.02011476 -0.17316529 0.095514685 0.25618884 -0.13633128 -0.019211521 0.2483728 -0.0070155435 -0.18731225 -0.095670834 -0.25008953 -0.046805743 -0.21451733 -0.09717684 0.027896019 0.025178058 -0.13285372 -0.030421104 -0.028697954 -0.21461545 0.187495 0.21047044 0.22561324 0.10763529 -0.09354674 0.30940932 -0.28280485 -0.08317252 0.026778502 -0.10193931 0.017874967 -0.33103523 -0.15497653 0.37942967 0.103412986 0.025651047 -0.20241839 -0.27314198 0.03694663 0.20259088 -0.1628891 -0.014919988 -0.13338079 0.18706699 0.22606395 -0.37535957 -0.026095903 0.16681476 0.09898756 0.0010303406 0.025825728 0.024505693 0.21428233 -0.30047265 0.40261596 0.28902346 -0.27628064 -0.25955698 -0.06817327 -0.26205808 0.51041746 0.062899545 -0.022531534 -0.0449403 -0.31088638 -0.041802682 0.11676253 -0.23664962 0.011041839 -0.024311716 0.13753796 -0.32368758 0.13605815 0.08322039 0.04441499 -0.23000596 0.23088345 -0.2993101 0.28933832 -0.0889445 -0.23037094 -0.31632107 0.09372605 -0.14619897 0.20987366 -0.090471804 0.03139349 -0.08621928 0.033895954 0.14515884 -0.082911685 0.060493145 0.06994115 0.16418123 -0.113890246 0.077434264 -0.13594325 -0.17906071 0.13384251 0.11639138 -0.04561655 0.13148315 -0.022548083 -0.20308068 -0.116291225 -0.103869535 -0.006725181 -0.07660223 0.18320836 -0.08559546 0.14196074 -0.037312213 -0.15373898 0.05151733 0.15336981 -0.012611923 0.057809677 -0.32859164 0.27162126 -0.05338244 0.025300182 0.4105693 0.19611269 0.2386495 0.30446965 0.08229596 -0.14976473 0.3042763 -0.025724836 0.08404681 -0.08123154 -0.2387357 -0.13293503 0.15751773 0.19209799 -0.014895796 0.10101091 0.2561906 0.08488748 -0.35789627 0.15813412 -0.22470528 -0.03526802 -0.2751041 -0.1313625 0.008622846 0.013320886 -0.17239948 -0.08856828 0.06697082 -0.15086938 0.26740217 -0.043141156 -0.015920436 -0.020147575 0.06396408 0.070659116 0.16106232 -0.017138876 0.076390736 -0.07600791 -0.19406958 -0.14880438 0.097697005 -0.1047617 -0.18865018 -0.06188251 -0.17107747 -0.3267533 -0.028691625 0.47463116 0.09139427
não 0.032064863 0.112156495 -0.08722523 -0.03680035 0.55449575 0.15030138 -0.18525249 0.24155635 -0.5177178 0.13622843 0.19026043 -0.055419832 0.13422084 0.026124455 0.005673542 -0.16365415 0.060096316 -0.24434328 0.05896433 -0.23139746 -0.030163217 -0.1364873 -0.13304736 0.019310072 -0.08622085 0.46224636 -0.030989558 -0.19397452 -0.13161379 -0.25114718 -0.22037403 -0.19728592 -0.3847818 -0.24638672 0.023938883 -0.049520943 -0.002198758 0.2164686 -0.18813854 -0.012517054 -0.42013094 -0.030277198 0.30267978 -0.18672928 0.15373741 0.10869639 0.2743097 -0.06460541 0.06462903 -0.17978825 0.269601 -0.07485712 0.20016406 0.28161892 -0.12398534 -0.06052531 -0.08920501 -0.06967322 0.19926216 -0.009837521 -0.019485837 0.17982122 0.10410484 0.09611533 -0.17837843 0.06104632 -0.42314854 -0.019422675 0.07890825 -0.111811005 0.2413949 0.098548695 0.30317745 -0.40354338 -0.12804852 0.09680478 0.07385426 0.21873213 0.0632517 0.28379962 0.15890032 0.113961205 -0.07127457 -0.14041278 0.08401263 0.04692654 0.11631531 -0.3658452 0.058905464 -0.4144991 -0.14376134 -0.17609431 -0.099111795 0.012775053 0.10472698 0.14123413 0.10290203 -0.068425655 -0.08089563 -0.033544 -0.0064761536 -0.1732414 -0.08717958 -0.043593507 -0.053905364 -0.08987971 0.3275469 -0.20051551 0.01677412 0.18146929 -0.15544927 -0.19854961 0.24758117 -0.28063932 -0.35874465 0.111179814 -0.0059344415 -0.16800281 0.031437803 -0.12745446 0.39067298 -0.09647986 -0.32888323 0.08317785 0.13893785 0.00029785375 -0.16850299 0.020263495 0.26756787 -0.108002596 0.21343958 0.15047367 0.13110347 0.040225856 -0.02025806 -0.12191918 0.2297738 0.21728635 -0.047508214 -0.012592669 -0.15474892 -0.058618333 0.33332214 0.16587849 0.0065487893 -0.02715772 -0.38585025 0.1439305 0.004785334 0.11667042 0.27614307 0.1233401 -0.14548808 -0.11633279 0.10932171 -0.1783764 -0.15790188 -0.10758843 -0.113420345 -0.044068966 0.13196376 0.41327804 0.13475218 0.27377665 -0.18786511 0.1563971 0.031850833 0.033706594 0.15852855 -0.34025222 -0.29149646 0.027847918 0.36811695 0.12942237 0.14383322 -0.061706174 0.06872497 0.21607956 0.16939366 0.11335521 -0.23211104 -0.07475855 -0.10714258 0.034027234 0.060194664 -0.2854114 -0.25708026 -0.055416282 -0.035200376 -0.14445797 -0.12852396 -0.106993996 -0.03524628 -0.5055548 0.3170124 -0.1983983 0.026943348 -0.11828157 0.065075174 0.07658605 -0.059721757 0.020359036 0.22609499 -0.02629469 0.18509516 0.03055563 0.53206235 0.29007593 0.09076504 0.067264326 -0.4458882 0.10068708 0.29121006 0.15753643 0.14737429 -0.07268958 0.33505648 0.08673226 -0.05133605 0.036810167 -0.10842994 0.0012818004 -0.24224299 0.07658987 -0.032343023 0.2593764 0.24436305 0.32927004 -0.19281542 -0.152889 0.45383826 -0.30104238 -0.07109087 0.106662445 0.083590485 0.22135934 0.18563509 0.12084256 -0.2295061 -0.13599162 -0.31186116 0.18728486 0.13122955 -0.12753317 -0.14332734 -0.25296283 0.30852476 0.100244 0.09081268 0.05405522 -0.07853898 0.07804093 0.23842137 0.13310729 -0.2267758 0.30407557 -0.09134178 0.19123764 -0.12740146 -0.31140438 0.102164835 -0.020034123 0.3054316 0.2277621 0.28329495 -0.041548856 0.04714805 0.030829258 0.323226 -0.15612772 -0.071451254 -0.09623733 -0.040547524 0.21706223 -0.13058966 -0.020850934 -0.2320054 -0.06373915 0.2530653 0.28767103 0.063451014 -0.051404886 -0.1594076 -0.1434384 0.18001355 0.34874052 0.2542972 -0.21884114 -0.05653149 -0.1658326 -0.014567364 -0.5817413 0.118542805 -0.30646735 0.11884684 -0.29337293 -0.33629316 0.07652294 0.12706466 -0.29727575
da -0.031534847 0.28142223 -0.03980346 -0.073609464 -0.22967964 -0.1584241 -0.0773275 0.04313135 0.21801716 -0.19082388 -0.108156264 -0.22762169 0.07645232 0.41174245 -0.2924812 0.56529695 -0.18272927 -0.44246516 -0.4367409 0.046595737 0.08349995 0.27754116 -0.33358747 -0.48780972 -0.37958154 0.5290777 -0.23094562 -0.13778913 0.12463902 -0.21050057 0.43125936 0.18978843 0.054851316 -0.024844533 -0.15315312 0.12639953 0.2574045 -0.11623268 0.38273638 -0.029775104 -0.13214393 0.15191023 -0.21315895 0.15781868 0.51331884 -0.44395122 0.17201847 -0.23421606 0.30087057 0.04153012 -0.16989706 0.1317229 0.31542474 0.06428514 0.03545816 0.039831385 0.174661 0.3226775 0.27474922 -0.13496347 -0.09428298 0.38622904 0.25199908 -0.021291515 -0.077484824 0.18214601 -0.13032117 0.020407666 -0.039893374 0.08327706 -0.5997636 -0.18264104 -0.054092396 -0.41886127 -0.016542304 0.18208338 -0.30062145 0.078433126 0.5895087 -0.20255862 -0.51159346 -0.28124946 0.187934 -0.33972368 0.05445126 -0.23475944 -0.19035743 0.20461933 0.21949033 0.3069918 0.4072311 -0.30751437 0.17092465 0.08782661 -0.15909712 -0.37491065 -0.037966233 0.046221394 0.09957694 -0.055176802 -0.2862116 -0.28767315 -0.3696854 0.0690459 -0.033228192 0.1716073 0.059996616 -0.26419666 0.4763468 -0.3120053 -0.24156699 0.07429764 -0.40811798 -0.34190175 -0.072747305 -0.187602 -0.03068642 0.13628617 0.14999071 0.12893754 -0.16586971 0.3822964 -0.5455222 -0.016923044 0.106566474 0.28184417 -0.29681727 -0.04569652 -0.13241677 -0.1804237 -0.50659037 0.12540501 -0.13151255 0.06894891 0.10006635 0.01673297 -0.27261138 -0.13873696 -0.26070395 -0.47078812 -0.019458987 -0.16220306 -0.2725442 -0.21260944 -0.45993736 -0.25802973 -0.3865397 -0.048055567 -0.19373499 0.2668962 -0.31201002 0.35334912 -0.11206734 0.27207097 -0.09344146 0.048751242 -0.08073093 -0.022558551 0.35715327 0.25556955 0.3210009 -0.23464257 0.52194625 -0.053509533 0.019215358 -0.08844842 -0.40654817 0.11177583 -0.07530323 0.2102476 0.052437037 -0.033267286 -0.016241655 -0.29997584 0.28490287 0.11740775 0.036698926 0.22902825 -0.046500236 0.19321613 0.04382823 -0.10442215 0.16352478 0.49084917 -0.078626305 -0.06724537 0.22779462 0.021963898 0.09949602 -0.2864393 -0.013103259 0.28920665 -0.053998467 0.3085588 0.03062728 -0.15138046 0.10055753 0.21356584 -0.25285333 -0.26544696 -0.079321966 0.12684825 -0.003505282 0.12865399 -0.29249153 0.09653586 -0.03415475 -0.08399893 -0.0429185 0.044734348 0.3657443 0.34241393 0.071274266 0.071390495 0.09199253 0.36769146 -0.055022124 -0.021638026 0.13078246 -0.038851213 -0.26242056 0.18199179 0.3183326 0.7084041 0.37435013 -0.072199486 0.1457519 0.3426179 -0.010384737 0.25868317 0.4696381 0.28742033 0.12835594 -0.04075949 0.37322733 -0.37337923 0.0733885 -0.20631851 -0.38974798 0.037505064 -0.34272605 -0.19717604 -0.077497005 -0.3479453 0.5019146 -0.2106978 0.37469506 -0.35725263 -0.06362152 -0.2592158 -0.08531261 -0.12870724 -0.15066563 0.102387376 0.037346326 0.37212765 -0.15821733 -0.1308672 -0.043689013 -0.21285933 0.32847387 0.03225461 0.10484878 0.34712288 0.10296111 -0.012290143 -0.3254337 0.14427511 0.036443442 0.10299063 -0.2838015 -0.4853966 0.049850322 -0.31491393 -0.21094091 0.015435216 -0.23794705 -0.080286175 -0.29509884 0.22359283 -0.36932895 0.0050442643 -0.19919905 0.024329258 0.2239351 0.34407377 -0.04663821 -0.44200537 0.023985965 -0.22325748 0.037625346 -0.103023626 0.0075892946 0.31279624 -0.41052273 0.05930467 0.046749804 -0.29823658 -0.27014613 0.17449117
com -0.30478767 -0.029204922 -0.33701822 0.12883829 0.07726609 -0.15477966 0.41934314 0.18128449 -0.18735161 -0.22860073 0.039574604 -0.017927395 0.11873024 0.23334098 -0.14343369 0.36698803 -0.21495378 -0.27011126 -0.33485928 -0.19629656 -0.27726468 -0.032376863 -0.35199392 -0.016335925 -0.36669052 0.21710679 -0.0064125434 0.17323166 0.18568431 -0.12562427 0.044892285 0.0065981015 0.048952635 0.098979175 -0.43358144 -0.1546854 0.48040223 0.23176001 -0.18308958 0.010182903 -0.05982207 0.1538813 -0.2261875 -0.10590494 0.22870821 -0.20662233 0.14497574 -0.137246 0.49081415 -0.15372775 -0.07187192 -0.18275565 -0.09407266 0.08160225 -0.35643604 -0.04078062 0.028654104 -0.0010805967 0.127161 -0.14547624 -0.2604238 0.21141559 -0.1436202 -0.00073047925 0.10827044 -0.017818596 -0.1956817 -0.25576594 0.18860485 0.08997117 -0.13394397 -0.15255517 0.09166799 -0.16953243 -0.051705442 0.19053684 0.092901655 0.16786341 0.3015506 0.10132722 -0.1113907 0.11846924 -0.098518774 -0.26560804 -0.16943964 0.11236455 0.32904482 -0.3079013 0.21996638 0.08844826 -0.060082924 0.12351711 0.11635081 -0.07205084 -0.1485405 0.10245571 0.32271942 0.1901131 0.012794757 0.061043072 -0.071532965 0.20020434 -0.40900046 -0.09742991 -0.17279755 0.07631762 0.066683985 -0.13240583 0.46726364 0.2155843 0.31178755 0.20989752 -0.037463848 -0.033170786 0.22783148 -0.1481857 -0.27814004 -0.20088367 0.39413851 0.21254648 0.0053117336 0.010408629 -0.30970904 -0.12097344 0.18457173 0.08432598 -0.17817992 0.14135443 0.0843786 -0.17713732 -0.14524291 0.14949411 0.10330784 0.15889157 -0.27259907 -0.11517222 -0.065076575 -0.063037746 -0.045519978 0.201106 -0.2017179 -0.15444148 -0.08625273 -0.07131371 0.20400852 -0.116900854 -0.10330534 0.07822663 -0.030212931 0.10280476 0.074649334 0.12198955 -0.2970977 -0.34586927 0.12725623 0.2530227 -0.38771588 -0.121683665 -0.17220254 -0.118244156 0.11100411 -0.034024104 -0.059620198 -0.34179673 -0.108901575 0.09026604 0.14981581 -0.036515746 -0.0004682371 0.030122597 -0.11307342 -0.12149555 0.27265993 -0.21779165 0.29823518 0.010338077 -0.22397697 0.06632185 0.012915499 0.11303489 0.279492 -0.3535995 0.2352659 0.22043175 0.19379218 0.08777376 0.03717179 0.14389534 -0.019083606 0.05825608 0.1092744 0.023815291 0.02379916 -0.016423678 0.3227269 -0.100334615 0.19124147 0.036430772 0.072396696 0.034797832 0.06705433 0.033351593 0.0056964993 -0.10865818 0.18956642 0.045732915 -0.09261926 0.002953195 0.36102363 -0.009269462 0.031091323 -0.16324219 0.04138797 0.038525525 0.12477986 0.051745698 0.18881209 0.12733749 -0.014490457 0.15487312 0.108700246 0.15236518 -0.18836237 0.26935935 0.010722427 0.16101512 -0.001662371 -0.27530912 0.10991734 -0.12949795 0.29417983 0.078499995 0.15181434 -0.076424964 -0.16555731 -0.099796996 0.3580959 -0.2101773 0.07511137 -0.020639377 -0.102635816 0.21663457 0.29559985 0.055020947 0.14266707 -0.3344009 0.36362687 0.113274604 0.036624372 0.009614929 -0.08953441 0.06875374 -0.1928862 -0.057245668 0.090311565 0.36820316 -0.1392801 0.25161326 -0.05992934 -0.02798143 0.3383472 -0.22682095 0.07331284 0.16370343 -0.02825878 0.20918542 -0.090115644 -0.14190221 -0.04858995 0.1576697 -0.04441512 0.01420541 -0.28623918 -0.1900997 0.084086694 0.23077916 -0.37926814 0.17340484 0.36419374 0.20140179 0.06784786 -0.288961 -0.06571842 -0.47418028 0.24955572 -0.029685427 0.39645168 -0.100753166 0.48503685 -0.21323326 0.04806701 0.03115559 0.01613744 -0.4486849 -0.12897946 -0.06974845 0.096093126 -0.238077 -0.23570603 0.19872464
ela -0.16041669 0.11102352 -0.033754107 -0.15100308 0.6016103 -0.0020347117 -0.27538973 0.11829286 -0.37173095 -0.011572822 -0.02524609 -0.0431624 -0.13431427 0.033337142 -0.07319027 -0.25169414 -0.049722012 -0.3574068 -0.07469561 -0.24904355 -0.10489517 -0.32367396 -0.07152051 0.13789243 -0.028553631 0.30447325 0.061969303 -0.072004735 -0.34319344 -0.15020333 -0.09897702 -0.33709264 -0.33023274 -0.27091098 -0.070654176 -0.1958244 0.1295141 0.2663617 -0.17694503 -0.1456324 -0.39858505 -0.18752885 0.20880318 0.015217337 0.28286618 -0.079756126 0.18678084 -0.16631494 0.020769404 -0.095844194 0.09462534 -0.12019356 0.1711586 0.3456055 -0.11251128 -0.047823247 -0.31443268 -0.07539258 0.20672837 0.16029023 0.06768703 0.09283183 0.044963356 -0.1505841 0.014544037 -0.037102263 -0.43207264 0.01910988 0.094606996 -0.082914665 0.25147322 0.15754576 0.37643126 -0.37007517 -0.01835363 0.2568622 -0.15021755 0.09727602 -0.17869323 0.19553787 0.1816912 0.20960237 -0.09032495 -0.19936883 0.13345687 0.16595438 -0.06673084 -0.43788752 0.13109683 -0.34484193 -0.31164208 -0.15494359 0.0057057515 0.029206142 0.28886828 0.31096363 -0.049571443 0.11320302 -0.09699683 0.24330035 -0.052070756 -0.16914795 -0.15741938 0.05178571 -0.0039216406 0.01839856 0.1429674 -0.12621936 -0.10571167 0.117914796 -0.201926 -0.3456345 0.06417477 -0.4560531 -0.023191016 0.068691395 0.0678962 -0.41932267 0.041164786 0.1481898 0.3939857 0.16755243 -0.13827582 0.21652895 -0.036885772 0.18906194 -0.29018417 -0.05625825 0.14027478 0.07805762 0.118784525 -0.032209788 0.03302906 -0.02162117 0.12718268 -0.0977858 0.24893977 0.2290039 0.10659461 -0.00020968626 -0.20865998 -0.19112249 0.4012399 0.16729276 -0.074995324 -0.016626423 -0.32860172 -0.20716362 -0.10794999 0.29321283 0.34731802 0.10578353 -0.03341234 -0.35919297 0.16912694 -0.37185526 -0.12178028 -0.004413268 -0.15004091 -0.23159438 0.1501468 0.31736052 0.092776574 0.019146811 -0.2039483 0.12559891 0.19642588 0.22887447 0.09627851 -0.4011105 -0.38229632 -0.044202246 0.35962796 0.11546742 0.24844752 -0.14250118 0.0018873833 0.098454095 0.25233737 0.04369194 -0.34055248 0.05221994 -0.044735435 0.101996005 -0.078941174 -0.2594488 -0.24836205 0.07128687 -0.04589628 -0.21516873 -0.043489557 0.01960641 0.114098474 -0.27552548 0.12625685 -0.110807635 0.07429984 -0.19269137 0.048739802 0.22369751 0.065703295 0.01532085 0.15779588 0.119222865 0.2441756 0.10356529 0.3589101 0.184598 -0.036572937 0.09630192 -0.3824555 0.071404584 0.09590963 0.16984823 0.064004004 0.06621599 0.3131389 0.03265435 0.09196121 -0.16178931 -0.056844257 -0.1090976 -0.25064948 -0.055537738 -0.15199433 0.12399713 0.29804632 -0.06759117 -0.24822193 -0.14944378 0.32892355 -0.060561996 -0.11635784 0.12583518 -0.16479121 0.13585694 0.108912624 0.13255 -0.27869642 -0.24608502 -0.30913615 0.057886623 0.123344816 -0.28699917 -0.07605787 -0.23707205 0.2262784 0.22065996 0.050941866 -0.0933745 0.028139884 0.040407356 0.3544963 -0.17229757 -0.23273578 0.42542174 0.15464215 0.11851678 -0.1738557 -0.3804833 0.22163232 -0.22104152 -0.057225056 0.1560286 0.22836842 0.07766496 -0.025286473 0.30519632 0.36773327 -0.055740885 -0.21362871 0.04400258 -0.041697044 0.39318734 -0.17484392 0.04377653 -0.019267501 -0.19302091 0.10583602 0.47934198 0.015028876 -0.43386933 0.034091234 -0.1445428 0.31757528 0.10578489 0.11358628 -0.3491863 -0.12473878 -0.07981378 0.08776463 -0.60782355 0.17613582 -0.07519874 -0.00033828494 -0.14561138 -0.43897247 -0.11124901 1.7606159e-05 -0.2654165
você -0.52262014 -0.08476351 -0.20510727 -0.06010249 0.47890905 -0.06358504 0.048313156 -0.18922995 -0.25688428 0.09945494 -0.007957288 0.04510574 0.18633243 0.19265795 -0.06391518 0.003118945 0.04539789 -0.008819967 -0.23015805 -0.56596935 -0.08154621 -0.23894015 -0.12112687 0.06774703 -0.05105919 0.5336611 0.026674826 0.040342677 -0.15688229 0.16066748 0.12944753 -0.121948354 -0.08853227 -0.31420508 -0.11740102 -0.05613192 0.21009126 0.1079809 -0.36117533 -0.2103027 -0.15274927 -0.49614468 0.16641791 -0.23652579 0.2337858 -0.0037652 -0.12182102 -0.27871367 0.35491493 -0.15183887 0.14565961 -0.047739394 0.070126474 0.27544552 0.12287743 -0.035481196 -0.19331193 -0.22897731 0.07270976 0.02124362 0.14247915 0.44190365 0.109188035 -0.048872523 0.1042387 0.29251492 -0.04764874 0.017046688 0.086565614 0.021178631 -0.17937212 -0.019714043 0.0672238 -0.3157795 -0.232213 0.18570675 0.23953901 0.004515031 0.085966036 0.16766563 -0.024913566 -0.20035261 -0.0736772 -0.24019532 0.22756048 0.086348556 -0.018383127 -0.02578403 0.074656844 -0.12599485 -0.15968789 0.06572605 -0.101529054 0.14012532 -0.062086213 -0.043897595 0.16231088 0.34968916 -0.292831 -0.06391735 0.10905461 0.0315457 -0.07329477 0.113476925 -0.032880455 0.266906 -0.10422829 -0.25407854 0.1496669 0.4712891 -0.03881098 -0.30616263 0.08454369 -0.49328515 0.28279427 -0.048536874 0.11791813 -0.25555226 0.16986075 0.23359425 -0.00078579335 0.11414142 -0.24159135 0.007918441 0.025029015 0.09562774 -0.53042716 0.00516703 0.27751255 0.039932333 0.014069547 0.24833892 0.18868367 0.10311628 -0.14560835 0.032172848 -0.19065858 0.40389186 -0.012839029 0.10508236 -0.10504663 -0.4013268 0.09886681 -0.019232037 -0.025782106 0.043016523 -0.64993364 -0.1619884 -0.14465843 0.11159889 -0.06820383 0.25742242 -0.0030889246 -0.47083035 -0.18602327 -0.098238386 -0.554663 -0.18009157 -0.096304625 -0.4453638 0.20776744 0.14405793 0.23199365 -0.3856883 -0.2176121 -0.018177304 0.4347091 0.2564394 0.06629865 -0.13642015 -0.12350297 -0.09319794 0.10792761 -0.26478663 0.3320608 -0.13544153 0.28526658 0.49401122 0.21566328 0.35620525 -0.06378795 0.074682616 0.21215403 0.20288324 -0.021637294 -0.014395538 -0.057080053 0.0012803378 0.113920234 0.083822384 0.058271967 0.16159676 -0.2129445 -0.14832258 0.093821235 -0.2551181 0.12102732 0.0006545518 -0.13846539 0.45290625 0.1294404 -0.09754665 0.21487011 -0.36333743 0.31161174 -0.2840261 0.29870585 -0.35666344 0.10897805 -0.08063263 -0.18415946 -0.091909975 -0.23512128 0.13875493 0.23872939 0.06063446 0.39951882 0.22652635 -0.16408686 -0.09114031 0.08904183 0.16731694 -0.4376871 0.31373122 -0.17155679 -0.18668912 0.12322808 -0.09736326 -0.16403492 -0.05687901 0.29031813 0.23922107 -0.10950139 -0.12773225 -0.12250002 0.1880198 0.15162034 -0.08219696 -0.06804146 -0.007811295 -0.2076947 0.2259646 0.14702122 -0.3193081 -0.16560559 -0.33128637 0.1073969 0.048978247 -0.14934728 -0.18959267 0.07657685 0.37388578 -0.09085557 0.20595871 0.049075462 0.30127102 -0.29140377 0.1043364 -0.1211323 -0.4940234 0.5603898 -0.18583621 0.19012137 0.09597736 -0.10386989 0.1434065 -0.37937713 0.07723765 0.06498941 0.09265908 -0.12555416 0.3199562 -0.03143619 0.30266392 0.14833155 -0.09067843 -0.22367674 -0.03883229 0.3406134 0.67700386 0.071965374 -0.64616585 -0.16834396 -0.18102312 0.5894967 0.12446061 0.20038807 -0.23033781 0.26400042 -0.14661296 0.18932566 -0.36490083 0.010576658 -0.15694147 0.34740743 0.19229385 -0.06822717 -0.4939442 -0.16312559 0.11875387
uma -0.16631804 0.19804181 0.1299537 -0.006475732 0.19381589 0.021843923 0.11461715 -0.07993624 -0.025005165 -0.009134901 0.081208475 -0.07051725 0.19601387 -0.1968496 -0.10716018 0.44028774 0.08752458 -0.2944802 -0.018162651 -0.4609192 -0.15148327 0.28264663 -0.053414043 -0.096779086 -0.21924508 0.6751574 0.20990536 -0.23141482 0.3679224 -0.42670155 0.22407211 0.28656977 -0.18009485 -0.17619005 -0.055930745 0.07959496 0.060206786 -0.22797135 0.20930715 -0.05996415 -0.3946674 -0.18613625 0.24708892 0.15878762 0.22491454 -0.13048013 0.03572224 0.33328044 0.077634096 0.06790784 -0.1330802 0.45606458 0.4228445 -0.03150581 -0.13067825 0.074504964 -0.10463132 0.17862886 0.16354647 -0.23408145 -0.14383307 0.588061 -0.0041020173 0.20271686 0.018685501 0.07455799 -0.16372265 0.3072938 -0.067701936 -0.21333888 -0.08343927 -0.03906851 -0.04950404 -0.369973 0.009720642 0.11867652 0.22056405 0.13295397 0.15348528 -0.2110907 0.36731437 -0.6741008 0.06892434 0.02585981 0.22541499 -0.2605538 -0.1249043 -0.17735417 0.06898456 0.012963617 -0.1141595 0.08687036 -0.2908325 0.0030343428 0.113999136 -0.1014351 0.21699023 0.15248474 0.007289962 -0.10631101 0.17249918 -0.46803644 -0.13829893 -0.11081909 -0.3800248 0.36770353 0.2587973 -0.85543704 0.14111097 -0.14975026 0.0011925818 -0.23454791 -0.10145177 -0.31685355 -0.31382757 -0.0045281355 -0.09633684 -0.25013033 -0.07607122 0.22354162 0.024949076 0.34428424 -0.27273178 0.12837599 -0.01364933 0.22849752 -0.516891 0.2994057 0.29171705 -0.16023651 0.16981 0.051701125 0.37643117 -0.1989284 0.21313822 -0.11731711 -0.38527033 0.0033596412 -0.3156348 -0.01835063 0.14740041 -0.06397041 0.11035725 0.17318876 -0.15978867 -0.06576558 -0.4736777 -0.09115133 0.07688217 0.09525327 -0.08006351 -0.03793956 -0.40357932 0.39604113 -0.14194798 -0.1498053 0.03432174 -0.0101528475 0.12852222 -0.015615798 0.13890873 0.35627052 0.008286378 0.0058772317 0.07161144 -0.11275635 0.05819295 0.23572657 -0.014385777 0.06358565 -0.40948156 0.18994512 -0.2311219 -0.13321905 0.41920725 -0.025471289 -0.019652417 0.044587273 0.023491403 0.32127404 -0.059494697 0.04263676 -0.076440625 0.6448638 -0.10631895 0.014070124 -0.069276884 -0.15186907 -0.060461555 -0.16199028 0.28362033 0.30526188 -0.5116269 -0.06595308 -0.3028717 -0.33640146 0.066862136 0.11825471 -0.34353822 0.053380795 0.20355968 0.07024723 -0.11948554 0.0069535845 0.06205108 0.063434936 0.5017389 -0.40421048 -0.4551704 -0.34115607 0.022557996 -0.046071168 0.16978616 -0.2432741 0.014729548 0.2920622 0.016926017 0.25445437 0.32553706 -0.08421132 -0.324841 0.30824995 0.21870135 0.44158545 0.087931305 0.0550174 -0.101049624 0.66894996 -0.024930676 -0.25838718 0.24029532 -0.26958054 0.18331015 -0.13502584 -0.09712705 0.016461046 -0.09794495 0.20652644 -0.22702028 0.2301786 -0.17811878 0.25415653 0.20727915 -0.66828847 0.013104939 -0.34870976 0.37865224 -0.23807329 0.3015105 -0.020713545 0.28407344 0.3280727 0.12641065 0.20160314 -0.43747514 0.6775194 -0.105730444 0.26088604 -0.07709718 -0.30298597 0.020147104 0.082296155 -0.015167066 0.18137197 -0.008408825 0.023301126 -0.49484903 -0.20229277 -0.017747674 0.14326477 -0.29064804 0.037557095 0.05629537 -0.20782574 0.065683804 -0.3234934 -0.019354159 -0.06086441 -0.27294505 0.51764756 -0.17946617 -0.02522238 -0.2869019 -0.19181664 0.74710786 0.38576555 0.15431784 -0.08110581 -0.031426735 -0.255547 0.04996805 -0.25163838 -0.20884486 -0.26032862 0.09763961 0.09998638 0.2665668 -0.2679146 0.16288471 -0.16943659
pra -0.14115487 0.14639056 -0.0059146504 0.07583876 0.44567627 0.056896184 0.41667038 0.22365358 -0.07751472 -0.07071096 0.30370966 -0.26197755 0.065850414 0.05331772 -0.35464063 0.8094524 -0.077432916 -0.24710836 0.22178142 0.04603302 -0.111265294 0.35427612 -0.31981623 -0.25074962 -0.5839914 0.20367117 0.11295335 -0.16492411 0.28444868 -0.43490455 -0.05271513 0.3083239 -0.2929951 0.15951738 -0.29621774 0.14792065 0.35660306 -0.34545505 0.16568433 -0.123535305 -0.34643692 0.066145964 0.16897973 0.37875533 0.4748744 -0.0902452 0.25191078 0.089964256 0.26807073 0.073412776 -0.02120718 0.33072978 -0.03213897 0.1405682 -0.28445852 0.13019793 0.14484814 0.28220114 0.54670364 -0.036724865 -0.6607573 0.4789871 -0.09117477 0.15738437 -0.22917771 -0.28859138 -0.5117209 0.030122837 -0.03725443 -0.017280135 -0.23251271 -0.04424998 -0.16607678 -0.2714823 0.17522284 0.27535534 0.09418802 -0.08937105 0.025874639 -0.2540781 -0.2517513 -0.29968527 0.102440216 0.07054646 0.08450091 -0.40044734 -0.24415667 -0.16659321 0.29734352 0.3876188 -0.25050557 -0.09542748 0.07683069 0.22623643 -0.027236681 0.119149856 0.3095098 -0.13126655 -0.1286244 0.0070668743 0.049020782 -0.35535687 -0.061038226 -0.2442278 -0.15848978 0.21396752 0.17148645 -0.59216994 0.36770055 -0.26746443 -0.0055284123 -0.07686447 -0.04663021 -0.46174878 -0.1777326 -0.07576655 -0.43095362 0.08772962 0.32140705 0.5167068 0.2774312 0.3061447 -0.23439376 -0.009686937 0.23847668 0.17159632 -0.19042873 0.29385132 -0.30458078 -0.3069681 0.27694744 -0.21678255 0.2709276 -0.0799194 0.43643862 -0.035618193 -0.13519084 -0.049169492 0.095673256 -0.1734821 -0.21899031 0.017834134 0.21551508 0.2094429 -0.43387914 0.042979885 -0.06875225 -0.10152399 0.30928776 -0.083226115 0.16147332 -0.11424451 -0.5932994 0.2881907 0.33689764 0.039322592 0.002296314 -0.04529091 0.02935789 0.19632225 -0.08352264 0.3950855 0.018400382 0.23300664 -0.08825203 -0.049921915 -0.20175432 -0.16654608 -0.34970704 0.06058525 -0.486156 0.23962487 0.03340409 0.081382066 0.3341551 -0.013837101 0.051821027 -0.009824355 -0.1425614 0.15107922 -0.14287259 -0.023994453 -0.26596147 0.47959402 -0.0325238 -0.1476983 0.08682256 -0.114852905 0.077037215 -0.22374426 0.040772274 0.31784198 -0.2034028 0.016761443 -0.17492038 -0.20855191 -0.048207283 -0.05962465 -0.02413029 -0.31878552 0.18287995 0.20181146 -0.051820643 0.06151896 -0.09509667 0.11276079 0.37780625 0.052620146 -0.1922577 -0.12784049 -0.25390148 0.05877518 0.2874884 -0.06264646 -0.016555632 0.3482155 0.25782123 0.1899254 0.15802519 0.11293184 -0.19125493 0.28797343 0.140071 0.476364 0.07301696 0.44821677 -0.27037573 0.30941892 -0.07886339 0.0409814 0.181768 -0.2896065 0.26469338 -0.09183885 0.23453973 0.072772406 0.3564669 0.022791198 -0.26483023 0.32074013 -0.27764782 0.17812923 -0.10721081 -0.2859496 0.2941287 -0.15091817 0.12999871 0.08984189 0.09060855 0.09449467 0.12735087 0.09011198 -0.13008574 0.09056142 -0.19682622 0.5730745 -0.00356663 0.27688643 -0.073158644 0.03563474 0.1608111 -0.1237605 -0.13850647 0.28120613 -0.040356733 0.13020359 -0.15862402 -0.046538536 0.31267095 0.08816704 -0.11556083 -0.19651517 -0.23381494 -0.35078952 0.101886585 -0.15965506 -0.010868073 -0.08828808 -0.173813 0.19371033 -0.10247542 0.0043267985 0.009403105 -0.22698326 0.062168792 0.3393925 -0.013032554 -0.12676518 0.20474258 0.05586658 -0.017284196 -0.28545728 0.11189428 -0.5009239 -0.14844342 0.06328399 0.05376358 -0.008224603 0.0971149 -0.13024832
puta 0.4468685 0.6011755 -0.5226931 -0.23553605 -0.31932405 -0.289952 0.11301153 -0.22746126 0.46239117 0.39043814 -0.19917676 -0.31555483 -0.17294644 0.94819057 -0.30951852 0.115606375 -0.05810717 0.12615724 -0.64875287 0.10257696 0.37747768 0.18866435 -0.100230746 -0.6227489 -0.32436526 0.5637988 0.44501063 -0.4060011 -0.22611766 -0.19745593 0.21438554 -0.49994534 -0.4845459 -0.09288562 -0.1799977 0.080887884 0.4171247 -0.60929006 0.30129567 -0.1626185 0.1270524 -0.4034421 -0.9528527 0.47685024 0.30130818 -0.25458878 0.1880483 -0.19701403 -0.050658405 -0.09599364 -0.60195696 -0.40230024 0.5777675 -0.32022467 0.37582943 0.45701036 -0.12916861 0.041403733 0.2744975 0.18684296 -0.048652183 0.35409462 0.24179684 -0.21963036 0.26195002 0.26424024 0.046360347 0.0770687 -0.002582131 -0.088375606 -0.27281097 -0.10341352 0.30287838 -0.45828635 -0.03735703 0.20131327 -0.44173285 -0.05590585 0.023211153 -0.08088033 -0.54640865 -0.14661379 -0.0969783 -0.047235187 -0.056171745 -0.020969708 0.00196282 0.11205093 0.12525523 -0.37481162 -0.562651 -0.211497 -0.04020163 0.26724958 -0.6766871 -0.387337 -0.019928984 -0.15654135 -0.12969042 0.6392657 -0.22969209 0.045262862 -0.061155453 0.23649739 0.37278405 -0.4585124 0.18553236 -0.5470582 0.06534827 -0.17108111 -0.19401981 -0.032013506 -0.45934784 -0.6446537 -0.16986084 0.1649723 -0.14747411 0.101026475 0.23431876 0.46309045 -0.07567185 0.31117806 -0.07878644 -0.38550526 0.22715086 0.0017378065 -0.27802855 -0.4989744 -0.44675583 0.08490854 -0.49584165 0.031915843 -0.13006626 -0.03617177 0.645793 0.23019539 -0.23567627 -0.43176228 -0.8488698 -0.43996853 -0.38623068 -0.43069744 0.1260536 -0.31552973 0.118828855 -0.5316313 -0.5433526 -0.52947676 0.16282187 0.019424077 -0.04820398 0.54581064 0.08879444 0.27678967 -0.4112067 0.17731595 -0.35576308 -0.26899707 0.5615355 -0.42449227 0.14123319 -0.5195208 0.13484831 0.10994197 -0.03273743 -0.25260472 -0.48616013 0.15352231 0.24801382 -0.34308997 0.34261742 0.1717715 0.34923145 -0.14941996 -0.101808816 -0.086325236 0.40942666 0.33415565 -0.04373433 0.3794775 0.08986883 -0.07581007 0.53825754 0.312086 -0.09027749 -0.6117127 0.036952883 -0.5537426 0.013200564 -0.29642773 0.59368914 0.1720845 -0.43844867 0.092434436 -0.10839998 -0.12180516 0.15086415 0.09962452 -0.094360806 0.029120397 -0.22724858 0.23593122 0.32610735 -0.1533492 -0.38843074 -0.03728144 0.35235953 -0.5896949 -0.5179353 -0.041724395 -0.0028232276 0.6264978 0.6465549 0.355786 0.15610264 0.3987504 0.2468149 -0.22479175 0.11939756 0.032476373 0.4533622 0.5253309 0.015613282 -0.10220116 -0.1348214 -0.35149732 -0.5399773 -0.005041526 -0.2768577 0.62596476 -0.16387224 -0.31635252 0.32754797 -0.3707437 -0.19593923 -0.6756724 0.4737826 -0.007120989 -0.15102847 -0.11146192 -0.6669709 -0.33710316 -0.62080526 -0.042784203 -0.15965289 -0.48391867 0.19680013 0.25653696 0.20161712 -0.18729581 0.041097686 0.16099311 0.080156006 -0.5269205 -0.057687167 0.0345908 0.012048453 0.5298466 0.031883128 -0.39738148 0.334722 -0.50436664 0.15729901 0.056792863 0.3595195 -0.20157562 0.005728216 -0.06753315 0.31469226 -0.07761149 0.011452766 -0.33650532 -0.40962383 0.34814727 -0.5101094 0.3005901 0.09746232 -0.106021486 -0.32055733 0.3503349 -0.34195384 -0.15167022 0.050835896 0.028345644 0.5758602 0.2304003 -0.30361328 -0.6448437 -0.12772451 -0.015835766 -0.38398394 -0.24553722 -0.41751787 0.2965545 -0.19406939 0.043196566 -0.023796055 -0.012814402 -0.07370586 -0.34329703
do 0.112631805 0.16479057 -0.05188801 -0.13315667 0.26928067 -0.06602572 0.16798735 0.2681516 -0.43039823 -0.23593163 -0.21999656 0.28947398 -0.106299825 0.20700525 -0.08272634 0.22620007 -0.20262235 -0.46160084 -0.23685798 0.07363734 -0.08502777 0.48811346 0.03430544 -0.085181035 -0.457498 0.27183738 -0.015625259 -0.15233672 0.14837219 -0.59052986 0.20290795 0.0766012 -0.1449596 0.18856893 -0.23839773 0.21091531 -0.26970103 0.21074621 0.18433817 -0.18655251 -0.48424196 0.2296161 0.121496186 -0.3403875 0.61497283 -0.2380608 0.52697134 -0.052505855 0.5356395 -0.13103914 -0.049405772 0.12928545 0.17289722 0.14339338 -0.28202423 0.101761356 -0.10668905 0.052698053 0.0056964015 -0.33608636 0.12569119 0.304794 0.32395047 0.18485306 -0.017733093 0.12129132 -0.30052647 0.22540627 0.36747175 0.4679296 -0.3298734 -0.025149493 -0.08831396 -0.3006364 0.4585922 0.07215188 0.12920769 -0.07964724 0.3072415 0.16734204 -0.19963649 0.11520498 0.10302586 -0.35967302 -0.07868009 -0.24174178 0.06396352 -0.29779753 0.006601254 0.09267779 0.46852607 0.20781967 0.12976383 0.0040443754 0.009164213 -0.08151232 0.024154454 -0.052936375 0.050469417 0.12901814 -0.33189303 -0.16043676 -0.22161615 -0.06281138 -0.2330083 -0.19653547 0.35524192 -0.032116424 0.3677086 -0.1757322 0.101275474 -0.025036342 0.015659958 -0.03743614 -0.11564155 -0.19318667 -0.28308523 0.23166995 -0.18107441 -0.39676085 0.11862297 -0.19097333 -0.3094127 -0.073971316 0.12563132 0.13275225 0.21554329 0.0067844256 0.119777955 0.08802128 -0.24711637 0.15049076 -0.1205408 -0.18997678 -0.040202722 -0.07804259 -0.04660953 -0.0662035 -0.0061955526 -0.19866511 -0.15616506 0.06484146 0.23121904 -0.059883688 -0.19613011 0.041103203 0.030087238 0.31536597 0.35383695 0.5017199 0.48247856 0.3928427 -0.1351353 0.21564613 0.3291841 0.12343376 0.07801206 -0.13207664 -0.32879776 0.08792437 -0.1926748 0.31122437 0.24861151 0.047330316 -0.08351511 0.25384113 0.017015971 -0.1546715 0.38431352 0.2561567 0.19809598 0.076082215 0.16703276 -0.18841352 0.10911029 0.24985577 -0.20360251 -0.08950066 -0.069737576 -0.20948952 0.22550502 -0.16457194 -0.12067135 0.22913264 -0.17148899 0.012463587 -0.11336093 0.111595556 -0.07174089 -0.12493277 -0.23490159 0.116147876 -0.01022686 -0.076350994 0.258839 -0.4549347 0.17423597 0.13807751 0.098043054 -0.3027342 -0.16942225 0.19238092 0.17204154 0.05682756 -0.036300298 -0.083806075 0.025456747 0.33589205 -0.041185346 -0.10367171 -0.24208777 -0.44352275 0.08605431 0.09350353 -0.19914857 0.37217796 0.036155917 -0.091806635 0.032883223 0.15626803 -0.17458868 0.046730395 0.09825235 0.17623378 0.26343027 0.03907875 0.2645833 0.33708918 -0.07178648 -0.13450046 0.52769923 0.09017639 -0.13391592 0.19193222 0.1331835 0.063934155 0.4491464 -0.115474574 0.11260679 0.1608684 -0.035190582 -0.1453159 0.078730136 -0.22523017 0.24323893 0.06718248 0.3954686 0.087680586 -0.0029518376 0.003222596 -0.049353976 -0.42502522 -0.14292213 0.26753992 -0.03609829 0.4765668 -0.26129448 -0.038446017 -0.19894022 -0.016218415 -0.014146571 0.11036171 0.14862844 0.34548417 0.19700426 0.2809135 0.09050871 -0.024303563 0.09743823 -0.05715682 -0.22474407 -0.3554869 0.0054376363 -0.16171697 -0.4086751 0.16932198 -0.39939588 -0.07163651 -0.14674774 0.09570615 -0.014043151 -0.18612806 0.10100977 0.16574441 0.24053149 0.10504124 0.25396407 -0.15557526 0.11071248 -0.10590556 -0.139588 -0.20209444 -0.04564645 -0.16513143 -0.2643855 -0.2582257 -0.2462906 -0.14443545 -0.11692614 0.27790436
 -0.08000668 -0.02673997 -0.16424814 -0.083723456 -0.15462285 -0.13016711 0.25503322 -0.49250197 0.29033992 -0.26774806 -0.15856323 -0.14257748 -0.16550264 0.58597165 -0.06962132 0.19393502 0.03801919 0.22052345 -0.47774324 -0.09967825 -0.08084134 0.29728097 -0.13982566 -0.047738206 -0.22262007 0.26554605 0.07882264 0.03626489 0.092472374 0.30837753 0.39891165 0.01440254 0.25177392 -0.062412787 -0.33062991 -0.0672694 -0.058369316 -0.32750073 0.06194211 0.1229126 -0.12152099 -0.055679034 -0.07266342 -0.1776992 0.21832015 -0.2544278 -0.02955434 -0.34569514 0.3856611 0.29560417 -0.16771469 0.009575363 -0.13894166 -0.020773511 0.0740481 -0.13181284 0.17415021 -0.17592075 -0.15198158 -0.47957185 -0.0075142994 0.23252702 -0.058582578 -0.20561904 0.09792201 0.28527018 0.057099257 -0.050369557 0.31323028 0.3194118 -0.38532022 -0.18365955 -0.3200899 0.066866785 -0.19333744 -0.11753561 0.47718987 -0.3867286 0.86117107 0.09665647 -0.1468259 -0.17614463 0.05071484 -0.072264254 -0.047052845 -0.019215215 0.14599627 -0.07991725 -0.2994323 0.28834507 0.18419112 0.10852425 0.3673352 -0.13199961 -0.024595315 -0.26946843 0.0723139 0.322663 -0.11829103 0.14417714 -0.065442964 -0.0069586798 -0.044205572 0.17291458 -0.44594187 -0.015933754 0.058966976 -0.18728691 0.5257856 -0.0043633804 0.02813234 0.16854893 0.08854263 -0.136744 0.2883651 -0.233789 -0.1470486 0.06543726 0.122514695 -0.1114502 -0.1783109 0.10904556 -0.27768046 -0.1706191 0.047760475 0.0657247 0.018485334 -0.16792287 0.108768545 -0.022213703 -0.3761082 -0.15623128 0.17149518 -0.16213721 -0.20574227 -0.22335856 -0.42402276 0.006972182 -0.0783168 0.051894333 0.22374162 -0.21118616 -0.25665233 -0.28692317 -0.13818948 0.04852651 -0.25278237 -0.025584748 -0.23523663 -0.18884434 -0.034419157 0.29875237 0.01217135 -0.2324294 -0.043491326 -0.00069497654 -0.17231707 -0.40449384 0.34886912 -0.3563348 0.25467685 -0.108989134 0.38294446 -0.59606427 0.045569472 -0.3025297 0.20750937 -0.23191532 0.29251048 0.11925353 0.27283823 -0.111909345 -0.27673045 -0.29765207 0.10255367 0.40828362 0.33720127 -0.013832219 -0.4733996 0.016052347 0.19269954 0.116624825 0.13065726 -0.05861486 -0.21284807 0.07775095 0.153013 0.09715589 -0.040768284 0.107938856 0.031612955 0.21537168 -0.14011145 0.29037374 -0.27544022 -0.010094362 -0.36319068 0.021396529 0.22829728 0.32792205 -0.030052291 -0.056062713 0.03760624 -0.06816223 0.27500406 -0.1626829 0.05720018 -0.2972084 0.14846341 -0.08076705 0.081371985 0.19378442 0.14749184 0.088865496 0.18456115 0.23465721 0.20925854 -0.11913156 0.021872833 0.11950432 -0.18285258 0.31117123 -0.1591605 0.47479346 -0.22188152 -0.31241316 -0.061002925 0.07747846 -0.021193415 0.19121046 0.26741263 0.082878016 0.006938372 -0.22712347 0.26053703 -0.30184793 0.27430052 -0.25007755 -0.23466875 -0.113358535 -0.046731055 0.040066022 0.23219325 -0.023929445 0.2219761 -0.23100293 -0.22144252 -0.063696094 -0.14722079 0.26311705 0.0018922996 0.063495934 0.044348918 0.050929397 0.12721664 0.1716037 -0.523592 -0.021416634 0.04259841 0.13648821 0.20137157 0.12940364 -0.08249004 -0.07487407 -0.28291804 0.12573858 -0.5204535 -0.040085744 -0.44506976 0.26949337 -0.36890426 0.116181165 -0.1521789 -0.093719706 0.12754415 -0.09156438 -0.08879809 0.20279293 0.09923673 0.2744984 -0.09203903 -0.52403307 0.28174782 0.16801932 0.4426084 0.09869392 -0.06268744 0.012051176 0.26980552 -0.22433333 0.37870368 0.2095632 -0.024861248 -0.13515031 -0.014254963 0.32584584 0.3331293 -0.26210472 -0.34427834 0.44669476
gil -0.52554154 -0.2434399 -0.47271413 -0.037688255 0.5555438 0.042229358 -0.07408965 -0.027523462 -0.3581336 -0.44190902 -0.07370387 0.0064027533 -0.24832101 0.52749026 -0.30267918 0.30063176 -0.07127003 -0.50113016 -0.20843348 0.24360886 -0.12861773 -0.53278935 -0.16879974 0.047672298 -0.5899028 0.24559209 0.034120478 0.46812254 -0.12095726 0.7115985 -0.06916035 -0.3852473 -0.21536456 -0.4403127 -0.90763146 -0.30710885 0.32161775 0.28963283 -0.4846022 0.033874508 -0.47249222 -0.163198 -0.3424971 -0.3582039 0.6471028 -0.09906705 0.6439998 -0.7465685 0.7372448 0.16740039 2.47282e-05 -0.60972375 -0.40285364 0.6533716 -0.6132831 -0.08067595 0.17222315 0.1376974 0.0051005003 -0.38770965 0.30974135 0.061096992 -0.44152427 -0.4199806 -0.12662661 0.19970843 -0.57909507 -0.1870892 0.49873158 0.48378643 0.047472436 0.113278285 0.3181969 -0.66107017 -0.47994787 0.16786161 0.3810489 -0.022839522 0.79011035 0.5768984 -0.31965855 0.27847904 -0.4083363 -0.269851 -0.50802493 0.26505658 0.5179503 -0.95186853 -0.3739631 -0.4872974 -0.042183198 -0.104316436 0.3911765 -0.2382466 -0.051656563 0.2734557 -0.17457409 -0.088578865 0.052801065 0.6917516 -0.398569 0.07349251 -0.47714764 -0.25036895 0.008523293 -0.10599788 -0.027802741 -0.2673126 0.31772372 -0.13870144 -0.3194845 -0.016738659 0.813001 -0.16775198 0.30218416 0.013522709 -0.46214667 0.027274285 0.5216695 0.2047816 0.5798463 -0.023687946 0.07553802 -0.36716968 0.18391576 0.20297743 -0.011908692 0.0056758597 -0.1851916 -0.2393761 -0.32764632 -0.25416166 -0.01781896 0.13601337 -0.42834556 -0.23435326 -0.31737038 0.1985325 0.16124187 0.31804064 -0.28556353 -0.57069874 0.181321 -0.086757146 0.13702345 -0.06903147 -0.8078156 -0.0074427268 -0.41987866 0.03852892 0.274656 0.58044744 -0.26974595 -0.95766664 0.21994786 0.029542571 -0.4014892 -0.5196381 -0.073378965 -0.81303346 0.5658228 0.11655328 0.18751632 -0.6257157 -0.30145875 -0.18391335 0.20183215 0.06591896 0.35068864 -0.22803144 -0.27627692 -0.3480983 0.32704207 -0.6399977 0.5838517 0.2921479 0.27443963 0.06493023 -0.21529444 0.037102643 0.1432213 -0.34419557 -0.09711166 0.039416358 0.3855581 -0.18003851 -0.23586918 0.06325098 0.21351506 -0.037052333 -0.054014366 -0.1714689 -0.15609036 0.13129176 0.19878392 -0.11504097 -0.114080966 -0.0048786877 0.75271755 0.15180355 -0.26749662 -0.021493843 0.20983487 -0.16603644 0.49817437 -0.35465693 0.06763462 0.20186019 0.27648637 0.20481034 -0.360948 -0.050384033 0.17698942 0.15489255 0.011718285 0.23956527 0.7318856 0.20470424 -0.026571747 0.33080587 0.06400938 0.10652317 -0.48402286 0.31774074 -0.38991958 0.01701195 0.3737682 -0.535807 -0.32921904 -0.28872448 0.6531821 -0.09609057 -0.08817164 -0.032405503 0.024641974 -0.22046626 0.4465713 -0.4727211 -0.7765571 -0.3599449 -0.27717718 -0.09386159 0.33711433 0.3199837 0.0988995 -0.5581369 -0.15884435 0.12389662 -0.33120275 0.5432317 -0.26875675 0.22530957 0.3589888 -0.17413428 -0.13574643 0.884675 -0.20872855 0.5082464 -0.31275472 -0.12301105 0.4881149 0.004292772 0.12526588 0.05920224 -0.3500958 0.45113844 -0.5684732 0.0793468 0.04088131 0.08916675 -0.5111967 -0.07470661 -0.34399933 0.32689062 -0.2936973 -0.016392011 -0.43726832 -0.37465826 0.14154702 0.5137448 -0.02765833 -0.8726819 0.41203928 0.17210062 0.42867285 0.009456991 0.5351338 -0.1369482 0.08426058 -0.2760546 -0.1071579 -0.44010648 0.62459075 -0.35365176 -0.25898966 -0.12448036 -0.08704158 -0.0015509197 -0.30601698 0.4690841
se -0.023168001 0.12032984 -0.009980758 -0.14538234 0.59705913 0.10590402 -0.051065847 0.40362945 -0.49670777 -0.1320796 0.038294025 -0.011134223 0.11125748 0.01581097 -0.11079777 -0.051036336 0.11065488 -0.38728803 0.0808899 -0.08417353 0.06403609 0.13602927 -0.2515183 -0.06876811 -0.13482764 0.49284807 -0.011272891 0.06632278 0.17111923 -0.3391533 0.01174277 -0.06789513 -0.42975542 -0.18288076 -0.17060952 0.1376139 -0.19057631 0.051244643 0.09764227 -0.07839226 -0.5125382 -0.06756149 0.24337144 0.10851722 0.37107497 -0.11605453 0.29090595 0.060539212 0.16408591 -0.10407694 0.19205247 0.02122319 0.024002992 0.28345084 -0.25848407 0.02775381 -0.07462579 -0.0019371152 0.026663652 0.06147584 -0.1454211 0.20598651 -0.03183369 0.03542974 -0.27033252 0.10811552 -0.35515514 0.2270941 0.18693091 0.00588147 0.044891007 0.25296265 0.11373785 -0.46772674 -0.25701386 -0.033638645 0.17963234 0.22914429 0.32773355 0.0012724508 0.056640983 0.15122174 0.03496547 -0.19545335 0.03454652 -0.049276445 0.036733735 -0.33377534 0.02982963 -0.15986533 0.18762879 -0.19610702 -0.053206414 0.20852853 -0.01813213 -0.035164945 0.07380088 -0.02876334 -0.1533281 0.20895311 0.07222945 -0.5452847 -0.2523122 -0.1875367 -0.13179566 -0.054359548 0.25868282 -0.355433 0.12824854 -0.020142794 -0.30774248 -0.34109354 0.37954256 -0.36980268 -0.22169939 0.083563045 0.09856217 -0.095152155 0.07653061 -0.108874455 0.3979584 0.047518346 -0.21386935 0.24600725 -0.09549052 0.06470943 -0.28376442 0.2897021 -0.00026017707 -0.07064285 0.036895186 0.090761326 -0.11303146 -0.03991954 0.16969232 -0.044480655 0.1359644 0.20980938 -0.13300185 -0.15334219 -0.27637172 0.028618682 0.1824656 0.087561354 -0.15341535 0.06356138 -0.34602305 -0.20783617 0.18662705 0.27036214 0.34234342 0.26238984 -0.24505164 0.10601392 0.21194926 -0.16760813 0.0745411 -0.1410415 0.019309416 -0.11641772 0.064165436 0.49869603 0.25434268 0.20720993 -0.20597346 0.047449443 0.041998267 0.053956974 0.17042972 0.058668405 -0.3266608 -0.021173274 0.16557297 0.062889196 0.17740077 -0.011490845 0.050855197 0.07264489 0.059975937 -0.05706608 -0.1622702 -0.11841181 -0.060601253 0.21346033 0.12620924 -0.24781498 -0.2079457 -0.11137302 0.06287226 -0.23059799 -0.1321187 0.12657472 -0.087945834 -0.3768595 0.19057651 -0.23479052 -0.17033584 -0.19140637 -0.008565031 0.13806255 -0.15436259 0.137468 0.083604485 -0.053371638 0.14094605 0.14377363 0.47717106 0.29264194 -0.013936484 -0.0693334 -0.38808393 -0.1592155 -0.01867896 0.024957532 0.16635025 0.22485262 0.114000745 0.11033752 0.007434204 0.16418423 -0.1616836 0.042344615 -0.17774075 -0.05339506 0.043098174 0.13046032 0.08964714 0.4773723 -0.13469496 -0.29405272 0.37324774 0.02841073 -0.11503581 0.027037652 0.041073427 0.29130536 0.045794886 -0.012964051 -0.21294716 0.05788285 -0.45632082 0.020582505 0.041063167 -0.4180094 -0.013483114 -0.22528452 0.57001954 -0.0031852545 -0.09657717 0.15747453 0.018519636 0.18984331 0.12136386 0.20386517 -0.20402573 0.5098727 -0.017089894 0.23346092 -0.1895341 -0.36123613 0.18383273 -0.025299832 0.14879559 0.18417683 -0.057310104 0.051305328 -0.11882584 0.16012979 0.1539768 0.06524198 -0.21102647 -0.07009314 -0.05075562 0.017966542 -0.2737728 0.051135916 0.05055428 -0.11398609 -0.07355947 0.47357556 0.061426956 -0.001267934 0.017865283 0.19536552 0.36721393 0.43610695 0.36362362 0.06377519 0.007990773 -0.2082482 -0.0644352 -0.44210777 0.08348435 -0.14082898 -0.021873286 -0.20683491 -0.3826207 -0.06934881 0.004745946 0.0138210235
FACE 0.6174523 0.10347717 0.39859486 -0.0065306895 -0.40471214 -0.5159124 0.4678515 -0.14992492 0.3443549 0.19587445 -0.23318058 -0.08573985 -0.2549089 -0.27514386 0.9532888 -0.6352553 -0.0022545243 -0.34257293 -0.3953979 -0.11863396 0.18124163 0.32801783 0.075227834 0.15448427 -0.46228623 0.2597978 0.020364637 -0.52212083 0.1985339 -0.3670649 0.12611167 0.0665758 -0.27484292 0.13950823 -0.19622426 0.3190358 -0.55365837 0.16459528 0.078569174 -0.012082947 -0.39044648 0.30144557 0.25061187 -0.59257555 0.4713176 0.11616151 -0.20001741 -0.4352882 -0.22901584 -0.48361507 0.16930714 0.11321166 0.22639692 0.14858577 -0.41411814 -0.20898604 -0.10446365 -0.16993086 0.10815827 -0.689846 0.08206803 0.119857915 -0.36599952 0.42592323 -0.2163694 0.047526922 0.09530267 0.5497632 0.19763924 0.18803968 -0.2616228 -0.2888262 0.2901345 0.30895984 0.19041172 -0.18413274 0.26472387 -0.2785677 0.3470126 0.18064241 0.8395741 -0.0040886085 0.09524857 -0.2743355 -0.3848806 0.0056407396 0.40653226 -0.77524364 -0.051970243 -0.18706563 0.18065073 -0.06873896 -0.25305226 -0.009625791 -0.20364882 -0.09035647 0.37919894 -0.30513152 0.36493257 -0.38888836 -0.1678503 -0.4416985 -0.15785475 0.18934448 -0.13872257 -0.28289106 0.48946598 0.33535978 0.29085037 0.12374974 0.56631595 0.5521523 -0.3859882 0.1396712 0.35458037 -0.003395842 -0.32698584 0.40623122 -0.22446036 -0.30576345 0.43133602 -0.13943343 -0.1648907 -0.44842082 0.35963202 0.20528057 0.23420885 -0.24852033 0.4071804 -0.32052925 0.53834796 0.45272264 -0.14353892 0.114190415 -0.20204838 -0.36875057 0.13313173 -0.23987871 -0.19837129 -0.34288725 0.5222659 0.40045804 0.49232012 -0.3845296 0.1735441 0.034459125 -0.49393266 0.33019596 -0.019657426 0.06668606 0.5081518 -0.14364868 -0.27519584 0.77924794 -0.24826622 -0.056941986 0.115634836 0.27588162 -0.49721968 0.20875908 0.06587729 0.27115503 0.23045516 -0.42593879 0.3731743 -0.02023095 0.19605099 0.25947464 0.4607281 -0.7501396 0.18561669 -0.30407676 -0.093741424 -0.088559754 -0.13197108 -0.21653229 0.4852706 -0.4561715 -0.3641105 -0.41530636 0.25670505 -0.02979898 0.15463226 -0.10834757 -1.094234 -0.06911783 0.019275898 -0.38882628 -0.3258645 -0.13999785 0.44251472 -0.45159414 -0.3603236 -0.18704768 0.06349724 -0.68872005 -0.25908768 0.25669295 0.5191356 -0.4211516 0.4559341 -0.005713899 -0.23087074 -0.032804094 0.15762046 -0.19592649 0.4771748 0.044995785 -0.42121875 -0.33603925 0.114238836 0.08764144 0.33607313 0.40533054 -0.2319486 0.3614581 0.34618774 0.028762437 0.13101046 0.42962697 -0.058608405 0.40594944 -0.13269429 0.17509334 -0.3024073 0.49577725 0.2177176 0.20562987 -0.009048187 0.060591243 -0.4933378 0.1647984 0.1601967 0.51215935 0.34296674 -0.5020703 -0.2315461 0.6265348 0.29700154 0.01811817 0.33584195 0.26227874 0.54038 -0.119481675 -0.23827904 -0.2315918 0.010705403 -0.07024537 0.4214798 -0.09062463 -0.20430262 -0.14219445 0.5667891 -0.2800671 -0.16890849 -0.061017226 -0.33095807 -0.17117177 0.076743014 0.093572594 -0.45860517 0.5526113 0.09767138 -0.032455817 0.44164723 0.1302623 -0.38658383 -0.3811318 -0.24650083 -0.4740562 -0.46732503 -0.34680894 -0.23686016 0.57637185 0.13953626 -0.20943338 -0.14124206 0.37620732 -0.034838293 0.43347636 -0.04023568 -0.13366432 -0.41841727 0.08795007 0.21520747 0.048528094 -0.2981952 -0.2309675 -0.38215765 -0.359011 0.23291722 -0.09673205 -0.38915864 -0.07108796 -0.019509085 -0.11177703 -0.001949256 0.4487731 0.5891235 -0.37234014
eu 0.25598127 0.27790594 -0.20304582 0.18974672 0.14204898 0.04246346 0.14622289 -0.04267951 -0.2666882 0.46631712 0.39231342 -0.38581482 -0.09877252 0.4985487 -0.034343492 -0.283404 -0.107423246 -0.025635576 -0.3253217 -0.3018159 0.2777149 0.023487192 0.08238056 -0.026582278 -0.13845621 0.20190789 0.040884785 -0.18640876 -0.23582415 -0.44058105 -0.45538956 -0.1360217 -0.27193338 -0.21483482 0.018443653 -0.14686692 0.43196177 -0.012448054 -0.43958485 0.15704474 0.054332692 0.06527782 0.28639123 -0.19224083 0.07595495 0.40092298 -0.1585465 -0.0719276 0.098819695 -0.36187795 0.24560267 -0.17441632 0.15503609 0.17346515 0.059676573 0.10776286 -0.00039287598 0.022872953 0.41665313 0.055622634 -0.04062736 0.41906866 0.06332938 0.17512704 -0.21902652 -0.027407061 -0.10520296 -0.15578529 -0.08153496 -0.12959735 0.12610056 -0.122029305 0.12620218 -0.014653777 0.2698301 0.12988897 -0.08176841 0.042314358 -0.182747 -0.032063033 -0.2772439 -0.16022928 -0.07993142 -0.18793975 0.038749915 0.08907648 -0.14084506 -0.44920778 -0.044662952 -0.32288355 -0.48592252 -0.32238278 0.009939015 0.31487417 -0.30854285 -0.034730326 0.27459908 0.058019385 0.0577708 -0.10464153 0.13114974 -0.040642917 0.15417911 0.32822773 0.033249315 -0.16530424 0.25716874 0.21552704 0.12900332 0.15976301 0.3113837 0.27341747 -0.1845448 -0.3457853 0.009559341 0.093702964 -0.37173283 -0.020394305 0.6416351 -0.09185428 0.061082594 -0.108636014 -0.34917578 -0.20562927 0.35738423 -0.29667363 0.2299325 -0.3578348 0.13872674 -0.14499992 0.47473007 -0.14232461 0.017061802 0.07744498 0.1514064 0.09358514 0.4377771 -0.022411628 -0.2116166 0.18889669 -0.008725257 0.036829878 0.20214246 0.10447955 0.18041502 -0.18341327 -0.0657463 0.1964556 -0.12403063 -0.2571075 0.3825077 0.22950634 -0.131441 -0.22499754 0.25018644 -0.07656511 -0.49539745 -0.29702753 0.20332134 -0.256163 -0.023682743 0.24319406 0.2826771 0.2736268 -0.26130587 0.09498772 0.018366983 -0.09497749 0.0011569042 -0.646462 -0.11641149 0.22028966 0.13308255 0.15533571 0.025962444 0.11315699 0.3755115 0.09784288 -0.042668864 0.4163625 -0.071986325 -0.026318634 0.08425367 0.012310393 -0.14133947 -0.40298185 0.018479282 -0.25964403 -0.19051877 -0.2762872 0.21646222 -0.066265814 -0.11115431 -0.53140473 -0.0067796404 -0.16439837 -0.06484037 -0.014193841 0.22127976 0.092374526 0.009491564 0.27854952 0.193355 0.09792475 0.37865725 -0.11162643 0.56181943 -0.1415679 -0.14387171 0.06346851 -0.8897374 0.68947846 0.6142874 0.49958575 0.045255702 -0.18953623 0.5344401 0.28865352 0.041545473 0.0035674165 0.01657565 0.08609014 -0.13786998 0.097117946 -0.536204 0.18810984 -0.30289015 -0.059368763 -0.37354738 0.0305793 0.06952335 -0.58946073 0.25909048 -0.06442504 0.107237786 -0.3553344 0.51428473 0.361966 -0.24038586 -0.14842106 -0.25305033 0.4303501 0.09045162 0.18874605 -0.034295414 -0.30082762 0.03403603 0.64225686 -0.02913145 0.20988286 -0.07647723 0.014300457 -0.15875317 -0.12085211 -0.0037227743 0.09045102 -0.10182373 0.22393796 0.34307754 0.05725831 -0.06763599 -0.45091286 0.14262916 -0.10885884 0.3452444 -0.15640108 0.06261662 -0.12474522 0.27078703 0.065557815 0.37594536 -0.011906981 -0.24057055 -0.10162827 0.0044394853 0.037985668 -0.070501536 0.33144063 0.39708874 0.25532308 0.09731041 -0.25334254 0.20123938 -0.54258335 -0.21046941 0.027958576 -0.015926082 -0.59939855 0.09689184 0.031711392 -0.15097827 -0.49110508 -0.10776407 -0.4850775 0.08072349 -0.17787075 -0.14957993 0.28019089 -6.001696e-05 -0.16588083
essa -0.11735975 0.09508906 0.071737 -0.15598646 0.06322717 -0.25179902 0.030866198 -0.11560021 -0.016433917 -0.03291767 0.04775357 -0.12666379 -0.23714153 0.07423224 0.069638416 0.4235876 -0.161491 -0.20116268 -0.061588038 -0.03538458 -0.043070048 -0.011754316 -0.119805194 0.0074454006 -0.33092448 0.5803469 0.23360188 -0.27472448 -0.048729498 -0.29201937 0.111316875 0.36240533 -0.30649439 0.14074832 -0.31928968 0.049069893 -0.16454434 -0.2787922 0.29066193 -0.12095566 -0.1528944 0.07257296 -0.0183447 -0.14623475 0.45167223 -0.2670766 0.2386484 -0.1366915 0.10205468 0.01270068 0.029026197 0.21985158 0.11628708 0.16490677 0.06972216 0.3232125 -0.13931961 0.30679676 0.19558817 -0.12072125 0.24166116 0.37112528 -0.10812683 -0.03817343 0.011243279 -0.004404652 -0.2696446 -0.043500133 0.06753616 0.034487672 -0.1846511 -0.14492242 0.31359968 -0.33293083 -0.15617476 0.4171074 -0.2459688 -0.046759404 0.036370482 -0.030414635 0.11866068 -0.04614115 -0.072814114 -0.024824433 0.028735034 -0.3129632 -0.14490648 0.030314619 0.32640705 -0.1673687 0.06931379 0.00051834615 -0.08383776 0.028614072 0.13624643 -0.07698436 0.10588793 0.026363755 0.17687544 -0.10111619 -0.08637655 -0.11760413 -0.11462564 -0.022334006 -0.13448922 0.05298304 0.20677526 -0.21718606 0.24728283 -0.15206774 2.0313659e-05 -0.17177299 -0.23820807 -0.4873485 -0.08636089 -0.080888405 0.037241742 0.003651238 -0.050064474 0.55949557 0.14341709 0.42983648 -0.36578616 -0.13721976 0.13916184 0.34131873 0.002892915 0.16897966 -0.21034373 -0.04832979 -0.26614514 -0.08780271 0.17030627 -0.2233487 0.17728859 0.07460805 -0.36400568 -0.15433978 0.050666798 -0.20971611 -0.07227096 0.12100533 0.17322277 0.24685206 -0.024795355 0.009928961 -0.72700816 0.009015681 0.16859618 -0.012519047 0.04629067 0.033334974 -0.26453793 0.18138315 -0.035922643 -0.032293875 0.048499074 -0.2306194 -0.25087264 -0.07845625 0.08794932 0.20883518 0.3520471 -0.123798326 -0.16057391 -0.1129201 0.15419364 0.1364683 0.06827017 -0.124086276 -0.1610015 0.10085582 0.16657266 -0.18667457 0.22406067 0.20774293 0.1603815 0.040333837 -0.059658244 0.29319334 -0.060527947 0.086795375 -0.12606892 0.5621771 -0.2280026 -0.21626839 -0.028315775 0.019329514 0.33773583 -0.15537155 0.13039653 0.037165236 -0.057694133 0.021317314 -0.2131466 -0.12791821 0.11590385 0.0056783995 0.12312023 -0.1280035 0.042297006 0.11466471 0.06695275 0.027863381 -0.14888528 -0.1166985 0.27547538 -0.10734335 -0.3227414 -0.07912704 0.14301571 0.20442656 0.21501398 -0.21076965 -0.26119646 0.35918847 0.0915273 0.19080749 -0.061482552 0.28145054 -0.20779282 0.2751233 0.18051662 0.49726748 0.059981473 0.29175016 -0.06668545 0.1817087 -0.13736652 -0.27433693 0.05951438 -0.031409923 0.0072174743 -0.21344386 0.06434198 -0.23884937 -0.016092418 0.17181616 -0.16595742 -0.04610343 0.2493486 0.014563377 0.0677948 -0.07789291 0.07693304 0.090612374 0.034172297 0.03177885 0.055614736 -0.36268854 0.035061058 -0.09191468 0.35274214 0.12354872 -0.15800509 0.2911182 -0.014488893 0.025336653 -0.1227712 0.20125222 0.22461553 -0.023095028 0.3253041 0.39343873 0.44630516 0.045491308 -0.37051532 0.15624881 -0.14210415 -0.20103313 -0.36582696 -0.25010642 0.30955574 0.02329409 0.12681712 -0.1769346 -0.09332441 -0.2446556 -0.39133993 0.011699284 -0.3598856 -0.18217902 -0.40169588 0.10302239 0.26936528 0.20016082 0.0768107 -0.29696807 -0.015613817 0.021660907 0.13604443 -0.0989082 -0.09279388 0.091894016 0.107696705 0.031139074 -0.20621303 -0.017406257 0.42812815 -0.14862208
gostosa 0.21881165 -0.03743697 0.07589774 0.15051827 0.030136261 -0.26183122 0.17021663 -0.3732616 0.11353874 0.36378145 -0.2091196 -0.09549778 -0.15272795 0.07096152 0.50181216 -0.2502987 -0.04350507 0.339136 -0.22158383 -0.20957033 0.11066959 0.38527653 0.50018626 0.22361691 0.06208857 0.3576765 0.16773203 -0.3422491 -0.03208036 -0.102370396 0.19836116 -0.06293863 -0.024921488 -0.0042078067 0.12100983 0.13995397 -0.2502392 -0.17039104 -0.045144152 -0.2307358 -0.25292915 -0.27784535 0.07077443 -0.6821133 0.25142273 0.19745412 -0.1975455 0.19316655 0.13270001 -0.3595375 -0.10631333 0.18168151 0.2690361 0.07849304 0.15047093 0.4351092 -0.29618043 -0.1174482 -0.04138395 -0.15699226 0.26810288 0.4878968 0.059872646 0.118141025 0.25221547 0.3162843 0.34771842 0.25843528 0.25608638 -0.051418476 -0.07396764 0.016313232 0.118980445 0.068977 0.3622026 -0.041498654 0.24885163 -0.100326695 0.035418026 0.09479921 0.22716771 -0.19109887 0.056203548 -0.11458639 -0.10659277 0.03434592 0.07561532 -0.5030452 -0.11025837 -0.38655755 -0.2784856 0.111073054 -0.30335158 0.20254603 -0.39475042 -0.16779678 0.057167895 0.1254554 0.25879085 -0.08945302 0.10669003 -0.15258552 0.039936032 0.32331648 -0.081986226 -0.18157728 0.33679178 -0.09047589 0.039898563 0.15829062 0.23241496 0.14276858 -0.074326254 -0.22643478 0.20625293 0.21173526 -0.36191353 0.14034387 -0.121947326 -0.20001464 0.06090051 -0.058067102 -0.07481101 -0.3651594 0.18738645 0.20965578 0.08880692 -0.33115342 0.2538445 0.396448 0.08711817 0.42018646 -0.17544863 -0.042897858 0.3442851 0.09721349 -0.11080042 -0.051384877 -0.29058644 0.046534024 0.23978113 -0.04115687 0.1948612 -0.036410514 0.08648626 -0.07084699 -0.29993472 -0.15390852 0.034707084 0.09310985 0.1681074 0.1991928 0.029826384 0.5448137 -0.30208647 -0.1279496 -0.283283 -0.17208304 -0.08613934 -0.43332458 0.025315227 0.40174782 -0.002706005 -0.2390591 -0.05418488 -0.16801518 0.24584593 0.32204515 0.32540607 -0.27835068 0.23852767 0.19001353 -0.08328782 -0.33549124 -0.05949654 0.03534938 0.5547591 -0.17653139 -0.22995597 0.008598114 -0.044851653 0.24536878 0.31052667 0.13987206 -0.5295767 0.014576113 0.024037916 -0.5363728 0.04565846 0.015854865 0.3787308 -0.14727317 -0.4817513 -0.038711138 -0.22569816 -0.402999 -0.06391436 0.26682255 0.06724293 0.09146806 -0.051968697 0.12556496 0.07165427 -0.21222392 0.012232158 -0.3667632 0.42315403 -0.6923185 -0.6377044 -0.31446812 -0.26558244 0.1474947 0.31610987 0.20264599 0.13103136 0.39030573 0.32758746 0.33295202 0.0935155 0.2354161 0.17314887 0.35566357 0.06333127 -0.13787071 -0.43103743 -0.21129264 -0.27265024 0.30495146 -0.32366386 0.14926194 -0.38541213 -0.1672313 -0.087573335 -0.061766043 0.12041597 -0.39542693 -0.04515145 0.24078892 0.03546164 0.23343366 0.102391005 0.0528188 -0.027060207 -0.22315168 -0.22896628 -0.24426985 -0.10234315 0.25209728 0.15081671 0.17279436 -0.005770652 0.15755777 0.1282987 0.074043624 -0.0613318 0.033687178 -0.13896944 0.11382377 0.22230116 0.017371204 -0.2697373 0.053585418 -0.014118349 -0.18460135 0.06283281 0.24745344 -0.34084108 -0.12947717 -0.19491278 -0.17590377 -0.18711169 0.09585113 0.023090305 0.29356486 -0.025956634 -0.20192444 -0.06351815 0.21360718 -0.2148923 0.23760247 -0.060747094 -0.3396899 -0.20891066 -0.07054134 0.45673266 0.061323524 -0.14585079 -0.16401859 -0.29924315 -0.30345413 -0.08101418 -0.055764347 -0.419883 0.027937727 0.0379423 -0.15717487 0.19270192 0.16166408 0.4599223 0.018468272
burra -0.16754128 0.107320376 -0.10379268 0.028655386 0.4085642 0.12613308 -0.21763773 -0.31659764 -0.08057737 0.121736914 0.07450096 -0.010779981 -0.084161356 0.09864453 0.04503869 -0.2228047 0.1789543 0.22337279 0.20090434 -0.17662854 0.040262345 0.20197135 0.20502055 0.15915638 -0.0068812026 0.30136165 0.2883088 -0.35424837 0.058569204 0.18602185 -0.061936837 -0.35691753 -0.29212874 -0.28620324 0.13187847 -0.12259142 -0.25844234 -0.12213998 -0.0933687 -0.28926933 -0.24714161 -0.45059395 0.10960948 -0.2626646 0.2379844 0.040223394 0.48600417 -0.014629694 0.47325388 -0.55316496 -0.060512755 -0.1564699 0.6285972 0.2921563 0.026260674 0.19373205 -0.4877249 -0.3187461 -0.14375529 0.0024895857 0.22899763 0.4697175 0.32593247 0.03835934 0.15862186 0.16355981 -0.1174101 0.33621916 0.14869025 0.092747375 0.3232391 -0.020560427 0.21246082 -0.15136299 0.12560868 0.109130815 0.15545176 0.077513635 0.07023684 0.4638946 0.20975186 -0.2629598 -0.12358837 -0.12227993 -0.011926638 -0.02705567 -0.08354594 -0.64905804 -0.006203953 -0.6652794 -0.39772093 0.12226386 -0.08041317 0.090064324 -0.29914033 0.12809859 0.025882328 0.2138835 0.056538437 0.1737321 -0.14458832 -0.13573176 0.045553148 0.09463624 -0.21303953 -0.2377715 0.456857 -0.21971904 -0.13559154 0.073827416 0.038451124 -0.13889691 0.14989884 -0.40073982 -0.24512595 0.44994348 -0.12814894 -0.35333478 -0.09057197 -0.2732815 0.20951487 -0.028527811 0.06575938 -0.2682305 0.19026539 0.13145207 -0.13383389 -0.32743475 0.20889737 0.1550211 0.1241443 0.19589713 0.1020193 -0.14699383 0.21203773 0.078538924 -0.17426296 0.07939354 -0.43261757 0.22632024 -0.10949788 -0.3914331 0.2478832 0.12138313 0.23178177 0.19985113 -0.1775861 -0.14213377 0.15980288 0.3453586 0.33648586 0.26734215 0.08833151 0.17026438 -0.10452364 -0.3630411 -0.06796098 -0.3741847 0.046107545 -0.51608694 -0.09672198 0.6101664 0.009156237 -0.016087955 -0.29005334 -0.20864181 0.26621234 0.19088477 0.23927858 -0.2038077 -0.0073322384 0.26363853 0.22425514 -0.47604132 0.005792026 0.1850916 0.11921242 0.03910787 0.10561345 0.0782665 0.27509382 0.0895955 0.30419847 0.34925005 -0.3530319 -0.28927538 -0.24282715 -0.32109684 0.36953837 -0.06028539 -0.20881882 -0.06424263 -0.4047488 -0.26291832 -0.19758448 -0.31072292 0.13559702 -0.075285025 0.27728373 0.069924645 0.114946134 0.090286955 0.4497969 -0.21840781 0.23596613 -0.24003178 0.5155644 -0.40550494 -0.49968392 -0.1867725 -0.38690573 -0.032915995 0.47646797 -0.22381252 0.03825159 0.20205542 0.23297778 0.16914517 0.11997483 -0.11295915 0.27868456 0.20216675 -0.1722886 -0.19879757 -0.28726178 -0.23785476 -0.013149941 0.158253 -0.1666375 -0.115802266 -0.069280505 -0.38955215 -0.21840096 -0.06349645 -0.15355846 -0.067385845 0.23058118 -0.015720155 0.038391016 -0.083548404 -0.2994125 0.13306636 0.091108166 -0.1656511 -0.24706076 -0.26346824 0.12119026 0.37950715 0.38808158 0.3879197 0.21721129 0.33114406 0.6044899 0.16070373 -0.22251783 0.52502465 -0.037640143 0.24202265 -0.097235434 -0.38060004 -0.16234487 -0.022512168 0.0043420787 -0.124482475 0.09368652 0.3284408 -0.038192973 -0.2745341 0.18438417 -0.1720917 0.0718426 -0.15502411 -0.16875447 0.20480004 -0.008422877 -0.10019207 -0.062045086 -0.09700118 -0.0067350683 0.2305452 0.0896634 -0.4280972 0.16833578 0.16717616 0.5493346 0.14365003 0.104589134 0.041976456 -0.33498478 -0.0987712 -0.33116493 -0.26341245 -0.15722021 -0.2769233 -0.14735658 -0.19697201 -0.023956748 0.02003172 0.59449565 -0.008981448
no 0.21704972 0.1016686 0.2722689 0.0101635605 0.28044906 -0.006947795 -0.066940635 0.16795157 -0.40691486 -0.30013946 -0.33925387 0.035167724 0.025551038 -0.020135991 -0.104761094 -0.03571612 -0.36365485 -0.44430962 -0.2200505 0.38577265 0.010532586 0.25257093 -0.15948303 -0.20961638 -0.32079577 0.35157996 -0.109603725 0.18607713 -0.18407503 -0.60680526 -0.055253066 0.08883717 -0.21939854 0.049798578 -0.20263882 0.1605099 -0.48939586 -0.35694525 0.2641563 0.052325867 -0.5650015 0.16562556 -0.15294266 0.083711416 0.5550632 0.07959938 0.30535132 -0.10296937 0.19212495 0.078696676 0.14147946 0.15738074 0.008842203 0.03590734 -0.17698018 0.11050284 0.022499394 -0.007090749 0.21786407 0.040585663 -0.2000515 0.10054601 0.119383216 0.010721728 -0.14493872 0.13201967 -0.054684065 0.22714633 0.21050392 0.36913213 -0.59691536 0.09803195 -0.18710245 -0.25018793 0.5749714 0.09816026 -0.15286733 0.06088083 0.29866645 0.13679959 -0.25966343 0.39309832 0.19486713 -0.5970853 0.14626679 -0.023520127 0.17610139 -0.41472396 -0.012959793 0.15768537 0.4049037 -0.108079985 0.44759563 0.15815021 0.17379642 -0.0014817591 -0.24261223 0.12106045 -0.11877189 0.25765327 -0.29826078 -0.66137743 -0.3436248 -0.11036102 -0.34891227 -0.16376838 0.43321875 0.18582948 0.28368092 -0.18767196 0.08448569 -0.30522314 0.022037141 -0.31441358 -0.2612053 -0.16765682 -0.1781299 0.18475951 0.030396242 -0.030834636 0.28557524 -0.08001229 -0.29147476 0.083709456 -0.016060464 0.06442817 -0.1622366 0.04983953 0.06914126 0.097648434 -0.3713855 -0.026910229 -0.2812771 -0.039835602 0.4809556 -0.18961579 -0.048463803 0.1271512 0.15657201 -0.17549984 -0.053063933 0.05855743 0.37088695 -0.21408023 -0.17419498 -0.06992662 0.24246551 -0.28151932 0.1676417 0.42539153 0.5593936 0.41426358 -0.13897698 0.21849875 0.36645207 -0.23876345 0.18887137 -0.12981732 0.05632296 -0.12329239 -0.05082266 0.25827414 0.5354469 0.07551278 0.01747773 0.0044254814 0.25606078 -0.47115645 0.29998645 0.26858544 0.07099878 -0.20972793 0.17479473 -0.099488094 0.4186257 -0.034763824 0.041345805 -0.002893392 0.006333324 -0.19785404 -0.07358635 0.08181369 -0.019180207 0.21352877 -0.2876372 0.010994424 0.1277908 -0.032179423 -0.25062352 -0.49673897 -0.14518422 0.043129485 0.4627823 0.017622743 0.06418204 -0.2209535 -0.17244835 0.11756184 0.31906298 0.022214428 -0.1773707 0.078789376 0.16192134 0.27199963 0.018028684 0.22221686 -0.031151688 0.10087113 0.15486556 0.16983166 -0.24005279 -0.002055301 0.03145214 0.28495213 0.17495097 0.43871096 0.21811959 0.10203203 -0.095483 0.060006615 -0.18568 0.20768574 0.08776941 -0.28167468 -0.09138692 -0.027443353 0.100136526 0.45624372 0.09911988 0.13774617 0.3517749 0.11678637 -0.23986548 0.16832657 0.26551798 0.11702994 0.3409831 0.04629896 -0.10523605 0.11162803 -0.3810023 -0.07998323 -0.14733805 -0.48614353 0.5066269 -0.11997516 0.44710612 0.118643925 -0.1211912 -0.03984137 -0.14606746 -0.29974002 0.09652036 0.04288944 0.47631362 0.5830422 -0.2991236 -0.18307763 -0.12148486 -0.17035933 0.061385404 -0.058164548 -0.19775607 0.16397421 0.042432144 0.10383769 0.13598457 0.50906473 0.009762902 0.35688147 -0.39723733 0.012160242 0.11878355 -0.20751831 -0.36983898 0.13686375 -0.00362561 -0.07835902 -0.13280152 -0.22474135 -0.15532209 -0.38288987 0.37070242 0.049843844 0.13180865 0.07389834 0.19953574 0.020723568 0.04038568 0.13037306 -0.08333984 -0.27849054 0.15932533 -0.19994609 -0.40107855 0.15055051 -0.25341845 -0.20792423 -0.19971593 0.18361908
louca -0.14274007 -0.023001047 -0.023715701 0.00687362 0.46172675 -0.24695492 -0.15412328 -0.19705294 -0.32985213 -0.032760922 0.05770859 0.016874865 -0.22739603 0.14267239 0.18592115 -0.14984694 -0.028752504 -0.039442807 0.08104514 -0.01153832 -0.09527128 0.080946304 -0.020797402 0.3283535 -0.025555696 0.39908352 0.32539782 -0.017634042 0.056293253 0.07383353 0.06957308 -0.19676363 -0.09478227 0.024400247 -0.3060752 -0.18091679 0.18062371 -0.1352007 -0.00831095 -0.18900305 -0.1496497 -0.31567815 -0.0884133 -0.072307006 0.36307022 -0.16525216 0.48502603 0.036069546 0.25025705 -0.33471525 -0.14717948 -0.1480449 0.30858946 0.16884188 -0.04468257 0.27905017 -0.4410916 -0.09664433 -0.08190229 -0.028212516 0.10646271 0.15041174 -0.025495213 -0.26192284 0.33819225 0.0726778 -0.17878824 -0.046138037 0.14580166 -0.046869826 0.08976324 0.0566987 0.29533973 -0.04463752 0.19545823 0.27283537 -0.1300097 0.24711272 -0.22702487 0.30359763 0.25760034 0.19152908 0.14288835 -0.20157506 -0.105495095 -0.071008384 -0.15802063 -0.4150354 0.2719849 -0.32259667 -0.42739636 -0.04861421 0.05364427 -0.057958383 -0.09482619 0.18038405 0.13281716 0.23119064 0.3963208 0.28433844 -0.20381321 -0.12295122 -0.07252028 -0.07656231 -0.30925667 -0.17808817 0.18735199 0.080164954 -0.040545907 -0.15390603 0.07491119 -0.4112774 -0.1154814 -0.2951956 0.16282424 0.2942212 -0.07561972 -0.2971704 0.11977209 0.3719422 0.1879741 0.20257832 0.11999862 -0.48139864 0.0610239 0.31543645 0.058759313 -0.13501327 -0.10503196 0.4707813 -0.21093024 -0.03868211 -0.0794124 -0.00020616347 0.2896511 0.07966808 0.06282779 0.16958901 -0.10160911 0.1704966 -0.15901458 -0.3494204 0.27945542 0.29494637 0.22979507 0.05404708 -0.15609089 -0.25721055 0.19767365 0.20178397 0.5485797 0.19278048 -0.027292792 -0.07357544 0.22267944 -0.26426122 -0.14839575 -0.2613106 -0.24735817 -0.58391744 -0.035882916 0.46967632 -0.1563993 -0.37088126 -0.244861 -0.12150287 0.4390142 0.34652123 0.16286243 -0.23274803 -0.08825889 0.15396799 0.25828493 -0.38931355 0.24365523 -0.0654785 0.031404004 -0.19697635 0.10654365 -0.10613476 0.053221773 0.11859183 0.25666687 0.3904812 -0.11556439 -0.027415732 -0.20720734 -0.109341055 0.34012812 -0.22986546 0.21362929 -0.08333258 -0.021896126 0.1356351 -0.35591227 -0.29195565 0.3244674 0.08370656 0.29998112 0.016148658 -0.01949974 0.254009 0.35693654 -0.0465133 0.12918267 -0.28323758 0.050484147 -0.41501096 -0.23443623 -0.057956576 -0.39434478 0.040544715 0.25647414 -0.19173926 -0.06932278 0.24348861 0.15327759 0.030131035 -0.11299107 -0.12086929 0.27537686 0.11983096 -0.10194906 -0.31808564 -0.46546263 -0.08616305 -0.15023041 -0.1986852 -0.13810964 -0.23820263 -0.223051 -0.20423213 -0.0034838428 -0.05011831 -0.11932519 -0.27869037 0.15897886 0.07010154 0.13113153 -0.04199855 -0.13620715 0.03838655 -0.08237948 -0.059353955 0.032572035 -0.09082332 0.0517884 0.34800288 0.2903334 0.16237733 -0.08584382 0.18325135 0.3692215 -0.32192796 -0.22754906 0.45015368 0.28759512 0.14076973 -0.13704754 0.06421099 -0.1142728 -0.5083732 -0.096221074 0.116005175 0.20282604 0.29436618 -0.116687365 0.14750303 0.08856461 0.22993308 -0.20778877 -0.18450499 -0.118214466 0.27478784 0.095953725 0.03048081 -0.14120065 -0.15621428 -0.25270337 -0.11327128 0.06284841 -0.39304972 0.034094036 -0.10466676 0.38331988 -0.124875605 0.26935917 -0.049232036 -0.085022695 -0.05560919 -0.19767639 -0.2749634 0.0043116095 -0.17366333 -0.15982807 -0.067252316 -0.15073106 0.03715912 0.5499401 -0.12871405
karol -0.1484533 0.19981802 -0.24872145 -0.112084255 0.2060699 -0.3026021 -0.21982563 0.04395963 -0.1304959 -0.191087 0.16291934 -0.14906392 -0.097900994 0.2452553 0.17695233 0.28215104 0.12897007 -0.6859385 -0.2360446 0.37969148 -0.05881308 -0.122909635 -0.06042881 -0.36312836 -0.63510954 0.09127955 -0.40034413 0.39178434 0.14097252 0.3674003 0.1119046 -0.2785962 -0.40166178 -0.040454783 -0.69313544 -0.05889039 0.18957812 0.22712268 -0.19016768 -0.15673749 0.28291193 0.10659495 -0.33539832 0.011052122 0.86150074 -0.19630115 0.110096574 -0.26809946 0.23854147 0.03735531 -0.114038214 -0.7278149 -0.3464165 0.37984973 -0.5023567 -0.17648868 0.10020293 0.48362908 0.016167719 -0.15294676 0.19017941 -0.12175303 -0.14225602 -0.3966014 -0.17794815 0.17171556 -0.3706741 -0.01667359 -0.13542534 0.11090689 -0.1824225 -0.022798343 0.32721967 -0.39712194 -0.7571067 -0.038937427 -0.3364834 0.3338747 0.52524316 0.7254188 -0.08557987 0.7030669 -0.27330217 -0.4942131 -0.7643288 0.30608106 0.1264066 -0.37583324 -0.062290993 -0.48339966 0.23993032 -0.14141384 0.20390223 -0.29421332 -0.2019705 -0.16536152 -0.07232292 -0.04355495 0.3580658 0.23838097 -0.37076864 -0.0062888004 -0.3063552 -0.13191904 0.14474985 -0.34435478 -0.2084621 0.100118846 0.28388608 -0.076968096 -0.21562684 0.1494989 0.09674581 -0.17014053 0.60905635 -0.3154399 -0.092075124 -0.12910226 0.42504722 0.19126558 0.42026368 0.4417268 -0.11454862 -0.49211848 0.27058157 0.45697144 0.09695937 -0.064789414 -0.5179848 -0.23364794 -0.21451388 0.17867137 -0.37029138 -0.031630076 -0.41390806 0.046900008 0.07448855 0.20925471 -0.020185648 -0.2010597 -0.22794682 -0.27865055 -0.024227206 0.037372548 0.1031512 -0.23563299 -0.48886806 -0.31457895 -0.11479709 0.11820172 0.45334962 0.61984855 -0.11462459 -0.15625818 0.27765593 0.39255616 0.10831352 0.057889845 -0.37738937 0.22959358 0.45822078 -0.14395931 0.21867259 -0.33962196 -0.64235634 0.22334595 -0.032485247 0.28023812 0.09838441 -0.18370031 -0.19661194 -0.5110849 0.27776068 -0.4123105 0.15350653 0.21480419 0.31153893 -0.048207253 -0.1768161 0.22266667 0.156043 -0.19204412 -0.008198712 0.35529006 0.12159936 -0.021154208 -0.2905619 0.10767251 0.1481415 -0.024104299 0.13291727 -0.018024022 0.10773877 0.30586007 -0.11816109 -0.31164137 -0.21903498 -0.010163926 0.5133737 -0.30069336 -0.12601092 -0.097633086 0.33534604 -0.07585038 -0.06723194 -0.10285857 -0.04426765 0.505538 0.36760023 0.21434508 -0.099703446 0.14949766 -0.011481841 -0.068933085 0.0671228 0.27018484 0.54136676 0.106628425 0.09668848 0.31475902 -0.035753064 0.120618105 -0.3575315 0.49405396 0.049174037 0.02757606 0.03701076 -0.33601886 -0.20763277 -0.26325098 0.3804493 0.758401 -0.08659216 0.22787417 -0.056375436 -0.6853533 0.1689544 -0.09556754 -0.46365768 -0.049174383 -0.20855588 -0.23959453 0.06540635 0.13425922 0.5593838 -0.37244254 0.108680695 0.020271733 -0.22249305 -0.2502832 -0.4071579 -0.022258213 0.3254396 -0.3823673 -0.037186604 0.728284 0.18969704 0.11123862 0.070942454 0.053763248 0.08061917 -0.08744391 -0.036423136 0.12303006 -0.07049931 0.4441252 -0.39737457 0.4806123 0.26827994 0.16508774 -0.46053395 -0.54878235 -0.3419203 0.31393644 0.12311416 -0.07671721 -0.025236232 -0.23474033 0.24685475 0.38834083 0.07464477 -0.2798791 -0.25786108 0.55708736 0.15269528 0.20949604 -0.040987995 -0.29758477 0.0019762581 -0.21793787 0.06967543 -0.070892096 0.37440026 0.34458318 -0.59545404 0.06229469 -0.02299097 -0.19534026 0.043578938 0.20240386
na -0.0012828654 0.18605581 0.0008714804 -0.18122077 0.07346873 -0.19927417 0.01645573 0.11568994 -0.008181257 -0.13938859 -0.07705852 -0.065852806 -0.088096716 0.19444965 -0.33272377 0.28075016 -0.116746284 -0.36590156 -0.1674298 0.29841444 0.062233295 0.14331834 -0.45084262 -0.3588474 -0.051210266 0.36359116 -0.09325207 0.18947947 -0.0386717 -0.4237059 0.08191064 0.1791628 -0.17660622 -0.0626157 -0.24291034 0.035357717 0.16739684 -0.25112745 0.40193585 0.012717435 -0.21250892 0.076256506 -0.22533993 0.4458678 0.5157668 -0.18470854 0.29487613 -0.105168186 0.09975483 0.14176968 -0.012942177 0.010947694 0.061014738 -0.047204863 -0.18331642 0.020621872 -0.12568852 0.14810683 0.19532596 -0.033306424 -0.4177564 0.3365008 -0.21219298 -0.11071515 -0.14715226 -0.08092951 -0.23313093 0.20150258 -0.01803584 0.16096307 -0.4664756 0.06591416 -0.027170913 -0.28369066 0.042097878 0.18246102 -0.1861376 0.13642661 0.26318908 -0.23968011 -0.28014195 0.017390698 0.22148845 -0.37061077 0.08131121 -0.07089112 -0.061685774 0.07673292 0.24220504 0.26284665 0.099746644 -0.23134647 0.2529301 0.14827538 0.101184204 -0.21802792 0.008669033 -1.3517536e-05 -0.0793901 0.3170594 -0.33057392 -0.49364135 -0.24794471 -0.17918888 -0.15186684 0.14890282 0.1589274 -0.23853952 0.29521188 -0.41026476 -0.16641682 -0.2615341 -0.036591638 -0.42369804 -0.08288268 -0.011954958 0.031655293 -0.021025816 0.24236949 0.3101461 0.11651082 0.38911206 -0.090698235 -0.04329993 -0.110056095 0.1341874 -0.2705982 0.051819377 -0.1797128 -0.106542096 -0.33252972 -0.22096613 -0.12734689 -0.020369017 0.3245137 -0.112653896 -0.08069111 0.046364848 -0.065325774 -0.12504005 -0.19760118 -0.012542263 0.13333437 -0.06847053 -0.2529378 -0.20646413 0.0063500837 -0.22975644 0.08137002 0.13370492 0.14442731 0.27610433 -0.2094167 0.24435267 0.11846739 -0.10275035 0.008408888 -0.065457255 0.2849901 -0.12863103 0.083149105 0.09273321 0.39224425 0.118512824 -0.06380556 -0.0780121 -0.041870777 -0.26655537 -0.04710559 0.0022175005 -0.06432723 -0.03263351 0.13790826 0.04934068 0.4379863 -0.07758184 -0.14131562 0.080585174 0.057763766 -0.009991448 -0.13369936 -0.045096587 0.15939578 0.37033823 -0.16404024 -0.21427368 0.10574553 -0.09190626 -0.08555949 -0.41693407 0.179935 0.15367556 0.13643683 0.11541518 -0.15725467 -0.048087295 0.029871294 0.04542975 0.14918573 -0.119560204 -0.093490444 0.09204712 0.08183897 0.18791334 -0.022342453 0.30323803 0.0849242 -0.12966698 0.029525716 0.11624794 -0.039819963 0.32610682 0.059553213 0.035570003 0.0352037 0.2900338 0.050227553 -0.07278305 0.07882288 0.091014534 -0.26211396 0.19356288 0.17527786 0.065015905 0.07175985 0.067914695 -0.031134082 0.23238602 0.1243076 0.06482252 0.28967375 -0.06108544 0.09087119 -0.1496564 0.20091262 -0.13379292 0.17236592 0.02968221 -0.21852082 -0.06823433 -0.51675534 0.0041855965 -0.12771174 -0.43750077 0.4300423 -0.022479706 0.41811237 -0.025185077 -0.044871695 -0.1330955 0.024029057 -0.0014942092 0.0071936855 -0.09226024 0.025040442 0.39743456 -0.08903289 0.17405227 -0.20055607 -0.21476455 0.17284533 -0.16588657 -0.13778913 0.38313806 -0.08054963 0.032075893 -0.18546693 0.45880544 -0.007503599 0.32365268 -0.3462092 -0.09783671 0.056286532 -0.18615851 -0.18515092 0.08029805 0.06905546 -0.21221268 -0.2513335 -0.040145528 -0.21182166 -0.09680271 0.229493 -0.21449958 0.31004572 0.12881392 0.16208792 -0.13045225 0.16100064 0.0006601702 0.055277254 -0.26436922 0.06474502 -0.079172224 -0.30569702 0.09893624 -0.102733776 -0.1183568 -0.17458874 -0.071674876
