740 300
MENÇÃO -0.07886999 -0.19583121 -0.1399661 0.16866055 -0.015343477 0.032343578 0.12465999 -0.10174787 0.21508425 0.0690363 -0.08989152 -0.14350438 -0.2230924 0.002806792 0.15359388 -0.044762373 0.11992084 -0.1012609 -0.23862448 -0.017541667 -0.04035232 -0.10041353 -0.0077243373 -0.016186235 -0.2320559 0.14271517 0.033523403 0.03211568 -0.081963815 0.08611954 0.023754038 -0.0729229 0.10135231 -0.1791663 -0.08548745 0.036191907 0.10857893 -0.0020490757 -0.05393136 0.05855083 -0.008103385 0.11100557 0.13936877 0.029087923 0.20398815 0.093835086 -0.15000892 -0.05292934 -0.23549093 0.019867761 -0.051487926 -0.0542235 -0.027603613 0.13868864 0.06396812 0.14002386 0.2654086 0.08588673 0.09047469 -0.042036843 0.011350887 0.05742235 -0.38178688 -0.2711242 -0.029234774 0.027742306 -0.16587503 0.005546867 -0.03572208 -0.09350449 0.18371378 -0.0045268126 0.20158921 0.058515355 -0.075241305 0.075329676 0.11667695 -0.094232656 0.10856215 -0.072999276 0.04933877 -0.10002839 -0.07964354 -0.08268327 -0.040785227 0.074243136 -0.038658544 -0.40084687 -0.23511697 -0.016195863 0.06847327 -0.10410549 -0.050741196 -0.015658 0.035938278 -0.019829225 0.08556357 -0.09051488 0.042952713 -0.11614187 0.12115916 -0.09156578 0.027204271 -0.049267136 0.13687028 0.09241927 -0.1328043 -0.25151747 0.13461463 0.0875826 0.074516684 0.13392574 -0.05452295 0.0025887655 -0.036125045 0.05218598 0.040866375 -0.013920423 0.17525157 0.19509466 -0.10314344 -0.04468219 -0.103357084 -0.13701956 0.021506347 0.056062356 -0.073638104 -0.13239992 0.09485406 -0.11829794 0.060728036 0.22351615 -0.09466416 0.025442526 -0.06953598 0.049303357 -0.04351646 -0.15735766 0.0024024346 0.0707347 0.04138593 0.0062792944 0.032747168 0.0470107 -0.07206134 -0.17692092 -0.32258713 0.096476816 -0.1228305 -0.13429081 -0.06396958 -0.08929339 -0.07820235 -0.1291075 -0.20672683 -0.06931597 -0.005762493 0.012593115 0.0636192 -0.2948022 0.29205748 0.04377823 0.05330813 -0.12958017 -0.2461999 -0.075764135 0.015964858 0.18712433 0.07574614 -0.120850146 -0.18883005 -0.06863953 -0.1205181 -0.2812013 0.07705565 0.013348327 0.24611083 -0.054538652 -0.36918256 -0.020010361 -0.12159336 -0.13678332 -0.14424062 -0.13800365 0.11015895 -0.015931074 0.008257748 -0.0142766815 0.1535187 0.04243426 0.14213778 0.15374856 -0.25407633 0.10357463 -0.14111039 -0.036800735 -0.15037002 -0.034264322 0.07777225 -0.06089715 -0.05574377 0.0622083 -0.08849655 -0.03995855 0.019161599 -0.13720632 -0.0067058112 -0.05553057 -0.27832022 -0.023453565 0.010663489 0.40251765 -0.04353802 0.34022114 -0.04123051 0.0072697415 0.2114616 -0.03063609 0.24404876 0.027094347 -0.15971334 -0.06391272 0.086331345 0.048554733 -0.11252164 -0.04542528 0.04717499 -0.02778902 -0.056412555 -0.13110766 0.031394057 -0.13544707 -0.042515285 0.0048892843 0.021542197 -0.033401996 0.1275139 0.1008608 -0.10848384 0.048409868 0.11240069 0.0022374564 0.17922127 0.21338096 0.026717404 -0.3029019 -0.036601536 0.1117742 -0.15628138 0.0819783 -0.05172465 0.10074001 -0.052191477 -0.037811127 -0.26960826 0.11615484 -0.16636792 0.069341905 0.0471541 0.07268644 -0.08938301 0.023862602 0.23192415 -0.15871547 0.16862634 0.06794461 -0.24422674 -0.01733028 -0.18273525 -0.089501105 -0.24009962 0.04808289 0.018150087 0.18807401 0.021147873 -0.061429873 0.18048511 0.08222631 0.006426856 0.12751816 -0.03166878 -0.2280051 -0.060737927 0.124378234 -0.060352188 0.024297988 -0.060701836 -0.2739649 -0.05141077 -0.17678824 -0.06392316 0.09828447 -0.19907576 -0.085785344 0.063612975 -0.0032416333 -0.025193326 0.13628024 -0.040531334 -0.014224119
e -0.11571581 -0.1940767 -0.0414798 -0.22144078 0.22272156 0.108126946 0.093290076 0.045529157 -0.036299936 -0.021749688 -0.038268358 -0.20007987 0.087473445 0.10613427 -0.07039521 0.24920098 0.2504798 -0.16029917 0.024027772 -0.06427822 0.055602122 0.04641082 0.0522857 -0.19513853 -0.2067572 0.27265036 0.15347713 -0.08601936 0.13504484 -0.019121826 -0.09599144 0.14141968 0.012901513 -0.06642885 0.05015961 -0.006254356 0.20574558 0.07008609 -0.2189157 0.16341604 0.0051723267 -0.21672636 -0.005984731 -0.15810665 0.16083978 0.05425748 0.1467257 -0.01786684 0.15656708 -0.02512393 0.07584888 -0.0027811846 0.00850246 0.05905074 -0.11610546 -0.26700604 0.098710634 0.03328386 0.015215961 -0.35457328 -0.037013985 -0.019219939 0.012197532 0.05397541 -0.13993295 0.18327999 -0.34388196 0.029310234 0.02357636 0.009107363 -0.1501142 -0.062518135 0.20362736 0.022143165 -0.016120695 -0.2570423 0.15627453 0.39347953 0.43204343 0.11492433 -0.08267131 0.038266163 0.047460083 0.15987627 -0.22362436 -0.08422282 0.121781304 -0.196873 0.043864056 -0.13771333 0.13280149 -0.08367076 -0.14004129 -0.08316126 0.014287992 -0.037479132 0.16906974 -0.14868946 0.24245624 0.25069085 0.00018920953 -0.2697479 0.06067017 0.00901209 -0.10898348 0.15418266 -0.12313246 -0.23656905 -0.08223612 0.057343703 -0.16189173 -0.11731484 0.09360196 -0.1691791 0.034565255 -0.07632624 -0.14578244 0.23481989 0.1416007 -0.035253894 0.3217294 0.02437099 -0.16461408 0.0034226682 -0.066811256 0.17615275 0.01999775 -0.096205786 -0.07660785 -0.23092541 0.08416386 -0.13757086 0.07044966 0.23529746 -0.15448803 -0.25003406 -0.2150469 0.20245132 -0.06502804 -0.08143272 -0.1824752 -0.08322431 0.08340676 -0.036994807 -0.0020914576 0.0513027 -0.09023618 0.07791155 0.37010786 -0.25637767 0.24667545 0.010042652 -0.24265037 0.11012404 -0.13262387 0.16274583 -0.012646245 0.0068996325 -0.050036166 -0.2082853 0.20245497 0.023915598 -0.05277389 -0.08551584 -0.26055488 0.031384423 -0.15736933 0.12926923 0.03848381 0.13154371 -0.15597403 -0.006119673 0.04050089 -0.06991413 0.018490594 -0.03981151 0.0028222844 0.21613081 -0.1701152 0.16339412 -0.19549492 -0.00082906656 -0.24218395 -0.041926347 -0.07990576 0.03972139 0.11898389 0.009745334 0.054523353 -0.0841071 0.028028945 -0.09070784 0.02974655 0.06857192 -0.037293013 0.040360175 -0.106324285 -0.07612181 0.030903531 -0.115171716 -0.15047601 0.15296513 -0.107501514 -0.13052139 0.15447429 -0.25259 0.25165334 0.10215328 0.10958654 -0.12853916 -0.26153544 -0.07479931 0.019884314 -0.047299296 -0.016662905 0.06468991 0.301507 0.1159721 -0.016298631 0.21421905 -0.13346414 0.1989987 -0.01284682 0.22163926 -0.090669 -0.034530994 0.19496144 -0.022360016 -0.050857857 0.21092834 0.22659633 -0.1358656 -0.022705821 0.12689689 0.23483165 -0.0203737 0.12172821 -0.021501549 -0.17026772 0.030390276 -0.118196055 0.0854807 0.02388956 -0.21710268 0.2654972 -0.18275708 0.014595676 -0.16960523 0.026541503 0.24422483 -0.20094873 0.042933464 -0.07630844 -0.10065403 -0.39410436 0.29603365 0.047742173 -0.0018791582 -0.013083493 0.062763445 -0.061762724 0.04764958 0.1236619 -0.09405043 -0.07542167 -0.0035166207 -0.3712317 -0.093053296 0.06468713 0.32092378 -0.04104792 -0.2575639 -0.0025524152 0.03922717 0.052482177 -0.12027715 -0.22321936 -0.03795695 0.067705974 0.06601809 -0.13661392 0.038833495 -0.15383682 0.24767984 -0.033354197 -0.08392444 0.12126594 -0.098718464 0.02892648 -0.13954766 -0.25202018 -0.0030195538 0.34310955 -0.07054977 0.03996067 -0.10437843 -0.034390304 0.3222817 0.03392737 0.054633893
que -0.062757805 0.06771092 -0.28104287 -0.141317 0.08139575 0.18014944 0.074068315 -0.044781074 -0.04500566 0.21923727 -0.1342136 0.011398 0.04561154 0.13730533 0.1040324 0.07010517 0.14655149 -0.15633921 0.043673933 -0.04383449 -0.12738462 -0.11024286 -0.1688205 -0.04365756 -0.054137353 0.21429054 0.28660566 -0.14262797 0.10907586 0.22492097 0.275503 -0.13088335 0.05865756 0.08021706 0.1630808 -0.07124567 -0.017965736 -0.099412434 -0.16282307 -0.22188538 -0.006650864 0.04435993 -0.054746673 -0.030274957 0.10460052 -0.02993506 0.18690315 -0.07607303 0.1377177 -0.06338573 -0.17030908 -0.10759754 0.0150984395 0.23619996 0.104875505 0.04283108 -0.14354448 -0.1589874 0.08964221 0.058216225 0.014532476 0.10397951 -0.41225204 0.034429204 -0.05587846 -0.17023352 0.049715474 0.017535158 0.02702757 -0.08939733 -0.024509307 -0.056965217 0.1416411 -0.2946727 0.07925089 0.17620708 0.14010005 0.044063482 0.3925747 -0.110159844 0.056792963 0.1701268 -0.008154745 0.10787182 0.010829118 -0.13081466 0.09079397 -0.22204565 -0.05094248 -0.042466056 -0.067357585 0.02516415 -0.097026125 0.11736957 0.08785242 -0.22054292 0.15705799 0.011954962 -0.15779509 0.33939615 0.14229523 0.09490684 0.06614921 0.052822627 0.042113062 -0.154178 0.09940824 -0.5193621 0.03804101 0.1560185 0.022984752 0.12944356 -0.22538505 -0.23440172 -0.038794722 0.21615715 0.06535532 0.19908008 -0.03609579 0.16424794 0.1362829 0.28511056 -0.22987938 -0.059380926 0.14039603 -0.017981758 -0.34067214 -0.13071218 0.0025120967 0.08409425 0.16031414 0.25109985 -0.0040885294 0.042131208 0.066962495 -0.0629708 -0.43197992 -0.016646054 -0.044553082 0.09292374 -0.042593703 -0.20827542 0.16658837 0.027773255 0.12469103 -0.23585543 -0.46521768 -0.13243711 0.0065207314 -0.03640059 0.13892385 -0.102946185 -0.08477708 -0.060910366 -0.21141943 -0.007956652 -0.17831957 -0.1505825 -0.02882101 -0.36921024 0.06916045 -0.14796671 0.019236231 -0.03774872 -0.19902761 0.032493357 0.07463588 0.16072412 -0.20027669 -0.09354636 -0.12949109 0.04854775 -0.099871285 -0.13332048 -0.027348228 -0.053948957 0.24107884 0.0032984873 -0.38913384 0.18464407 -0.113630526 -0.06817702 -0.14329532 -0.030548053 0.02219064 -0.06786721 -0.075140916 -0.1467396 0.17840953 -0.1230252 0.22948644 -0.03021185 -0.118618965 -0.15127352 0.10612811 0.15880905 -0.18287538 -0.044657096 -0.059208605 0.0021403925 -0.13699968 -0.0004901244 0.08193189 -0.054062776 0.044162456 -0.08005796 0.2727678 0.024582759 0.0056206062 -0.15403752 -0.07090795 0.11918696 -0.17034477 0.31195888 0.08440788 0.1748692 0.172723 -0.07092428 0.2524783 0.1398798 0.14070933 0.09964174 0.013677189 0.11098396 -0.17564824 -0.08747022 -0.05924688 -0.07749258 -0.03096042 0.26205575 0.008877385 -0.21245736 0.00033792376 0.018547513 -0.17024301 0.021579329 0.091350995 -0.08410032 0.016871866 -0.10344026 -0.14391707 0.06279808 -0.13123377 -0.1668196 -0.06383957 -0.223664 -0.054868948 0.21255676 -0.11491602 0.31151247 -0.35361204 0.008198293 -0.0034311663 -0.025871163 -0.30488047 0.119679324 -0.0081058135 0.14907777 0.030148549 -0.09829346 -0.06768533 -0.121078916 0.03983962 0.19798568 0.17094879 -0.03665296 -0.046924513 -0.05993569 -0.028929558 -0.14506486 0.11066017 0.038471892 0.02849217 0.07417719 0.05578338 -0.16872141 -0.046073195 0.14265704 0.27969313 0.30318105 -0.324708 -0.02245934 -0.38313127 0.12832639 0.08049818 0.112137355 -0.054737914 -0.18185867 0.20551148 0.01919407 -0.0014333228 -0.21441238 0.12834105 -0.10947712 -0.01269482 0.036639124 -0.0826749 0.14673308 -0.11697291 -0.0661469
a -0.118704505 -0.11534277 -0.022167433 -0.051798027 -0.058447976 -0.10675276 -0.040834296 0.018195871 -0.019482829 -0.0158063 -0.0505137 0.053631034 0.097995356 0.1144866 -0.028373802 0.06705287 -0.14379641 -0.116543815 -0.19943462 -0.044957735 -0.039843675 0.050172374 -0.084940605 0.121125005 -0.06833592 0.31040707 0.23157252 -0.04161215 0.08352382 -0.1687359 -0.26376656 -0.011782086 -0.019092279 -0.11839825 -0.1095542 0.174451 0.17198543 0.11546956 -0.11073805 0.04525955 -0.082103126 -0.050563376 0.046416294 -0.09294 0.31642902 -0.12979515 -0.05243324 0.16133426 0.09423814 -0.002277384 -0.039062284 -0.14127533 -0.009236877 -0.08755154 -0.03985581 0.17855094 0.076603666 -0.026023202 -0.015110874 -0.26401 0.00304983 0.09913344 -0.021208031 0.08618651 0.020297287 -0.009732134 -0.03491298 0.11995821 0.1608827 -0.01578427 -0.09058815 -0.055515565 0.2762859 -0.19050546 -0.08876181 0.0808376 -0.056058332 0.23147498 -0.029779922 0.15283768 -0.058517646 -0.09909537 0.105947696 -0.09880126 0.0508073 -0.10593571 0.115957886 -0.05536678 0.16410807 -0.15904874 0.0048074685 0.13575572 -0.10237779 -0.016975952 0.10072429 -0.111755386 0.32806844 -0.010295728 0.19689122 -0.028037727 -0.16973929 -0.34924164 -0.20641191 0.061432734 -0.09518605 0.037673783 -0.22332887 -0.19821969 0.24218863 0.13098611 -0.092152484 -0.0644469 0.046531823 -0.17386381 0.2223056 -0.22700103 0.008220964 -0.09858134 0.32295373 0.13839766 -0.01672584 -4.9819988e-05 -0.22913419 -0.18423747 0.09515668 0.22843611 0.06842857 -0.2040878 -0.11192323 -0.35752946 -0.09287895 -0.022639666 -0.0061347587 0.24557105 -0.08093008 0.000598794 0.012601551 0.14461376 -0.0719116 -0.10176047 -0.06940889 -0.2370896 0.14655337 -0.15803568 0.029988812 0.16226478 -0.2914831 0.09291384 0.21213178 0.09991307 0.027152717 0.007445913 -0.07993285 -0.0802968 0.0520045 0.013202231 -0.1952466 0.025848806 0.08940314 -0.036899827 0.27566114 0.18027885 0.13566065 0.057901718 -0.25079262 0.021394001 0.0029076599 0.23670873 -0.049275193 -0.1477321 -0.04882687 0.1266942 0.28263313 -0.11711537 0.19564442 -0.16568936 -0.1686518 0.20362979 0.0850428 0.031253923 -0.13496466 -0.12744279 0.12770592 0.082371466 0.0100922305 -0.025814436 0.2900023 -0.02172661 0.22403403 -0.029574433 0.23178342 0.08723718 0.15710694 0.17325999 -0.095942914 -0.14709495 0.18954775 0.040173348 0.09716737 -0.0028718635 -0.20949565 0.3457683 0.008745692 -0.301512 0.052435003 0.1737963 0.08137352 0.10894607 -0.1391818 -0.2680976 -0.35005978 0.20031862 0.046388116 -0.0008598851 -0.068423055 -0.10896356 -0.019626722 0.06290048 0.15685922 0.2286045 -0.18777934 0.16736588 0.21770728 0.11381999 -0.23206891 0.042120546 -0.09244946 -0.018383121 -0.011246414 0.08741786 -0.282796 -0.004362524 -0.015738914 -0.04492323 0.11045896 -0.19133963 0.043344926 0.07989903 0.014964119 0.07348254 -0.047353487 0.16507843 0.0076705273 0.022982907 -0.04604137 -0.14674404 0.23426692 0.11992354 0.19844706 0.11603986 0.21212578 0.0435426 -0.111327924 -0.010187455 -0.23552962 0.3335128 -0.091487914 -0.21608199 0.07157725 -0.11709601 -0.020105328 -0.07604379 0.11012101 -0.028761566 0.11695775 0.23769541 -0.35582113 0.03542547 0.07578012 0.07459554 -0.32381302 -0.31704992 -0.03065353 0.01775155 0.119036466 -0.11458989 -0.015977362 -0.050634515 -0.08531409 -0.029826343 -0.3523713 -0.21250825 -0.2350703 -0.22237808 0.33023122 -0.070485145 0.31243894 -0.12990056 -0.010988023 -0.13165289 -0.041739225 -0.1237099 0.049423907 0.032586858 0.04145029 -0.29849723 -0.08326047 0.120774075 0.07498607 0.12192006
de -0.25732398 -0.12846808 -0.050020244 0.10457205 -0.06227182 0.018046202 0.07340844 -0.17303352 0.05781551 -0.13969658 -0.04943327 -0.15066032 -0.0033459365 0.13448481 -0.13379 0.41472086 0.09027274 -0.13653997 0.12174212 -0.05502545 -0.15057713 -0.0024880103 -0.17463419 0.057446234 -0.056893777 0.07217535 -0.11588715 -0.12280652 0.036135618 -0.160098 -0.16121219 0.06616791 0.118061036 -0.18308814 -0.045438346 0.14512698 0.4709795 -0.039742548 0.08807182 0.046623655 -0.030221783 0.0925047 0.123826206 -0.09520709 0.20136544 0.1690313 0.113183126 -0.044847615 0.041900057 -0.14016362 0.0773539 0.05525475 -0.0023645086 0.1889306 -0.1187794 -0.17404751 0.11614583 0.1584865 -0.0008547676 -0.23663162 -0.19767831 0.18560432 -0.17034125 -0.1336196 -0.14360368 -0.008738054 -0.24055648 0.28025374 0.24990608 -0.024649106 0.05806145 -0.10854975 -0.020560967 -0.0143683115 0.29644072 0.24580814 -0.052522905 0.07478965 -0.0568849 -0.15121022 0.22028811 -0.14439933 0.07561847 0.09506609 -0.17125233 0.041300412 0.07743086 -0.24557921 0.030043123 0.015132784 -0.09697471 -0.16012807 0.07810744 0.069893226 0.21794571 0.058390927 0.12274224 -5.386147e-05 0.056062873 -0.03676679 -0.07094749 -0.1534669 0.117193945 0.106230125 0.08620076 0.13522375 0.013914235 -0.3845961 0.26083776 -0.2684076 0.029633883 0.1570851 -0.19203024 -0.032500308 0.11876228 0.22497061 -0.057860296 0.089825064 0.040693194 -0.025054598 0.072454736 0.1085076 -0.036248658 -0.34820107 0.26403835 0.12754273 0.106891364 -0.078752734 0.1247777 -0.06312324 0.10002802 -0.14210781 0.24090685 0.0061257295 0.0065130442 -0.1252986 -0.19781034 -0.080169015 0.008297023 -0.11800586 0.04912461 -0.07523662 -0.009909644 0.0358847 -0.20887792 0.015226315 -0.09129644 0.1298466 0.060931187 0.18039231 0.08898208 -0.077938624 -0.09646766 0.18675062 -0.23140799 0.05405344 -0.32326853 0.012548205 0.055698518 0.035288174 0.018339843 0.045301046 -0.037528954 -0.01162409 -0.07798642 0.04626897 -0.044122346 0.0040915506 0.032324664 0.03199375 -0.21127045 0.30942938 -0.033922236 -0.063076414 0.15876533 -0.0021995516 -0.2828823 -0.04325778 0.093011945 0.030397458 -0.056325793 0.010341143 0.11832378 -0.08128439 -0.16632673 -0.18035857 0.28315192 -0.15494685 0.2182572 0.00015264523 -0.0068339068 0.090523615 -0.15175064 0.2512064 -0.0031036169 -0.14269689 0.071893424 0.14297943 -0.022040954 -0.08768845 0.21042305 0.15046407 -0.2349576 -0.05020317 -0.025500061 -0.09442899 0.2068997 -0.116268784 -0.088480026 -0.30114296 -0.22100383 -0.0134368 0.058101367 0.16371635 -0.0375417 0.15632659 0.12994754 -0.099076666 0.1740329 -0.042574033 -0.038342535 0.22491285 -0.06519544 0.06527698 -0.14151426 0.0376013 0.16473432 0.053665437 0.11201299 0.22268161 0.26517725 -0.36254218 -0.08052228 -0.18985264 0.18429476 -0.13647509 0.21411435 -0.10285068 -0.10944399 -0.049448267 0.078658685 0.03824563 -0.006528513 -0.05944743 -0.11853945 -0.04838206 0.07623946 -0.0069923396 0.10856194 0.31466916 0.07840466 0.0037745447 -0.31003043 0.03981256 -0.5005055 0.10996048 -0.027739426 -0.059389696 -0.22721739 0.010438166 0.30440873 -0.110602185 0.12130104 0.14461665 0.0023145992 0.104316555 -0.29989403 -0.010012583 0.019547554 -0.10970376 -0.01514753 -0.18579929 0.05137874 -0.10246881 -0.005341383 -0.08184643 -0.04259106 -0.15510185 -0.07764511 0.0015396966 -0.0058676573 -0.084895015 -0.015866878 -0.075005524 0.3101476 -0.07404766 0.11091798 -0.11057011 0.20294364 -0.23670223 0.093955316 -0.027487926 0.009521333 -0.3395911 0.001783089 -0.19173697 -0.2843349 0.08640285 0.16480345 0.05641372
o -0.16875502 0.11881721 -0.26257852 -0.16270876 0.038291723 0.02460326 0.23994902 0.047288954 0.112220116 -0.0651948 -0.08331928 0.043212418 -0.25489452 0.21782486 0.007634981 -0.027795326 0.10379406 -0.19434312 -0.22283538 -0.08176179 -0.08058708 0.046250347 -0.19976598 0.050209977 -0.11952255 0.12613352 0.23153499 -0.053551923 -0.21909776 -0.13758354 0.18785588 -0.2863329 -0.084172174 0.0982651 -0.0478891 0.059718274 -0.14567712 0.13611172 0.1727388 -0.25807 -0.5245419 0.011999106 0.20503484 0.1076104 0.19205865 -0.15002342 0.28384492 -0.1468915 0.17456731 0.18761145 0.18036334 -0.0751014 0.10931413 0.011515118 0.14001128 0.2716172 -0.12410792 -0.14779723 -0.0037459377 -0.076208286 0.18537852 0.09877277 -0.010439992 0.12176323 0.12183888 -0.106889725 -0.10121631 0.11787587 0.23021045 0.3232791 -0.011369234 -0.069495976 0.14068486 -0.07318504 0.24094938 -0.046159457 0.18565604 -0.11824991 0.22425392 0.14815432 -0.080723144 0.21441005 -0.20715594 -0.03967815 0.2592832 -0.11018979 0.0500164 -0.28733018 -0.212742 0.05112115 -0.16246383 0.08658642 -0.03195725 -0.03292748 0.16919656 -0.08406785 0.13973942 -0.11195738 -0.098857634 0.3800848 0.12780665 0.029555295 -0.15739873 0.089221016 0.006720958 -0.014839315 -0.18923078 -0.3305283 0.100547224 0.090869695 0.10207582 -0.12284326 -0.20028333 -0.11991325 -0.06378712 -0.038843628 0.036587425 0.014434462 -0.09079787 0.005184048 0.04517346 0.14437054 -0.118429326 -0.18518777 0.14904802 -0.05763423 -0.17273842 -0.2986658 -0.03087977 0.013961577 -0.0021797004 0.021503648 0.019011626 -0.039183863 -0.042873602 0.026235804 -0.07101261 -0.049810413 0.032565206 -0.04263422 0.050483074 0.0125017185 0.43911368 0.026554786 -0.0525638 -0.12029676 -0.42042884 -0.009267397 -0.08459455 0.12690206 -0.119838186 -0.028242376 -0.06462665 -0.33124232 0.06788028 0.028963488 -0.046548575 -0.08502646 0.08539905 -0.38254604 0.17640394 -0.117431514 0.14862277 -0.008502214 0.0021186906 0.13899504 0.118069336 0.026634265 0.22387856 -0.0072255717 -0.037188817 0.12906083 -0.017726908 -0.08898174 0.14528124 0.12529857 0.015852625 0.12201798 -0.24548993 -0.06547579 -0.09714646 -0.018463356 -0.22975698 -0.095998615 -0.12414896 -0.09833444 -0.07472373 0.013878429 -0.06731719 0.17007014 0.020065818 0.07679067 -0.009522498 -0.05176646 0.0845179 0.15029442 0.12089774 0.030171545 -0.110962436 -0.009491643 -0.048430897 0.24262382 0.18115003 -0.11964537 0.20347053 -0.10848098 0.021333084 -0.023842333 -0.10789257 0.019558813 -0.057620667 -0.06105097 0.076230526 0.36361203 -0.04149296 0.17775655 0.06309784 -0.11734809 -0.047730107 0.10674969 -0.2311698 -0.10904117 0.09151527 -0.012412021 -0.12196661 -0.17457372 0.09482463 0.0243063 -0.07961974 0.1704343 0.19183646 -0.22874099 -0.060459804 0.03683177 -0.16027261 -0.008652732 0.271075 -0.099499814 -0.1732531 0.065967105 0.1444559 -0.24206439 0.18010728 -0.08500534 0.06007772 -0.23705596 -0.19416144 0.27008423 0.072206736 0.20534234 -0.017229758 -0.036827922 0.03890191 -0.014196504 -0.1853547 0.23788011 -0.08138695 -0.029124465 -0.1275568 -0.17469092 0.049940884 0.09501712 0.0022316773 0.14351538 0.08661086 0.03697612 0.004037876 -0.2125885 -0.13885972 -0.08299291 -0.08997578 -0.047715884 0.0035199393 0.06812421 -0.027881991 -0.27010795 0.11738944 -0.1329448 0.10311928 0.18158872 -0.303979 -0.43537772 -0.025543608 0.07292267 0.18175994 -0.034546707 -0.0026883169 -0.30078086 0.0615397 0.15669852 -0.23011704 0.0684263 0.043590628 -0.14761378 0.0057195555 -0.018503377 -0.04446143 0.019735675 -0.11850561 0.11787018
é -0.24950796 -0.15431175 0.13667268 0.08424343 0.07096641 0.083923355 0.3278001 -0.14054039 0.28682464 0.10783721 0.06439824 -0.3050335 0.015408662 0.0072909864 -0.13487652 0.029111102 0.09972507 0.1524365 -0.18298654 0.027931465 0.24981254 -0.092013374 -0.029173922 -0.011185106 -0.23249993 0.03549961 0.20507957 0.027775135 0.10487528 0.12791272 -0.08575247 0.085522994 0.06125304 -0.13568707 -0.05143804 0.15810622 -0.0017521146 -0.23000985 0.020224247 -0.17388695 -0.05753471 -0.097462654 0.13341612 -0.16463375 0.39254802 0.08249337 0.19418904 -0.15397887 0.32407674 0.0144641735 0.018545805 -0.11444011 0.2910683 0.11850788 -0.04268055 0.14298081 0.11807721 -0.0854146 0.0358174 0.021779664 -0.10116637 0.24635695 -0.08977427 0.009323062 0.009511866 -0.029582422 -0.16187511 -0.06283494 0.012605149 -0.03164258 -0.13591503 -0.17838244 0.17304032 0.022076286 -0.12638693 0.17874956 -0.009439873 0.05057457 0.32879087 -0.09711171 -0.1615718 -0.099139914 -0.062556505 0.1296676 0.26832986 -0.17032191 -0.23079641 -0.4626045 -0.15945843 -0.07654667 -0.023305451 -0.0029588433 0.17713867 0.1192687 -0.08950649 0.14972895 0.08695382 0.057243764 0.004508154 -0.07773973 -0.00067069003 -0.18816005 -0.16539799 0.36563975 -0.14732689 0.12826213 0.14793745 -0.08923561 -0.00894187 -0.057766482 0.13789037 0.035455607 0.009889376 -0.10452975 0.048132993 0.27905098 0.021595597 -0.031298146 -0.19147712 -0.033738896 0.23102784 -0.18778017 -0.15761705 -0.2332548 0.12867136 0.11754546 0.0050900765 -0.18318295 -0.15674533 -0.24770606 0.10965607 0.19131339 -0.26239878 -0.051554184 0.11483202 -0.121895775 -0.17073977 -0.07546478 -0.19525713 0.0036912204 -0.03640156 -0.19014797 0.06946698 -0.05472049 -0.10534031 0.010174756 -0.10941144 -0.10834384 0.20299046 0.10339182 -0.11065686 -0.01377689 0.050548658 0.020874688 -0.2777731 0.09197944 0.07812041 0.013981253 0.16848584 -0.16568542 0.018070733 0.23170309 0.061030176 0.025639804 -0.3170143 -0.19251963 0.08614372 0.0963316 -0.06933331 0.057262927 -0.21148586 -0.052051887 -0.006156259 -0.35141796 -0.04046882 0.06636374 0.06864582 0.044792227 -0.17300802 0.06301584 0.018899918 -0.15892455 0.16827585 0.14792648 -0.12004237 -0.081927806 0.09810774 -0.08396749 0.28766 0.113433555 -0.078001015 0.04897237 -0.25758082 0.12938093 -0.11645949 -0.047756713 -0.116969556 -0.18380038 0.30262274 0.001229407 -0.050780468 0.029493265 -0.16490383 -0.1282848 -0.0033593772 -0.31606033 0.23930652 -0.07158343 -0.19307962 -0.19157757 0.2701248 -0.07533792 0.15017353 0.1440422 -0.007151327 0.037413936 0.095043905 0.06551586 -0.024744943 0.07670911 -0.19897826 -0.0060645235 -0.12806809 0.21630135 -0.085869856 -0.075002834 0.060689818 0.23298872 -0.022937616 0.026320253 0.01060608 -0.11021203 -0.009125304 -0.09580163 0.006218612 -0.06263751 0.30041844 -0.07576591 0.050311033 0.13118109 0.054882012 -0.14772674 0.25239414 0.12235144 0.18538538 -0.48903736 0.085467055 -0.0834962 -0.05938833 0.18692166 0.001558447 0.034663744 0.29818133 -0.08612579 -0.10402531 0.24151097 -0.19270152 -0.04076761 0.0021302735 -0.088221736 -0.065013 0.12989426 0.3206704 -0.08232829 0.07114398 0.0116571775 -0.13063113 -0.3284754 -6.0763792e-05 -0.041335214 -0.15808006 -0.07921261 -0.12411634 -0.0046828976 0.03591387 -0.41066876 0.14005092 0.038731486 -0.19542046 0.18871687 -0.15185697 -0.0076233624 0.029316472 0.19177222 -0.11687747 0.09893876 0.010377361 0.15194924 -0.080248 0.018080449 -0.16909496 0.25253913 -0.26994288 -0.059467793 -0.08121282 -0.11400462 -0.099671476 -0.081781834 0.38550386 0.057680678
não 0.014381164 -0.070635736 -0.033162285 -0.06082324 0.40966713 0.07862713 -0.06462031 -0.19746374 -0.17492177 0.13370478 0.12385195 -0.24164303 -0.11855686 0.2972769 0.21884054 0.007868008 0.12392903 -0.1480118 0.03473343 -0.1020912 -0.027981546 0.07770647 -0.19265331 -0.14475696 -0.13182928 0.32066342 0.051632885 0.0535373 -0.033625234 0.11803619 0.03663685 -0.07497678 -0.035065606 -0.11766221 -0.075246 -0.17300823 0.101670876 -0.094684035 -0.029347103 -0.08843812 -0.3332628 -0.016496513 0.037232906 -0.22581515 0.020521726 0.03593749 0.23589104 -0.08732803 -0.01551811 -0.033297494 0.09298106 -0.1515548 -0.057516124 0.17601372 0.022140717 -0.16855185 0.014091236 0.0020375808 0.10129091 -0.112379946 -0.07044384 -0.084304385 0.061107244 -0.0108846435 -0.07218415 0.14100833 -0.04662683 -0.086945914 -0.09853602 -0.07750809 0.022699736 0.07882172 0.20672008 -0.115262754 -0.023980537 0.20323917 0.006760158 0.3407079 0.05742376 0.3409911 0.045279555 0.17254321 0.06927859 0.11058702 -0.103491336 0.13875404 0.15825643 -0.15905674 -0.2918275 -0.24656427 -0.24115671 -0.13294075 -0.1352984 0.049334783 0.12856168 -0.077335 0.031478785 -0.21083227 -0.069071814 -0.03542283 0.010181275 -0.025406914 0.044793803 -0.0029766965 -0.12425018 -0.108979225 0.091345094 -0.25084996 -0.12070511 0.11160388 -0.17679822 0.0017529211 0.12039206 -0.07496497 -0.14597599 0.2518242 0.08214504 -0.068568684 0.12807848 -0.056108482 0.17256474 0.12258721 0.057443533 -0.13774343 -0.062358506 -0.10168721 -0.07598019 -0.05224817 0.2114821 0.051341787 0.13111238 0.087370016 0.09311482 -0.08909621 0.004143608 -0.14427383 -0.03166634 0.012069905 0.06275613 0.1731818 0.08563677 0.03132997 0.15588112 0.28396994 -0.1060752 -0.14764611 -0.3418483 0.10299677 -0.051961225 -0.05085373 0.19775684 0.083871014 -0.116491 -0.09834153 -0.32780463 -0.048773576 -0.18383357 -0.076830916 -0.18923993 -0.11652489 0.05850664 0.13574092 -0.019762693 0.06796771 -0.18052097 0.15661524 -0.028954951 0.03537876 0.17218019 -0.37029088 0.16513501 -0.051562503 0.26160082 0.04484757 -0.04927708 0.015383283 0.34545752 0.30866086 -0.075196154 -0.083604634 -0.27790037 0.15685052 -0.19005744 -0.19638626 0.11068744 -0.16262324 -0.24799876 -0.055803385 0.15822732 -0.06466031 0.22466893 0.11424306 -0.16400048 -0.09149436 0.092652604 -0.018829655 0.018963726 0.15125775 -0.040218327 -0.2662015 -0.029795332 0.025542406 0.20264396 0.043727204 0.27561063 -0.12027647 0.36886162 0.023131534 0.14409393 0.020518433 -0.2883101 0.22453998 0.19899507 0.16854356 0.113889106 0.049475737 0.15160856 -0.067005046 -0.00401615 0.09888649 -0.26030323 -0.034911264 -0.06607056 0.035503782 -0.20486984 0.1392901 0.13396771 0.24662027 -0.24018183 -0.0023021563 0.30657804 -0.038163792 -0.087144725 -0.060273066 0.002547634 0.036321506 0.056138728 -0.051514506 -0.17164084 -0.12009394 -0.12293738 0.14434868 -0.12113052 0.1370859 -0.14258975 -0.13564612 0.09999375 0.21123888 -0.12617208 0.14739083 -0.07422463 0.04081715 0.058237523 -0.0110860085 -0.2338243 0.08042998 -0.021554751 0.21612927 -0.1001768 -0.043456852 0.0193421 -0.022390876 0.06608416 0.2515932 0.28766412 0.092871234 -0.06528353 0.025985217 0.056889657 -0.12873626 -0.12954572 -0.08431208 -0.05081899 0.02968715 -0.07867115 -0.14718692 -0.16394678 0.032766446 0.115574315 -0.005430876 -0.0068132696 -0.07715816 -0.23199001 0.030362671 -0.017105168 0.19330859 0.20542322 -0.24058445 -0.0015602935 -0.13873442 0.111689456 -0.3450083 0.04117087 -0.124481596 0.008379677 -0.14698955 -0.034437742 0.12871568 0.21426457 -0.21616432
da -0.06001535 0.14523621 0.11360478 0.018334636 0.07942693 0.092120536 -0.17432705 -0.10375023 0.13429871 0.1199334 -0.011756463 -0.2233771 0.05769085 0.102606066 -0.11125935 0.34289664 -0.1616734 -0.071072266 0.030726735 -0.08275476 0.17239416 0.259923 -0.095753096 -0.23734175 -0.24621844 0.29059345 -0.18707187 -0.39253166 -0.06437497 -0.011047913 0.209239 0.23020357 0.18331382 0.11214046 -0.028290162 0.26504982 0.17969374 0.014758106 0.07936628 -0.060131148 -0.19062157 0.03546305 -0.05786892 -0.1397924 0.46112302 -0.22318459 -0.13356383 -0.064719945 0.21915504 -0.0862184 -0.027978472 0.16584153 0.30505356 0.12093202 0.05445706 0.07363791 0.108801484 0.077050716 0.2481025 -0.06780368 0.14367722 0.24373613 0.017707804 0.056969125 -0.0870771 0.13979208 -0.14035274 -0.1697674 0.011935893 0.05636532 -0.302704 0.06983154 -0.19375193 -0.08239821 0.024559468 0.14568892 -0.0028700244 -0.09217372 0.48342097 -0.0088213775 -0.343666 -0.44672775 0.30340904 -0.0857713 0.2140025 -0.10941937 -0.17630923 -0.11893904 0.21582684 0.25068867 0.20216353 -0.29677516 -0.06340615 0.32948357 -0.0674262 -0.12822394 0.1034694 0.12449629 0.30128875 0.071827315 0.03587348 -0.23447008 -0.2326113 -0.043412764 0.025737168 0.25260213 0.12754771 -0.108088374 0.18793097 -0.07659873 -0.15290962 0.026914118 -0.33634362 -0.41469276 0.041694075 -0.082917064 -0.14789319 0.3291288 0.0907817 0.07550615 0.108171515 0.059346408 -0.29398292 0.0020593219 0.08777755 0.18685041 -0.017033944 -0.3339604 -0.040970158 0.08821875 -0.24975607 0.31707415 -0.2744722 0.19958556 0.123905666 -0.036790147 -0.20831859 0.042403113 -0.06898429 -0.20600857 -0.018166274 -0.18038806 -0.057658896 0.06600724 -0.5760721 0.11391991 -0.35876554 -0.106551096 -0.2172717 0.07403853 -0.2532314 -0.018626615 -0.15989327 0.04423047 -0.06309768 0.03999121 -0.08435284 -0.20692685 0.32478312 0.047193166 0.32746938 -0.04250809 0.26615363 -0.126291 -0.11231629 -0.40391296 0.045485336 0.22847696 0.012354248 0.083579496 -0.055183265 -0.038610104 -0.1454455 -0.3722683 0.16818255 -0.1602036 0.09329554 -0.09823913 -0.10571326 -0.05216622 -0.16425519 0.2385654 0.007787831 -0.031522486 -0.23138697 0.04686839 0.19986065 0.03821641 0.12063376 -0.20602462 -0.11047425 0.010635221 -0.14719424 0.2719749 0.027116338 -0.029904893 -0.0027595586 0.0840057 0.017863993 -0.068545885 0.13167548 0.004048483 -0.0550433 0.026374558 -0.32159597 0.07255355 -0.053188596 -0.15455882 -0.13204543 0.10931586 0.16123158 0.44544777 -0.05034259 0.26627645 0.19960004 0.13034435 -0.033452272 -0.0014214924 0.08565867 -0.026790142 -0.15510668 -0.047737096 0.13181636 0.686835 0.051285777 -0.05844165 0.396102 0.17899589 0.05823283 0.2795082 0.17410927 0.10641712 0.2048524 0.13516596 0.44156668 -0.3008509 0.1786864 -0.123455025 -0.32909334 -0.04891272 -0.13458867 -0.27976754 0.052361276 -0.19011047 0.39301887 -0.24178526 -0.0030940806 -0.08180427 0.07956029 0.058400042 -0.02170932 -0.11966426 -0.18011324 0.17172788 -0.08128597 0.34653148 -0.10142327 -0.12776732 0.14648606 -0.22176582 0.30844426 0.1420247 0.11727825 0.19070867 0.11121254 0.109833315 -0.39228973 -0.09566402 -0.018662095 0.04838343 -0.0573027 -0.35632196 0.11803242 -0.1576687 0.09697131 2.7731961e-05 -0.39340913 0.05904557 -0.117184855 0.10267765 -0.05961267 -0.103202984 -0.08258627 0.12987876 0.068750285 0.23783423 -0.006291253 -0.45117342 -0.0806144 -0.0845303 -0.05175273 -0.20959269 0.28980416 0.099689916 -0.4885438 0.03297812 0.10515811 0.006338397 -0.1019243 0.22585177
com -0.3440926 -0.10104794 -0.27351254 0.14668171 0.067910455 0.026595535 0.26326743 0.007613728 0.061529152 0.09205848 -0.13025346 -0.22329098 0.11855047 0.26884183 0.06386042 0.24156149 -0.05355644 0.06810756 -0.13133344 -0.091942646 -0.18846159 0.11579958 -0.42601898 0.08157478 -0.1868129 0.11015833 0.23299539 -0.05373591 0.18897429 -0.05509604 -0.055225663 -0.008279057 0.32346293 0.10120002 -0.17700483 -0.120438896 0.35616624 0.2618867 -0.09216961 -0.08059233 -0.069173604 0.043701176 -0.04655532 -0.064748205 0.16648258 -0.21397114 0.1388172 -0.046490353 0.2587364 -0.06526662 -0.122553 -0.087269865 -0.11208844 0.039331622 -0.093720004 0.014625167 -0.036392804 -0.073333725 0.056130834 -0.009392382 -0.06500346 0.2058825 -0.10467679 -0.15598403 0.22150937 -0.073248126 -0.010955229 -0.18067345 0.051534005 -0.042099882 -0.11096082 -0.043851294 0.07397273 -0.049559213 0.03044265 0.14812239 0.099809155 0.42602113 0.49449542 0.11056701 -0.01720954 -0.006038036 -0.049809437 -0.24427822 -0.1119537 0.07103351 0.2099051 -0.19523272 0.09400523 0.027981052 -0.16395032 0.08343899 -0.10243169 0.19262527 -0.27047083 -0.09252234 0.4248106 0.1794322 0.19918516 0.119377464 -0.036899388 -0.059928723 -0.086127825 -0.07916557 -0.34473857 -0.05578142 0.11698551 -0.34351906 0.29339167 0.3681979 0.35280952 0.09341372 0.04925392 -0.19134331 0.09305457 -0.032272484 -0.09599495 -0.14878842 0.2410588 -0.007922194 0.037724353 -0.1370565 -0.101360485 -0.0977684 0.20037887 0.13341406 -0.10193997 -0.17829151 -0.04705099 -0.18318519 -0.03178797 0.3921381 -0.05734082 0.07701643 -0.17452227 -0.13121419 -0.004788589 0.020696638 -0.08614669 0.23831576 0.030526785 -0.10335423 -0.009082347 -0.094786525 0.071681716 -0.06831417 -0.25868097 -0.04220485 0.10995827 0.015544182 0.0886663 0.00784469 -0.32449654 -0.07530133 -0.101222746 0.33181465 -0.29660237 -0.1777726 0.007914983 0.027706325 0.14334783 -0.06428399 -0.1219785 0.026041208 -0.32209742 0.1660162 0.20642158 -0.16208175 0.08631632 -0.021970877 -0.042419832 -0.029044738 0.32195017 -0.2563788 0.20318557 -0.08666817 -0.23741435 0.2359902 -0.12338115 -0.055424117 0.064466044 0.09692329 -0.029542685 0.13765584 0.100871354 0.029402707 0.08073549 0.20698743 0.058796562 0.02484271 0.27638045 0.09053033 0.02684799 0.034997713 0.067420565 0.0146215055 0.15136239 0.13233961 0.28638503 0.09596904 0.017016642 0.122582875 0.19595584 -0.11342342 0.026312934 0.113638304 0.09761641 -0.027332628 0.21346198 -0.16550209 -0.194345 -0.02078411 0.16625321 0.23817857 0.15509628 0.0636041 0.01366585 0.11458167 0.14047153 0.024515273 -0.041188512 -0.024444552 0.033723846 0.33307713 -0.056185935 -0.0403012 -0.013330084 0.0080463 0.025497837 0.08341239 0.09933819 0.19909887 0.25469223 -0.12826963 -0.07711854 -0.057019144 0.40561262 -0.09389516 -0.07130446 0.11804529 -0.016121177 0.040130865 0.16656175 0.0766381 0.30956185 -0.36092854 0.13413155 0.06354322 0.21576025 0.2099599 0.030391173 -0.017477678 -0.15610255 0.25522515 -0.087741025 0.27438846 -0.11038225 0.31521955 0.12135032 -0.10416256 0.11833793 -0.21654515 0.19287798 0.030383391 0.15391643 0.06859713 -0.08135408 -0.38730544 -0.16443165 0.16240053 0.11841052 -0.1000077 -0.15285695 -0.061624393 0.21034253 0.10531178 -0.27922142 0.16638185 0.47317556 0.22724277 -0.018939702 -0.14074479 -0.28459916 -0.23258595 -0.008583573 -0.1006097 0.44422743 0.0007266706 0.35067615 -0.111120515 -0.064250775 0.006734204 0.036957327 -0.33324707 -0.25458318 -0.18100895 0.17178534 0.016785681 0.10758172 0.16221766
ela -0.10700337 0.15286072 0.11355234 0.10290572 0.21002178 0.12584323 -0.024390034 -0.25896782 0.028185027 -0.13238631 -0.08420321 -0.07213058 0.0052531376 -0.029783912 0.12918746 -0.2555295 -0.07202992 -0.37655145 -0.05420899 -0.18022035 -0.2440343 -0.095949955 -0.16973494 0.052793793 -0.1253196 0.24972105 -0.049587097 -0.0015536032 -0.28009287 -0.037736565 0.14018102 0.060849838 -0.22944978 -0.017706467 -0.07227913 -0.17889364 -0.04393726 0.17718667 -0.053203262 -0.12620218 -0.13671732 0.0047899242 0.11508437 -0.1363206 -0.0084455125 -0.0065254485 -0.12550123 -0.24486825 -0.025590751 -0.1817962 0.08865729 -0.030969234 0.058459792 0.020821266 -0.08084791 0.037851494 -0.21036313 -0.02684717 0.1971494 0.06256224 0.036806855 -0.15620558 -0.08289339 -0.07515601 -0.19322921 -0.0652784 -0.17181616 0.058051374 0.042461365 -0.052080028 0.31850457 0.12081376 0.23477955 -0.0864339 0.17851911 0.20670506 -0.14330298 -0.1612649 -0.14025234 0.12612884 0.22547854 0.069607146 -0.054461222 -0.20725167 0.23190834 0.106894396 0.1824368 -0.5702949 0.023504797 -0.17071936 -0.071092404 -0.05827533 0.16886926 -0.075634494 0.26351786 0.09627427 0.07051926 0.086088955 0.020075314 0.11778842 0.08720404 -0.1838745 -0.18612884 0.15113065 -0.025397494 0.21087222 0.048530877 -0.19874704 -0.07483922 0.04996742 -0.06298594 -0.10042291 -0.16037059 -0.15278548 0.06851715 0.14243361 0.012024256 -0.42705852 0.06203982 0.06024316 0.10770126 0.29862866 -0.25318992 0.08099768 -0.11628203 0.0900396 -0.38248548 0.025557114 0.13908798 0.09746263 -0.110379554 -0.029351503 0.008420251 -0.084441245 0.019518776 -0.14989504 0.15255918 0.103059836 0.24394274 0.13578701 -0.04478066 -0.222455 0.37617248 0.15588112 0.075707115 0.066967405 -0.39782205 -0.08495105 -0.20187077 0.04116167 -0.004806212 0.0019681219 -0.20596588 -0.33759707 0.04300426 -0.11447999 -0.15683047 0.05044237 0.09279904 -0.2269268 0.18129203 0.042995945 0.16850138 -0.28418848 -0.11395264 0.10550625 0.23596686 0.29863623 0.03168446 -0.36308894 -0.14321098 -0.077283 0.046239074 -0.048037685 0.09092969 -0.01806149 0.12817483 0.14020453 -0.044881254 0.12962241 -0.3566397 -0.06473631 -0.10628879 0.050036274 -0.18939082 -0.08678586 -0.14743315 0.041905116 0.08041666 -0.17458767 0.098614894 -0.008873495 -0.18056096 -0.23016647 -0.031760085 -0.09933907 -0.00391366 0.029855477 -0.11094522 0.15863308 0.13521537 0.13283226 -0.029738637 0.1315322 0.34583756 -0.017936012 0.22761811 0.064610615 -0.15090871 -0.11147159 -0.25239158 0.067039646 -0.007925132 0.2671274 0.010006071 0.14156257 0.30491522 0.032696005 0.25117356 -0.113953926 0.06570582 -0.019602444 -0.029851094 0.17083448 -0.3144322 0.18361576 0.31285033 -0.12713487 0.061913975 -0.024473969 0.16794965 0.017784722 -0.18250513 -0.06844725 -0.10020107 0.031318024 -0.053895466 0.051007256 -0.12306101 0.0743861 -0.20401904 0.14640865 0.017140474 -0.1640814 -0.26365265 -0.007905872 -0.015225369 0.34979415 -0.1354516 0.014079631 0.16984077 0.079678476 0.21042642 -0.3820275 0.006937959 0.075053 0.10834042 0.09590118 -0.017003033 -0.1566337 0.2697592 -0.23185039 -0.23200986 0.08342942 0.1989343 -0.067654975 -0.38284448 0.13906041 -0.07238085 -0.101550885 -0.06715139 -0.009636597 -0.06778559 0.17960992 -0.046347845 0.029983183 0.16921961 -0.0011138944 0.15050958 0.12030999 -0.017724397 -0.4132218 -0.18880232 -0.17325333 0.25894195 -0.16051205 0.078037456 -0.19041534 -0.058444556 0.0060661985 0.13878673 -0.07509219 0.05861724 -0.09577662 0.19268022 0.022164892 -0.28240874 0.16751273 -0.11114665 -0.16571477
você -0.15362518 -0.0428504 -0.15393037 -0.19695279 0.11989085 -0.12631056 -0.11866053 -0.2793099 -0.042648878 0.047139272 -0.025194198 -0.19295104 0.0631927 0.098735124 0.28423166 0.008094907 0.05306191 0.07966157 -0.46339384 -0.3064106 -0.034273084 -0.17577295 -0.35093164 0.047147725 -0.12987095 0.5381559 0.081387356 -0.06313987 -0.0122521715 0.18934444 0.3673907 -0.20235886 -0.048614446 0.04954533 -0.17309773 0.2560288 0.09534921 0.10525093 -0.056556378 -0.13014783 0.09788205 -0.30335656 -0.104241796 -0.16453256 0.26823926 0.23023614 -0.22453582 -0.30480796 0.1587111 0.058376156 0.0146274045 -0.14989366 -0.031293724 0.20571806 0.20808055 0.055163037 -0.148009 -0.33841965 0.06602975 0.0019969272 0.0653297 0.29419604 -0.1707607 -0.120746955 -0.031350717 0.3362221 -0.057524767 0.04051899 0.060611535 0.013935524 -0.11544901 0.039115988 0.11674777 -0.17155708 0.0055680275 0.15568855 0.02502888 0.024603501 0.15314871 0.23162572 -0.08380132 -0.15721652 0.09672251 0.0025853254 0.4601498 -0.042715073 -0.039629474 0.07140116 -0.08379313 -0.06441529 0.038598023 0.027442869 -0.16822678 0.15341942 -0.098116644 -0.1955306 0.29140702 0.34297094 0.07623207 -0.013873105 -0.03195321 0.017366465 0.15150236 0.031571064 -0.16539033 0.29131353 -0.113581434 -0.3375981 0.024254242 0.32939735 0.11969189 -0.3523419 0.17407563 -0.18995397 0.06845828 0.054872487 0.15705761 -0.1211561 -0.033816315 -0.016865768 -0.03261746 0.23283908 -0.22544567 -0.061501298 0.04602247 0.13397999 -0.21119249 -0.14726152 0.20297472 0.02647043 -0.08150089 0.2608843 0.0047347997 0.004163037 -0.17023562 -0.10606736 -0.09138637 0.22420292 0.11371513 0.20295916 0.082824014 -0.18918888 0.12668909 -0.022940774 0.040450916 0.10692094 -0.4139763 -0.13130845 -0.081257276 -0.26597813 -0.277056 0.21766661 0.058848202 -0.456802 -0.17254417 0.018599859 -0.25142267 0.03746549 -0.09847572 -0.34703615 0.06259295 -0.13990021 0.060884174 -0.52607334 -0.1298607 -0.1557529 0.1997654 0.22952037 -0.032632098 -0.24254 -0.094641514 -0.014499033 -0.12696359 -0.23559842 0.2712554 -0.18329604 0.2565211 0.27387172 -0.11025308 0.15170377 -0.078869335 -0.062560864 0.26445732 0.045351848 0.04262682 0.14694366 -0.069763206 0.119424246 -0.15578121 0.40916774 -0.006383707 -0.070857316 -0.057948112 0.16385998 0.11072608 -0.029044468 0.17003177 0.00051196513 -0.082357205 0.122405335 0.15196854 0.0062361034 0.01952043 -0.26696587 -0.019277839 -0.44121733 0.14221014 -0.21903114 0.08704118 -0.14897032 0.044805348 -0.055934012 -0.21629198 0.21168499 -0.09995247 0.18580425 0.3063356 -0.18095253 -0.047642846 -0.006071653 -0.108336516 0.1145903 -0.25077137 0.19415404 0.0057273638 -0.11495054 -0.0004543136 -0.07503892 -0.20037292 0.10462505 0.08294557 0.3214411 -0.094443135 -0.009508097 0.056364726 -0.07848757 0.16115604 -0.15179007 -0.09066918 0.04765099 0.052413642 0.104447626 0.15031777 -0.04719745 -0.15277661 -0.16659239 -0.16782644 0.053125765 -0.27813908 -0.100858904 0.011834156 0.19099243 -0.30766192 -0.038791336 0.08220368 0.017889058 -0.2700993 -0.08502551 -0.05413922 -0.09727693 0.3555571 0.020132082 0.14208119 0.37077916 -0.14413342 0.059795346 -0.44641635 0.054461386 -0.23444337 0.079173736 -0.19544005 0.34699446 0.07208163 0.18073934 0.014632723 -0.34442705 0.14956343 -0.19942322 0.3653246 0.28754765 0.05760896 -0.43220678 -0.14395271 0.004353336 0.27430418 -0.07381671 0.16666032 -0.108120866 0.22262108 -0.008639145 0.18639307 0.057338923 0.027503824 -0.30905914 0.2756222 0.22196007 -0.076692976 -0.21150056 -0.32981694 -0.097742364
uma -0.21404473 0.29172912 -0.07402684 0.18341653 -0.065658934 0.1614365 0.00082625105 -0.17834926 0.055022478 0.123142354 0.02195808 -0.09494748 0.11115515 -0.1544705 -0.0035928953 0.13022552 -0.041986007 -0.18736751 0.070032574 -0.39384702 -0.06911884 -0.031346332 0.36647072 0.16157413 -0.016097564 0.29942587 0.17403491 0.013575664 0.2649639 -0.32165456 0.18695569 0.34031123 -0.13531624 -0.02957326 0.044428017 0.09207181 0.20794998 -0.27083373 0.054739892 0.097101405 -0.19926976 -0.12393061 0.24239045 -0.13651206 0.27926907 0.01646782 -0.19919124 0.34160277 -0.2604349 0.07521234 -0.15632626 0.18015541 0.30545348 -0.20619453 -0.26790953 0.28160805 0.11889186 0.11710127 -0.04264481 -0.3306441 0.04528281 0.33131817 -0.06462532 0.102668755 -0.12910502 0.06472887 -0.17902428 0.3069737 0.11883997 -0.30135244 -0.007436289 0.018030547 0.2184915 -0.1224755 -0.08624637 0.093184315 0.12198225 0.03142185 0.09945321 -0.12899894 0.12777847 -0.54487634 -0.045142718 0.26991662 0.12535977 -0.18969198 -0.08227846 -0.45047575 -0.12738352 -0.26134846 -0.18298204 0.0012657206 -0.20376052 -0.31068814 0.27141622 -0.23590727 0.097986355 0.039314207 0.13168567 -0.16324262 0.13005494 -0.22036365 -0.18700562 -0.057044055 -0.069523804 0.29646394 -0.058767382 -0.577368 0.025675306 -0.1798181 -0.07734733 -0.13178165 -0.0025805677 -0.014073765 -0.045756362 -0.08382123 -0.08899395 -0.18827872 -0.02045086 0.21861535 0.124386504 0.2494788 -0.2401342 -0.016185775 0.034146674 0.23471795 0.116447836 -0.026051702 0.07313079 -0.054692015 0.17772177 0.034441452 0.14484215 -0.102860846 0.07016416 0.0523701 -0.09860662 -0.019358989 -0.19134577 0.10209389 0.15357447 0.17398158 0.26602492 0.2532665 0.03635542 0.084449045 -0.5190724 -0.09002679 0.009319965 -0.054768533 -0.016423857 -0.06768602 -0.28393954 0.05247295 -0.24537818 -0.0856423 0.1613305 0.0472831 0.08834687 -0.28658113 0.22330107 0.16806169 0.003472918 -0.026821727 -0.023316903 -0.18731324 0.11081931 0.3141588 -0.10323532 0.18833281 -0.3698942 0.28068772 -0.33531076 -0.29564717 0.23844908 -0.006429347 0.070568256 -0.2325219 -0.20581076 0.22722074 -0.2452226 -0.051946748 -0.26535502 0.076620616 -0.06653649 -0.00428674 0.081921645 0.04386071 0.09347613 0.27593148 0.23100613 -0.09535281 -0.26068452 0.27027935 -0.17858149 -0.0721021 -0.047942907 0.025438394 -0.1733174 0.09300617 -0.06320059 0.08987052 -0.14028879 -0.089859486 0.070213184 -0.09655402 0.30670604 -0.042079978 -0.36400965 -0.15499148 -0.014507681 0.1375281 -0.056416884 -0.12597331 -0.0892447 -0.0423184 0.05610537 0.037841953 0.24998806 0.1599153 -0.023667872 -0.15442674 0.2340267 0.32735202 -0.09113013 0.017210856 0.09045363 0.1656124 -0.030364623 -0.14015 0.29529244 -0.34268042 0.11246342 -0.13720632 -0.08192549 -0.22012779 -0.1018438 0.13568223 -0.18578158 0.07645695 0.08023523 -0.014834888 0.30792052 -0.15992941 -0.034136724 -0.32882062 0.2349593 -0.057033855 -0.27096263 0.3307178 0.25340226 0.1521529 0.015235674 0.027639743 -0.4877693 0.3627665 -0.104529664 0.03901135 0.22222443 -0.28723425 -0.07093919 0.06907777 0.1573419 0.094760284 0.0010207292 -0.031565633 -0.3415286 -0.28632888 -0.011305998 -0.06773164 -0.28548995 0.12617756 0.003722224 0.0035732482 0.093226954 -0.36775756 -0.039341446 0.09829589 -0.21381591 0.2698713 -0.053229824 0.0065798373 -0.17159477 -0.031532615 0.46769515 -0.023449617 0.15799114 -0.35673288 0.026789451 -0.17877121 -0.029154424 -0.23884249 -0.22309017 -0.08806996 0.21011513 -0.06951643 0.092407584 -0.07560516 -0.0719536 -0.084459834
pra -0.083999224 0.025957542 0.044281784 0.015115266 0.35810906 -0.17621726 0.110448 0.18739259 0.04343765 0.13949694 0.12443609 -0.29860365 -0.074869916 0.042641222 -0.2157016 0.32887983 0.085957505 -0.020612136 0.16816002 0.21835935 0.040952597 0.3575149 -0.1908567 0.13861021 -0.23896223 0.057755053 0.0058364356 -0.19657211 0.17518581 -0.22983071 -0.14522545 0.11944955 -0.18420623 0.2735109 -0.3380562 0.20455818 0.25176647 -0.29586568 -0.018637009 -0.13036144 -0.19164602 0.058557846 -0.018954907 0.16812797 0.38225725 -0.12208386 0.056403026 -0.07743908 0.041096225 0.07852025 -0.11332316 0.055375468 0.0025067641 0.023703212 -0.16293168 0.26942 0.02768764 0.027199717 0.28960234 0.14118305 -0.22675583 0.25480148 -0.22546993 -0.15035667 -0.17323813 -0.25359836 -0.46984658 0.0035819942 0.1289364 0.010540737 -0.052394044 -0.042008247 -0.16434632 -0.039244577 0.24749748 0.24186236 0.08270004 -0.29208755 0.052624334 -0.04916139 -0.01079131 -0.22194326 0.044904795 0.09614074 0.16675968 -0.07652762 0.08700552 0.099321514 0.23850742 0.15696809 -0.13968046 0.1452303 0.04568652 0.30635226 0.26590902 -0.013591363 0.28253707 0.08295162 -0.10522704 0.15299672 0.22233707 -0.23173325 0.17464112 0.0154434815 -0.0710933 -0.06403423 0.05139591 -0.3091325 0.29670656 0.082335144 0.028939612 -0.045233093 0.011514168 -0.28213796 -0.08613648 -0.26933655 -0.58206326 0.21488775 0.09808949 0.45093095 0.101404004 0.38323498 -0.18092717 0.06994738 0.29928532 0.09672541 -0.17060101 0.020320714 -0.36812747 -0.08414147 0.16891663 -0.08224171 0.12417575 -0.23654164 0.16228548 0.1164857 -0.29147074 0.04457664 0.26670805 0.1835678 0.003673855 -0.14175873 0.44356984 0.33660048 -0.26490077 0.06338214 -0.0094168335 -0.111756176 0.22447656 -0.18959348 0.3383371 -0.22470717 -0.628765 0.06610315 0.15990463 0.20130557 -0.18791269 -0.065426916 -0.09819006 0.08638683 0.064664915 0.13974729 -0.051802058 0.16048598 -0.22388723 -0.03304758 0.00272085 -0.2695195 -0.3544375 -0.09590229 -0.0778933 0.08751013 -0.11179734 -0.034681547 0.0056266426 0.16525935 0.28281713 -0.010174171 -0.011682865 0.019110523 -0.1520683 0.12721808 -0.20240836 0.047512695 -0.2592947 -0.056045398 -0.07686126 0.0050208867 0.13576952 -0.058722675 0.05082943 0.1712587 -0.07777491 0.25265777 -0.20414987 -0.26282007 0.06781007 -0.13442928 0.029608745 -0.016508017 0.23285282 0.02068534 0.1085934 -0.15080138 0.03289113 -0.10198147 0.24527238 0.14117439 0.020369384 -0.04138103 -0.11932996 0.099943034 0.31152642 0.051635295 0.10605021 0.31558633 0.28999066 -0.1426315 0.10644643 0.21656516 0.0075526154 0.20543219 0.13056771 0.2475352 -0.08098003 0.3438198 -0.2623211 0.059851244 -0.124967486 0.19563723 0.08058665 -0.011002332 0.05793648 -0.27114677 -0.068188205 -0.047232527 0.3099641 -0.07044606 -0.252156 0.08444237 0.010137254 0.20011154 -0.12901722 -0.11864977 0.24757509 -0.14460112 -0.16460548 0.09124065 0.0030499527 0.097376 0.12574501 -0.03403577 0.101951905 0.114299476 -0.27137294 0.05957198 -0.09764345 0.18535326 0.11424816 0.28802848 0.22420628 -0.1078652 0.011423759 0.25421497 0.10076351 0.057959832 -0.31470385 -0.11824778 0.047977056 -0.13835472 -0.17714606 -0.056091253 -0.25784054 0.05804822 0.23712482 -0.27553597 0.12801512 -0.061872914 -0.031640235 -0.023403248 -0.09777505 -0.015499162 0.11367338 -0.13547045 0.15589733 0.30152723 -0.10990147 -0.17789963 0.09049957 -0.14445083 0.121635504 -0.081895106 -0.08877606 -0.1789484 -0.22599192 -0.09930435 -0.035342712 0.059456926 -0.05636859 -0.05324391
puta 0.0986866 0.31598383 -0.026124977 0.077860676 0.11368112 -0.21353166 0.09611159 -0.36429167 0.36475644 0.21350788 -0.069971144 -0.4127702 -0.044590935 0.5107655 0.085576765 -0.10632108 -0.0025506583 0.026574824 -0.40938017 -0.10280683 0.31629935 0.01991566 -0.21887471 -0.22252949 -0.30941626 0.49023604 0.12542447 -0.21235691 -0.3127396 -0.058425486 -0.068074346 -0.13927756 -0.17261413 0.04510989 -0.23577078 0.028069232 0.3312695 -0.24659841 -0.03775257 -0.09916068 -0.01214921 -0.17487389 -0.42680734 0.14709876 0.29435304 0.025813665 -0.035439495 -0.25616866 -0.090311356 -0.019773183 -0.33921254 -0.26208147 0.09335558 -0.19233374 0.09041193 0.17740048 -0.08789916 0.25369328 0.30790988 0.07156736 -0.008711069 0.28328508 0.17946279 -0.14051506 0.038057834 0.08454264 0.10599469 0.03144523 0.077395104 -0.070847526 -0.22686626 -0.07511313 0.303383 -0.32056242 0.021328315 -0.018123746 -0.29173905 -0.0353939 0.22603749 0.03061996 -0.42683002 -0.089600876 -0.09834062 -0.082818754 -0.04298766 0.017978117 -0.029899964 -0.057299927 0.08114633 -0.2921293 -0.20210122 -0.05797459 -0.07877906 0.37229633 -0.3280489 -0.005592643 -0.0400356 -0.11321425 0.011815434 0.3072379 -0.050768137 -0.119260184 -0.0065361015 0.2997033 0.476784 -0.2574455 0.05326998 -0.08467664 0.12372787 -0.009061137 -0.05510874 0.17574085 -0.25153968 -0.53389865 -0.077681035 0.015832659 -0.21159568 0.23625694 0.30760512 0.42220652 0.08711892 0.20386833 -0.087965265 -0.27254218 0.12805666 0.0882219 -0.032176014 -0.38087377 -0.3374007 0.04597014 -0.10006283 0.09367516 -0.30974638 0.08189898 0.37413356 0.09261178 -0.068506874 -0.23324098 -0.31423125 -0.13920513 -0.2502024 -0.20905937 0.08418919 -0.08423036 0.041425936 -0.22976309 -0.42781967 -0.24775812 0.056733645 -0.0031972583 -0.07215514 0.2523668 0.067087226 0.09352945 -0.29537168 0.21738319 -0.09256062 -0.083290316 0.5006001 -0.30992875 0.15324074 -0.29013702 0.019625448 -0.0002113597 0.013671784 -0.09323392 -0.05925577 0.15082142 0.008921314 -0.29658043 0.23764297 -0.12623647 0.16755776 -0.2687745 -0.07606403 -0.14801387 0.3746551 0.22950578 0.10759457 0.1579278 0.18538952 0.119029105 0.09262034 0.043094553 -0.07143519 -0.1706685 0.08327031 -0.15046448 0.0006642069 -0.23358655 0.3098536 -0.011814014 -0.2823997 0.26440433 0.040881466 0.035207905 0.26402587 0.00699485 0.061193876 0.01625329 0.102210276 -0.05364356 0.12922086 0.12607974 -0.104757115 -0.0704672 0.3550334 -0.2810255 -0.20641725 0.121594995 0.03021801 0.38934678 0.27055526 0.09627795 0.08037472 0.13298109 0.1494285 0.047551963 -0.09513226 0.004355092 -0.03203334 0.40124103 0.070609406 -0.030419914 -0.11441248 -0.18639265 -0.14869745 0.020351108 -0.039848093 0.21980552 -0.15279622 0.126313 0.1467971 -0.036298674 -0.00017591869 -0.3667423 0.10194211 0.036280278 -0.05872922 -0.09445106 -0.2274424 -0.075540565 -0.30598298 0.23423906 0.013468593 -0.5512499 -0.03918472 0.06771122 -0.070425406 -0.1388404 -0.0015153283 -0.1570004 0.22996256 -0.28091112 0.032339886 0.060701203 -0.1996256 0.013066034 0.046911817 -0.062645756 0.2575677 -0.30838203 0.14286281 -0.007290782 0.29897308 -0.22867534 -0.037377816 0.020717483 0.045254946 -0.06337766 -0.0056810393 -0.32847562 -0.14518568 0.17938529 -0.12759706 -0.011839794 0.21087785 0.041683108 -0.18210812 0.14660864 -0.2579362 -0.09270224 0.14494646 -0.038646575 0.023716768 0.16600202 -0.20307754 -0.1682982 -0.25577217 0.123386286 -0.13931754 -0.15894811 -0.20145254 0.12528834 -0.17982472 0.028399369 0.07829495 0.086942494 0.017760683 -0.058991548
do 0.124579035 0.12969334 -0.067601666 -0.24420609 0.034646712 -0.042278692 0.15856205 0.16056077 -0.18242438 -0.20449457 -0.083396725 0.1051662 -0.17292698 0.1540107 0.13290948 0.10243666 -0.024959348 -0.1782211 -0.16943564 0.09216216 -0.11447467 0.3661633 0.017573174 0.12790988 -0.294797 -0.010957663 0.027033992 -0.31936574 0.031951018 -0.26233697 0.13882257 -0.039930146 0.047764055 0.062580176 -0.2455836 0.101377234 0.13246764 -0.05750991 0.06277258 -0.18823089 -0.34358346 0.04758572 0.105365105 -0.21762407 0.6822424 -0.30506226 0.20035823 0.036624305 0.14225967 0.077671506 -0.14429508 -0.06253405 0.18131615 0.35269034 -0.14545488 0.21214041 -0.07701163 -0.16238499 -0.1510085 -0.29914588 0.19586532 0.19114484 0.32328743 0.2089907 0.15527704 0.04262608 -0.15914947 0.118254416 0.080093175 0.20783357 -0.08905889 0.06241892 -0.34449935 -0.10298326 0.46267745 0.300928 0.04205716 0.019635431 0.1446835 0.2537656 -0.028107146 0.1006541 0.065151334 0.0067490665 -0.031231828 -0.21549273 0.011101272 -0.16574737 -0.24110562 0.15954977 0.1097125 0.062906474 0.02193371 -0.057226438 0.30366135 -0.2315975 0.18344477 0.012560977 0.17042623 0.08156837 -0.14864795 -0.09956651 0.016615128 0.20873277 -0.13445555 -0.18551204 -0.0006521092 -0.2690318 0.011085635 0.048779607 0.025376206 0.11970388 -0.058156155 -0.14980088 -0.093803674 -0.25350386 -0.21338145 0.177797 -0.16346306 -0.057732884 -0.024905138 -0.15211082 -0.03983268 -0.16389644 0.031726133 -0.0061625456 0.15717475 0.00898306 0.26656023 0.23953271 -0.14447165 0.044860274 0.10712981 -0.12891349 0.17909381 -0.005867365 -0.1617471 -0.12455552 -0.036948744 -0.09178723 -0.0018735259 0.07060219 0.15877388 0.16876209 -0.20443028 -0.018659664 -0.15297048 0.1378665 0.19400509 0.44795755 0.3083676 0.17795302 -0.063098274 -0.080982916 -0.030049361 0.2102324 -0.3231497 -0.15754244 -0.11007535 0.091847196 -0.16074878 0.2990594 0.15843728 -0.052172247 -0.01072169 0.029091228 0.1581159 -0.08232142 0.12308428 0.12287355 0.22921291 0.08976041 0.04561804 0.02043139 0.02032341 0.20048913 0.16843605 -0.0527499 -0.20935443 -0.14264897 0.092946395 0.15484197 -0.2974983 -0.06348343 0.044530198 0.016323753 -0.17897457 -0.024170635 -0.20659907 0.114176214 0.25853997 0.377216 0.10160185 0.06196448 0.058099613 -0.21584794 0.20410998 0.26239783 -0.14599527 -0.29104084 0.05262 0.1594904 0.17069484 0.08692177 0.10614817 -0.17253803 -0.0057944497 0.20286512 -0.0070121577 -0.34011906 -0.24244913 -0.28843662 0.1260214 0.33460796 0.04394913 0.25929767 0.07368332 -0.1044996 0.11626809 0.09654433 -0.2515563 0.018190222 0.042581607 0.40283862 0.09801481 -0.051774368 0.10638507 0.3382981 -0.38568887 -0.009420003 0.13599521 0.104478575 -0.17771274 0.16005719 0.011266435 -0.27873302 0.5474643 -0.22206697 -0.023146307 0.09589151 0.07215972 -0.06550888 0.16539884 0.054954458 0.12639612 0.034666326 0.08623038 0.10489053 0.092559196 0.07181233 -0.09768209 -0.36280215 -0.07384853 0.32824266 -0.23213819 0.3634939 -0.031481393 -0.16797848 -0.10748447 0.25083664 0.044716142 0.12938228 0.0007577715 0.48233962 0.32570103 0.3648879 -0.04443449 -0.39115295 0.020995935 -0.11137301 -0.14858398 -0.04482567 -0.12278477 0.057733554 0.05920878 -0.0172754 -0.24005742 -0.036395267 -0.19065289 -0.0195688 0.03592537 -0.27761993 0.03536906 0.38697627 0.27153918 0.03796231 -0.0484435 -0.2756315 0.1194487 -0.16444077 -0.11114813 -0.045056354 0.013625171 -0.13754435 -0.07662244 -0.22161643 -0.03845118 -0.19479072 0.13087103 0.18909036
 0.20480444 -0.051194377 -0.11196746 -0.2398669 -0.084276795 0.008455515 0.33844796 -0.29604152 0.40023625 -0.15572397 0.062447213 -0.14988044 -0.11478822 0.37613577 -0.043638345 0.2651345 0.17061032 0.090840675 -0.65105504 -0.1061415 -0.067397155 0.16064307 -0.06797728 -0.038319193 -0.10429513 0.16853502 0.16268232 0.03073907 0.16589463 0.13508733 0.22007582 0.0070722857 0.030714232 -0.055778556 0.06518999 0.05521924 -0.08319993 -0.048145127 0.036151808 0.07155908 0.1809804 -0.08901356 -0.010276785 -0.20323753 0.21357477 -0.16785449 -0.07441012 -0.014010637 0.22403662 0.19976589 -0.15203582 -0.07764702 0.0072868858 -0.21271835 0.046535242 -0.05084979 0.008182878 -0.37150925 -0.1481032 -0.35952696 0.087271325 0.15719111 -0.017085414 -0.008582744 0.02743745 0.3754511 -0.15647537 -0.19304149 0.08206905 0.12767272 -0.18494134 -0.006286245 0.039115272 0.30550623 -0.295201 -0.17342062 0.1982836 0.0739092 0.72998947 0.15864523 -0.091264084 0.10878618 -0.121429205 0.0008732545 -0.086783424 -0.033337437 0.23031393 -0.22054176 -0.31341967 0.035042223 -0.027650852 0.069756575 0.110423535 -0.34338084 -0.08062347 -0.25674447 0.2280675 -0.0903956 0.1461923 0.10136412 -0.06894546 -0.09351116 -0.08407666 0.3779605 -0.32772666 0.107600145 -0.04761162 -0.26879892 0.29343024 0.13889712 0.13039516 0.1444671 0.2031883 -0.018804224 0.22859687 -0.255244 0.11068184 0.070327595 -0.006503511 -0.3203133 -0.06075947 -0.024958003 -0.43085563 -0.119479306 -0.15930474 0.020066457 0.16876523 -0.25217196 0.13296044 -0.060648553 -0.10943234 -0.1021735 0.21191102 -0.08657538 -0.1515109 -0.31384903 -0.04841272 0.312921 -0.104331814 -0.02545223 0.11427138 -0.05750834 -0.087511584 -0.20804365 -0.01615391 0.118147045 -0.046108425 -0.030258866 -0.05615009 -0.25488135 -0.012278419 0.10582542 -0.06496355 -0.12295698 -0.12035703 0.21049255 0.009571463 0.06750022 0.31886196 -0.20137791 0.10253964 -0.11234871 0.2538142 -0.32072213 -0.1541624 -0.21646719 0.20750353 -0.23402375 0.28293255 0.088822946 0.2830917 -0.0062359995 -0.10630627 0.045447737 0.09266863 0.15229647 0.14467958 0.03835228 -0.3977306 0.051188387 -0.05778199 0.026207896 -0.08367973 -0.12909752 -0.25213394 -0.07748425 0.08385472 0.13422112 -0.116794355 0.10190977 0.077261716 0.15743324 0.072030194 0.08053014 -0.081173316 0.10886729 -0.3605915 0.035017997 0.26173076 0.14298536 -0.1204877 -0.053674366 -0.043817822 -0.18238445 0.30476886 -0.25650182 0.09520129 -0.20911707 -0.04978049 0.1031154 0.013272058 0.0713221 0.19445601 0.05952857 0.18199874 0.0039707352 0.028522417 -0.18066496 0.048693303 0.133071 -0.16665249 0.1207407 -0.05040365 0.29743096 -0.15106063 -0.108065404 -0.03502596 -0.025495457 0.13650353 0.15748775 0.091377035 -0.13070041 0.007938707 -0.14963952 0.20567185 -0.43553934 0.19708797 -0.107080005 -0.28208086 -0.001076642 -0.06486364 0.061582856 0.3183073 -0.010451468 0.14366691 -0.21887703 0.05792307 0.0014987004 -0.071205035 0.2483508 -0.104482 0.15940651 -0.044133365 0.047046326 -0.08089347 0.2449342 -0.3248393 -0.036117677 -0.06351732 -0.02211568 -0.07940203 0.2442908 -0.15066004 -0.062494595 -0.27406132 -0.017568506 -0.45296973 -0.08203253 -0.078237146 0.3930777 -0.34001836 0.10532089 -0.11528143 -0.018063715 0.028483497 -0.11859704 -0.07263504 0.030287102 0.1770116 0.16545346 -0.03401178 -0.20533977 0.05519232 0.2263412 0.31359184 -0.0589297 -0.02748465 -0.20623077 0.20932248 -0.19779262 0.16372515 0.31616083 0.013172274 -0.17546302 -0.009100633 0.2836783 0.27356282 -0.105427496 -0.2491275 0.07264634
gil -0.22276738 -0.2965864 -0.22652029 -0.13299908 0.24449904 -0.12483088 -0.0091089 -0.01348562 0.0057575484 -0.119304955 0.24760053 -0.093893975 -0.13588285 0.23507535 -0.27531257 0.022582287 0.1780927 -0.3434242 -0.21024421 0.115750395 0.02338449 -0.094960056 -0.14669092 0.043355227 -0.3570869 0.27734312 -0.09456977 0.24427257 -0.08957116 0.37844813 -0.23290461 -0.19330068 0.044254486 -0.46006584 -0.5447317 -0.09522268 0.34487975 0.03262113 -0.29578584 0.07723796 -0.34909943 -0.06164551 0.019100975 -0.21088709 0.3015433 0.091214076 0.011835801 -0.31179523 0.32655734 0.079852745 0.3102252 -0.32078987 -0.1734623 0.18982863 -0.5085871 -0.18082868 0.09488 0.07967612 0.07926027 -0.3093999 0.1702757 -0.029371249 -0.24240075 -0.100002825 -0.1381644 -0.039316643 -0.09042167 -0.2650568 0.37962663 0.2995416 -0.23512512 0.18885243 0.2182311 -0.31230724 -0.2949106 0.035025686 0.54909414 -0.044970024 0.57281935 0.14615698 -0.12000749 -0.18907872 -0.24544735 -0.004440397 -0.27426574 0.076743014 0.3896124 -0.44401047 -0.20307471 -0.22725472 -0.040924154 -0.037263412 0.21825287 0.0052124294 0.08069778 0.036733404 -0.08531156 -0.15606043 0.021382924 0.42650765 -0.36963615 -0.14362216 -0.10971164 -0.31120053 -0.0371365 0.13002615 -0.063754134 -0.2621488 -0.027061664 -0.15980065 -0.22178479 -0.11987773 0.5009185 -0.096780166 0.30014402 0.086499125 -0.2830483 0.16158423 0.29214615 0.12294909 0.36492255 0.2178698 0.14722489 -0.34685367 0.070883065 0.018293982 0.030689094 -0.030658372 0.0844878 -0.2544361 -0.14282814 -0.38382304 0.0499729 0.23424973 -0.16526783 0.064389266 -0.22800048 0.24630806 0.08846905 0.2027694 -0.05427406 -0.27753273 0.026424602 -0.17763159 -0.010634352 -0.026785593 -0.58620024 -0.22240314 -0.40163642 -0.11320341 -0.098514035 0.24611491 -0.21507628 -0.62911415 -0.004659177 -0.09312677 -0.19939514 -0.33782837 -0.05526102 -0.58580893 0.23643824 -0.032773554 0.06765191 -0.40445083 -0.16351105 -0.099819236 0.10189384 0.12928228 0.18205516 -0.13823728 -0.15929435 0.10064191 -0.06889287 -0.23794821 0.464955 0.28716537 0.15395492 -0.04137532 -0.21471156 -0.20378414 0.036959894 -0.22502056 0.008005276 -0.051042523 0.07315316 -0.23459294 -0.103173934 0.0100738155 0.18767597 0.0981369 0.16199444 -0.20050322 -0.1847761 0.0037681228 0.04333012 -0.03571098 -0.0054312167 0.098195784 0.43412566 0.076711334 -0.17891666 -0.021830805 0.06543576 0.0032687644 0.2965153 -0.25482607 0.10788192 -0.02766752 0.27157867 0.22161484 -0.36624748 0.1634473 0.20351163 0.10855598 0.18497956 0.04076208 0.32153386 -0.005465351 -0.15052667 0.29488644 -0.13548183 0.059439085 -0.0738293 0.16462262 -0.55009174 0.069027305 0.13879117 -0.2835084 -0.12376057 -0.012246462 0.40335068 -0.41844153 0.028034607 -0.07145666 0.16032107 -0.025734905 0.027217695 -0.19952753 -0.6237611 -0.33685994 -0.22816534 -0.13997978 0.057737026 0.17878832 -0.12797128 -0.4170744 -0.16620618 0.006445954 0.04550135 0.4308664 -0.006857597 0.41533864 0.02919405 -0.08321425 -0.14271021 0.44806907 -0.21770422 0.14889504 -0.014551187 -0.007340176 0.12637015 0.28613034 -0.16442779 0.03840284 -0.42686298 0.37298682 -0.3331263 0.08886707 -0.07288606 0.2390351 -0.31047034 0.3779016 -0.0472167 0.106528826 -0.15380712 -0.10957433 -0.22371916 -0.2586616 0.12246332 0.33812815 0.048380915 -0.52130735 0.22916034 -0.15597154 0.30693263 0.12676644 0.42143065 -0.10867987 0.15682574 -0.08061407 0.036047652 -0.14273648 0.3763943 -0.24314085 -0.2003552 -0.045908514 0.09157735 0.1955292 -0.0456495 0.37788588
se 0.17063679 0.11281604 -0.013090389 -0.09519005 0.11441131 -0.07917101 0.040566035 0.22529687 -0.16299275 0.1783993 0.18184568 -0.05550426 -0.034552142 0.0874814 0.06432168 0.0588042 0.004348168 -0.19451621 -0.1766746 -0.07836108 0.23617643 0.13168333 -0.20059253 0.10061388 -0.1629058 0.23009238 -0.013287559 0.16731256 0.0946455 -0.13299589 0.05505867 -0.014392093 -0.0696338 -0.046028238 -0.080235034 0.1881459 -0.034495413 -0.17418905 0.0016999044 -0.059136096 -0.11343113 -0.021426799 0.11925888 0.049237337 0.36444312 -0.04021872 -0.017437382 0.123321585 0.09177267 -0.10131851 -0.05700981 -0.08045989 0.087877214 0.22057141 0.01925797 0.10565235 -0.095013805 0.029928911 0.086004354 -0.045148317 0.025749728 0.13412955 -0.12859511 0.13156874 -0.12559722 -0.014238701 -0.20917927 0.23158818 0.1004955 -0.06422261 -0.19034585 0.011296926 0.27868128 -0.17885543 -0.2347424 -0.009412285 0.019450275 0.1417587 0.20482458 -0.046432696 -0.053577915 -0.034981005 0.23970239 0.06481432 0.09277986 -0.23941964 0.009055361 -0.13664812 -0.20669796 -0.0015886461 0.019614637 -0.07179229 -0.15597314 0.33258924 -0.122327104 -0.2698683 0.30543444 -0.024752427 0.05948755 -0.014908568 0.26702082 -0.31637704 -0.24357353 0.044834998 -0.018512845 0.008353152 0.011724053 -0.21325518 0.21100213 0.05412051 -0.13044791 0.08284099 0.20395383 -0.09559367 0.28622368 0.0076488922 0.09052843 0.08878344 0.12695879 -0.05925953 0.089032345 0.121766195 -0.20534709 0.026575234 -0.01928653 -0.0013513943 0.09761372 0.1096165 -0.0333943 -0.15547001 0.20722567 0.20854525 -0.12583604 0.032055236 0.03998106 0.03422079 0.1126326 0.10475196 -0.16407757 -0.01735382 -0.079796635 -0.116053686 0.07389596 0.18414365 -0.080712415 0.005344661 -0.5260274 -0.14207506 0.26692432 0.1143185 0.1955318 0.07576237 -0.13155787 -0.09295645 -0.011473537 -0.045958422 -0.035014372 -0.12895752 -0.0006472484 -0.043950517 0.08725488 0.27047595 0.1981824 0.032235578 -0.22874184 -0.08602988 0.06919966 0.2642381 0.08910711 -0.04496789 -0.08236718 -0.088349305 -0.13893153 0.031348657 0.109616116 -0.15579225 0.31459942 -0.083478585 -0.23451303 -0.0811841 -0.14402412 -0.21007177 -0.009575786 -0.077341 0.08979656 -0.20957917 0.10194015 -0.14718398 0.080025405 0.010605188 0.14650129 0.10859226 -0.13144687 0.06926322 0.14999804 -0.09300395 -0.06987859 -0.04137788 -0.07806802 0.03790199 -0.17758532 0.21148105 0.023359906 -0.14775604 0.03694402 -0.13322496 0.39529645 0.23495588 -0.25987375 -0.057938725 -0.23445134 -0.018508703 0.09190724 0.20771997 -0.037889145 -0.07612315 -0.017113855 0.004174368 0.104155734 0.066438824 -0.05906922 -0.06420586 0.13957725 0.07863201 -0.18547362 0.1039795 -0.09840467 0.16185604 -0.01672547 -0.14377114 0.028508484 0.1349156 -0.091485985 -0.002631438 0.024897337 -0.014851574 0.03942905 0.15353407 -0.097788356 -0.01898398 -0.24631363 0.054604806 0.021873256 -0.09249017 -0.030546589 -0.24622943 0.36167136 -0.021885766 -0.17849572 0.15061235 0.07090338 0.22402413 0.07906211 0.09703846 -0.24034409 0.21232973 -0.048348404 0.0010456482 0.051252212 -0.17957096 0.1300152 -0.02712878 0.06910973 0.21555299 -0.080875196 0.0015086083 -0.18420668 0.01862217 0.026087139 0.054171473 -0.039460596 -0.14544497 0.017841663 0.036965717 -0.1929063 -0.13484469 0.12430155 0.114206724 -0.14561656 0.2902654 0.0090219695 0.16386752 -0.10792101 -0.060488973 0.144591 0.114628814 0.20463236 -0.0037767563 0.0319219 -0.13060305 0.040219117 -0.28390718 -0.11715955 -0.06589639 0.01882222 -0.08741475 -0.17672773 0.07532586 0.17197838 -0.029221691
FACE 0.4557865 0.09480557 0.50674284 -0.07806365 -0.4059839 -0.33106968 0.48246482 -0.19798507 0.24472523 0.046875633 -0.101013094 -0.3703162 -0.34526378 -0.1021624 0.4678309 -0.45302036 -0.101646066 -0.31432 -0.43094078 5.2658863e-05 0.17522714 0.24187604 -0.018939245 -0.13769808 -0.38444483 0.3134389 -0.07473945 -0.22999488 0.14119704 -0.21303548 0.06754923 -0.049199857 -0.17150664 0.1547762 -0.2696823 0.21283829 -0.03806583 -0.03626764 0.086113155 0.24718058 -0.28206638 0.14792937 0.19044717 -0.3573021 0.36732027 0.03719589 -0.1494775 -0.29291582 -0.16951539 -0.05268848 0.15034728 -0.094435856 0.16662028 0.017754177 -0.34001464 -0.044441927 0.00037805876 -0.2942987 -0.07421529 -0.52354735 -0.05066687 0.046367906 -0.28728923 0.11834744 -0.27134636 0.2954351 -0.034700427 0.39064324 0.13347188 -0.03672409 -0.16137296 -0.21414411 0.28567988 0.5006941 0.10964307 -0.09538753 -0.024890056 -0.18206218 0.3596701 0.009676667 0.4800774 -0.17798391 0.018593498 -0.1820607 -0.10059646 0.14950664 0.31154174 -0.67666817 -0.029012421 -0.10204111 0.10912584 -0.341934 -0.028878279 -0.06952203 -0.0762381 -0.21833879 0.29405698 -0.19589618 0.34909892 -0.2676955 -0.2048429 -0.4342202 -0.22466166 0.16470183 -0.14506622 -0.28362134 0.28163695 0.1307229 0.12982804 0.0017914951 0.18797524 0.2583107 -0.35178924 0.18343998 0.268915 -0.0025489405 -0.26572117 0.3258861 -0.14321731 -0.14288385 0.43507713 -0.24521305 -0.1380836 -0.24916777 0.15590073 0.042077187 -0.030441966 -0.11351672 0.09671883 -0.215049 0.26558915 0.47591838 -0.16570318 0.08340655 -0.25370952 -0.42287228 0.23201735 -0.21020377 -0.26870936 -0.1819745 0.42045125 0.21909797 0.29187775 -0.12478152 -0.03976318 0.021961762 -0.089408085 0.114723295 -0.060432658 -0.0742466 0.48976934 -0.11604925 -0.26703697 0.59766865 -0.29469657 -0.14134175 0.16006474 0.3364278 -0.11200788 0.058743097 0.28608015 0.0029453668 0.24124907 -0.33312958 0.24426888 0.095367566 -0.004626904 -0.011033901 0.36326438 -0.47338456 0.30256745 -0.19183631 -0.2614692 -0.039748937 0.025903324 -0.14473408 0.5060327 -0.23441386 -0.19780245 -0.17738298 0.1790699 0.04965321 0.29369488 -0.009368668 -0.7204015 -0.048420623 0.153458 -0.27659714 -0.2136407 -0.15169011 0.27451998 -0.17285505 -0.31248194 -0.051068284 -0.07358449 -0.5143158 -0.22486182 0.19833358 0.33128068 -0.3103128 0.3112792 0.060567454 -0.25890395 -0.12653306 0.32766357 -0.18686444 0.28978756 0.052662086 -0.22766683 -0.16802299 -0.060484283 0.21395247 0.29973388 0.46092653 0.120463766 0.46099126 0.13171074 -0.036496453 -0.028459167 0.17520913 0.07789282 0.30340406 -0.017189259 0.087795965 -0.3364059 0.22398438 0.17309766 0.07948965 -0.124582656 0.017894397 -0.10554903 -0.10062977 0.124825895 0.28881997 0.18119426 -0.2344934 0.014396162 0.19297063 0.15718104 -0.03562124 0.30257192 0.092344396 0.33789518 0.009615447 0.053600755 -0.07777327 -0.12795717 -0.08357644 0.09499856 -0.06816979 -0.015375359 -0.0810973 0.3335881 -0.29899105 -0.089305595 -0.01526862 -0.42223182 -0.022701744 -0.0206204 0.038702972 -0.105169766 0.06953162 0.13315311 -0.23045042 0.26363853 0.11179934 -0.5186566 -0.32050735 -0.21914068 -0.15349735 -0.5252292 -0.09781628 -0.35207847 0.34279817 0.17271994 -0.30306917 0.039875813 0.2687192 -0.041464012 0.38511372 0.07034776 -0.10374653 -0.22674887 0.19263622 0.17753479 0.033554174 -0.25101805 -0.27672037 -0.123922095 -0.21108466 0.17050771 0.084396146 -0.30428633 0.10131862 -0.07103555 0.12514937 0.053487595 0.43036738 0.31478408 -0.3788311
eu -0.06847977 0.1921303 0.119897276 0.21941373 0.049187485 -0.06331354 0.2071697 -0.2829337 0.030444797 0.31520423 0.027877076 -0.07788187 -0.032579847 0.26160765 0.21763127 -0.24402183 0.01052728 -0.061101153 -0.41890773 -0.2253441 0.24127604 -0.051545598 -0.14079377 0.27358788 -0.21400066 0.29972506 -0.018940127 0.011967465 0.13239759 -0.023712287 -0.08449056 0.13649996 -0.011765791 0.043377206 -0.22468922 -0.22924376 0.34893242 -0.0716062 -0.15630375 0.34052658 0.103534244 0.022203587 0.16709983 0.038100813 0.2905994 0.15541008 -0.12500794 -0.07919925 -0.06092128 -0.3416536 -0.12858136 -0.033456124 -0.083905965 -0.089623384 -0.22319512 0.07247481 0.19101954 0.23994416 0.29702118 -0.023442658 -0.054266255 0.27076173 -0.17056963 -0.09995189 -0.14674516 0.0005360881 -0.07143573 -0.024207879 -0.021053936 0.013526432 -0.11138101 -0.057100825 0.035839736 -0.042302977 -0.00272287 0.076268695 -0.023213988 0.16924755 -0.09706939 -0.12320414 0.07840812 -0.15478826 0.038128164 -0.22545864 -0.06384333 -0.0069074403 -0.27731973 -0.40361956 -0.23814955 -0.13579017 -0.16732764 -0.20897001 -0.187958 0.23460105 -0.24123825 -0.066745445 0.43919173 0.03903293 0.27700478 -0.13774571 -0.016596334 -0.16099414 -0.09896393 0.11985508 -0.12207326 -0.08669804 -0.1001134 -0.09496688 0.2929427 -0.066225775 0.11540312 0.13338801 0.10397324 -0.33275363 0.16406228 0.053428743 -0.20714231 0.015503527 0.53491837 0.17192286 -0.08266765 0.003518396 -0.1576235 -0.33997345 0.17246212 -0.0864726 0.22159056 -0.20874752 -0.04095118 0.033239134 0.14813122 0.08632768 -0.0831096 0.06967316 -0.16306953 -0.051738754 0.3763841 0.0651219 -0.104918964 0.15220189 0.09089985 0.02326615 -7.373546e-05 0.13366222 0.1265909 0.050154816 -0.05988218 0.012182681 -0.043813698 -0.2405101 0.2083816 0.30972984 -0.20215023 -0.0871761 -0.0399111 0.079709776 -0.3403837 -0.018911634 0.057069596 -0.19327529 -0.0071781552 0.07570553 0.14533557 0.08692827 -0.1987111 0.105213195 0.12971815 0.18523705 0.15504862 -0.42740875 -0.04532135 -0.07556227 -0.32393992 -0.16791318 0.102305286 -0.017760634 0.29117158 0.098606125 -0.19578204 0.019659804 0.13796459 0.06893252 -0.03300613 -0.08071205 -0.0124398535 -0.12640138 -0.0114610195 0.14903694 0.0919662 -0.07236614 0.13758425 0.24956347 -0.23031558 -0.10966272 -0.07028233 -0.20736931 0.10642606 0.058452573 -0.095674634 0.028101746 -0.019954586 0.27335477 0.12653914 0.1795404 0.1320457 -0.26050174 0.33818656 0.027998801 -0.28882632 0.06855655 -0.39715645 0.5073567 0.40079427 0.1440834 -0.10113288 0.005629638 0.108890764 0.21145809 0.25253522 -0.20678318 -0.027887905 0.06823178 0.23127015 0.17957754 -0.30542308 0.099671885 -0.011456883 0.11073763 -0.22567654 -0.4059757 0.07912804 -0.16614501 0.30567077 0.0063907634 0.06668507 -0.19432378 0.068445265 -0.035625458 -0.07165119 0.0259148 0.010633622 0.36334646 0.01934398 0.27961615 -0.056484774 -0.24443616 0.07267414 0.3255056 -0.138758 0.009263299 0.12564251 0.1726437 0.08423246 0.026270878 -0.047032584 -0.107475564 -0.08765782 0.20126571 0.10869269 -0.08692137 -0.12540169 -0.49858752 0.28895408 -0.06328748 0.3359995 -0.20064382 -0.35847548 -0.28375238 0.029608518 0.23349711 0.12545784 -0.04664907 -0.21754314 0.04700736 0.08616193 0.1629281 0.20723769 0.3022713 0.17658314 0.1935802 0.23744573 -0.12384269 -0.04577463 -0.25826377 -0.16926949 -0.15843722 0.1855006 -0.00962848 0.09565528 -0.031856038 0.017015072 -0.07300493 -0.3474055 -0.37882644 -0.10145809 -0.2083011 0.14815861 0.12527177 0.22328547 0.026729615
essa -0.1673141 0.24493118 0.3102671 -0.15914366 -0.057430893 -0.13539457 0.07493919 -0.1460934 -0.17217305 -0.042771865 0.27900496 -0.06305649 -0.113659605 -0.07623813 0.1082394 0.18328969 -0.24680264 -0.049660392 -0.0932793 -0.13491921 -0.028184108 -0.061605837 -0.042790152 0.0869353 -0.15454516 0.47290722 -0.021353923 -0.14004421 -0.0367161 -0.07441734 0.086134076 0.22217444 -0.31674862 0.21857274 -0.49228925 0.15341368 -0.16483414 -0.44734138 0.13926314 0.17518006 -0.13918918 -0.09323949 -0.07604477 -0.1261059 0.11173392 -0.20294444 -0.084606074 -0.06605465 0.05076378 0.35519096 -0.0480166 0.18886246 0.03648484 -0.09248003 -0.13610134 0.22727275 0.018336663 -0.025674598 0.10968598 -0.17457864 0.25728205 0.11222288 0.0029430008 -0.13420564 -0.14152125 -0.05351263 -0.36904204 -0.07907759 0.12428636 0.20000647 0.05034 0.03310486 0.17015088 -0.038849168 -0.13577306 0.31882817 -0.12235806 -0.065406375 0.06448198 0.17674181 0.15652657 -0.017077817 -0.14953084 0.026491491 0.19323762 -0.06106018 0.015104591 -0.07485229 0.17652206 -0.22505023 0.029208574 0.099351086 -0.016511375 -0.13281621 0.10084491 -0.22550495 0.16082385 0.12631533 0.09419175 -0.13046888 -0.060685623 -0.13695548 -0.23282827 0.03008365 -0.2028382 0.18204005 -0.15262848 -0.25106993 0.16128163 0.06443739 -0.059323393 -0.2337365 -0.15720443 -0.43197384 -0.26660246 -0.09499937 -0.22485143 -0.012898217 0.16418318 0.53383493 0.16312885 0.41349494 -0.34135547 -0.19500333 0.15841034 0.08172056 0.09678862 0.2589997 -0.17298591 -0.051861677 0.030647723 -0.1330583 0.13132742 -0.21511228 0.13874498 0.035960414 -0.1377464 -0.17632127 0.13116233 0.0044037914 -0.1404813 0.07652974 0.27530855 0.2070347 0.15507431 0.2186408 -0.44151932 0.1071629 -0.026378717 0.033138417 -0.007009871 0.1509912 -0.17404127 -0.18839033 -0.024661992 -0.108153366 -0.05438163 -0.1295391 -0.17208336 -0.25885338 0.07777387 -0.021421019 0.3464413 -0.26694772 -0.021520669 -0.18328209 0.1819093 0.1633769 0.079536244 -0.14262442 -0.14393537 -0.03627952 -0.05338584 -0.16521122 0.090374455 0.2569828 0.21238138 0.16371287 -0.04673357 0.3790082 -0.011191198 0.1227415 -0.007893709 0.3362412 -0.16716513 -0.06247185 -0.19269554 0.06369837 0.30749834 -0.022305924 0.1369729 0.05663405 0.010983279 0.10295742 -0.020358942 0.03985795 0.15638722 0.20059294 0.032363918 0.014379481 0.08534788 0.18192618 -0.12510745 0.031202678 -0.06263212 -0.2145134 0.10699148 -0.0391533 -0.17820568 0.10780325 0.121203125 0.23868893 0.23653021 -0.3004993 -0.22691824 0.31091383 0.2172074 0.0068080104 0.16081674 0.3950923 -0.02264651 0.31482592 -0.019765392 0.3392471 -0.10258039 0.2763661 -0.21052988 0.018387089 -0.122616425 -0.29345134 0.016612293 0.09210954 0.047110807 -0.24355903 0.011602202 -0.3146436 -0.018302714 0.11213323 -0.08637262 0.12931438 0.040334087 0.2912146 0.12723297 0.20647079 -0.13110477 0.059333827 0.086903684 0.20689484 -0.09019079 -0.20880975 0.15810375 0.04168575 0.28408512 0.013282543 -0.028892174 0.21261929 -0.13756064 -0.061831545 -0.07197345 0.39520735 0.3023329 -0.013627598 0.17430072 0.3900351 0.45873687 -0.0773561 -0.5362647 0.275014 -0.13834679 -0.20516865 -0.32646352 0.17647624 0.17374602 0.09442542 0.18555233 -0.38327754 0.17324102 -0.096517034 -0.17502737 -0.12897925 -0.18895748 -0.31532174 -0.2779495 -0.08203328 0.29148886 0.18087684 0.15559922 -0.3371609 0.07620709 0.12325048 0.38170293 0.12554987 -0.09950969 0.013670815 0.2422214 -0.03566293 -0.11557867 -0.021975864 0.30081296 -0.018301995
gostosa 0.024791485 0.036226757 0.20477003 0.23164794 0.32524168 -0.15301311 0.04260432 -0.33842352 0.07318071 0.28222883 -0.10437891 -0.20605554 -0.17451005 0.28261346 0.28572822 -0.06529807 -0.10684101 0.079060026 -0.48012248 -0.18311822 0.15479796 -0.020185944 0.39644706 0.08027876 -0.3844998 0.5304813 0.24343634 -0.20863709 -0.12308304 0.12478988 0.15322028 -0.32739136 0.15055971 0.1134727 -0.20142846 -0.021358121 -0.010865858 0.031944957 -0.0014752563 -0.23927307 -0.087315954 -0.19456254 -0.020008449 -0.4257863 0.45245078 0.14743936 -0.34382993 0.12588248 0.0474934 0.19937412 -0.14244734 0.042501166 0.15514278 0.01460619 0.09466461 0.4119252 -0.0834451 -0.0011151533 0.16025941 -0.17115878 0.15239845 0.3574675 -0.01589751 0.038076892 0.08010306 0.20411046 0.05890039 -0.13311465 0.2869121 0.011008434 -0.08520253 0.08092206 0.2121637 0.05487796 0.12600389 -0.1057462 0.05448097 0.0852725 0.028636098 0.11930259 -0.020445582 0.016797887 0.15641184 -0.20723705 0.1318217 0.16409852 -0.0872124 -0.5127062 -0.26888034 -0.5351608 -0.22091824 0.07720581 -0.019372396 0.006894936 -0.2840367 0.09550802 -0.17043418 0.17913362 0.6544559 0.16010863 0.06809513 -0.09060612 -0.012298759 0.1815439 0.21077596 -0.20023179 0.018850904 -0.07091933 0.021322861 -0.047444355 0.07451791 -0.008945838 0.050282057 -0.2539821 0.38102138 0.101458184 -0.3725333 0.025719076 0.010058124 -0.19257987 0.15146591 -0.29812744 -0.08389883 -0.3203906 0.090843715 0.16924 0.13353029 -0.37975848 -0.0912884 0.24710575 0.12856945 0.45225343 -0.41433465 0.12812811 0.19560203 0.012409312 0.25004694 0.18664552 -0.007926129 0.0991594 0.17735775 -0.15464342 -0.062192712 0.0012777654 0.09977435 -0.18916595 -0.075575046 -0.12577549 0.18627827 0.13409457 -0.15363754 0.21060325 0.29249752 0.20648463 -0.023134843 0.0635304 -0.27244812 0.12706247 -0.027462965 -0.17033304 0.056150246 0.23345225 -0.12615134 -0.18447268 -0.024196886 -0.09468356 0.1706326 0.25048524 0.21405707 -0.073914476 0.010470351 0.009782487 0.05930228 -0.30141693 0.15245645 -0.0126091745 0.5150102 -0.06043301 -0.13239163 0.0932064 0.11555703 0.3552931 0.08209662 0.06056801 -0.07987198 0.08894442 0.061551426 -0.182633 -0.24305713 0.02670115 0.1356385 -0.30880484 -0.22780608 0.35715154 -0.16116077 -0.058443986 0.011829806 -0.025953809 0.39399984 0.09498294 -0.2663005 0.040636957 -0.15095611 0.0076581817 -0.0083192075 -0.43245998 0.056853015 -0.38440582 -0.45992625 -0.20953229 -0.06337171 -0.013085345 0.08846494 0.113061525 -0.06945411 0.28229806 0.3765386 0.2597505 0.2695649 0.19843686 -0.041938897 0.2036002 -0.004171245 -0.21759902 -0.2827175 -0.17999813 -0.17947124 0.12379665 -0.26638278 0.07254375 -0.27547574 0.15715718 -0.07975703 0.04014001 0.32485986 -0.3412623 -0.0011999381 0.037463922 -0.04584312 0.42992947 0.18472971 -0.1450989 0.010491097 -0.11981856 0.08918868 -0.31620926 -0.17183313 0.18034229 0.08385297 0.20102908 -0.09448603 0.062384963 0.18135694 -0.2383309 0.12671095 0.03226892 -0.14580709 -0.03840482 0.17499433 -0.07386763 -0.24046744 -0.32887426 -0.09484588 -0.1478329 -0.21852906 0.2898738 -0.4886908 -0.026678767 -0.06390937 0.050598722 -0.22581385 0.11698259 -0.252302 0.29839084 -0.15405434 -0.32219818 0.36710045 0.06544427 -0.21940263 0.082636245 0.03388883 -0.25405028 -0.06340194 -0.05948636 0.20611052 -0.10401777 -0.051770598 -0.056102555 -0.42883956 0.0026701612 -0.08928825 -0.21400547 -0.20129071 0.1845422 -0.02006323 -0.33334312 0.21135505 -0.13481967 0.12617701 0.041019112
burra -0.14161675 0.19336933 -0.04438975 0.0073139425 0.056968946 0.022525102 -0.13072212 -0.36851886 0.42787433 -0.022306496 0.2228746 -0.06372298 -0.26638073 0.18754254 0.2784041 -0.17403567 0.15201838 0.022287821 -0.09093843 -0.0421982 0.057999186 0.02917246 0.09375936 -0.1139855 -0.386925 0.28341863 0.021591712 -0.13047445 -0.05617458 0.34390575 0.08982002 -0.3846711 -0.0074026966 -0.28538504 0.14345545 -0.09135701 -0.13813359 -0.0930067 -0.059602633 -0.19061126 -0.036896195 -0.028334804 0.07780896 -0.100163594 0.28558484 0.1897163 0.22491397 0.028295446 0.14604123 -0.1873994 0.05969964 -0.13683686 0.20912124 0.20352438 -0.0037238558 0.11247027 -0.28699008 -0.13026978 -0.06736644 0.035625953 0.1518841 0.21041323 0.05877041 0.040242136 0.010854858 0.0960427 0.09323573 0.032967053 -0.16226122 0.12695323 0.10762765 0.08007264 0.14296347 -0.043052863 -0.095908955 0.029318625 0.01803349 0.04320463 0.043004066 0.2794879 -0.024082463 -0.15624087 -0.28557968 -0.06287053 -0.05917622 0.06896263 -0.122964464 -0.452257 -0.069558725 -0.33104768 0.058004033 -0.08450767 0.11221332 -0.014425517 -0.13354437 -0.1591973 -0.015369148 -0.16886339 0.043713424 -0.08934199 -0.10220616 0.06899891 0.042597335 0.28038308 0.046701122 -0.17142761 0.04236615 -0.06483826 -0.026923383 -0.14052737 0.022713272 0.1359722 -0.1940728 -0.21530105 -0.13901891 0.21817358 -0.04363872 -0.14588112 0.07287934 -0.17281686 0.06697357 0.050086983 0.20208302 -0.42987353 0.10343455 0.06897464 0.05327743 -0.23208795 0.16497576 0.07671695 0.29365787 0.01740016 -0.07924264 0.0012779186 0.19074036 0.09284557 0.055084504 -0.09779324 -0.31892735 0.16084312 0.08369051 -0.14496455 -0.010319622 0.10280927 0.2171786 0.14585996 -0.2126871 -0.18551609 -0.028608328 0.15367842 -0.117424965 0.015816472 0.2283902 -0.00035663845 -0.09052018 -0.10667231 -0.13702151 -0.012466619 0.08572183 -0.19992033 -0.079171404 0.32233414 0.046200085 -0.016025439 -0.19644591 -0.21815234 0.14696018 0.28814247 0.10281787 -0.28501508 -0.015004074 0.058652688 0.09841524 -0.3936492 -0.2529058 0.19245236 0.19853444 -0.028176311 -0.314234 0.2981601 0.11100737 0.15862499 0.021891583 0.17087726 -0.13146295 -0.17388614 -0.16023578 0.014976549 0.17140478 -0.034899384 -0.11546211 0.061886236 -0.30737862 -0.18319242 -0.4637198 -0.0877339 -0.1466559 -0.17955692 0.05555822 -0.007140245 0.06468282 0.08422188 0.22048517 0.040667053 0.17540169 -0.057130333 0.21825443 -0.35697824 -0.40147483 -0.06946936 -0.10888432 0.1226428 0.17607917 0.056356646 -0.16800499 0.26794845 0.0628589 -0.03751331 0.2104106 0.13685785 -0.15048257 -0.026789682 -0.13902424 0.11838709 0.0055318973 0.026575873 -0.0810481 0.060313974 0.063374355 0.013421269 -0.12620766 -0.10242881 -0.1460456 0.07757634 0.0548474 -0.27358365 -0.088846534 -0.052843694 -0.033588167 0.1560718 0.044166815 0.0016595151 0.2519345 0.16206965 -0.21168369 -0.04741071 -0.1552473 0.33377242 -0.030778948 -0.027985547 -0.05134132 0.0668709 0.39014816 -0.004245703 -0.19282065 0.23559888 -0.0012698579 -0.04054742 -0.13239157 -0.15456718 -0.24340749 0.077677794 -0.017319195 -0.031392824 0.04996735 0.16096224 -0.06015502 -0.11883873 0.03911908 -0.23880398 -0.08123257 0.003937792 -0.21261491 -0.054939594 0.19204146 -0.14103648 0.19362722 0.09889628 -0.17652413 0.12119328 -0.08255642 -0.21094798 0.0832242 0.33812517 0.2834863 -0.15139024 -0.15236054 -0.18849082 -0.36120266 0.17692374 -0.18826741 0.041483425 -0.27866393 -0.11621671 -0.14353138 -0.120127216 0.12938048 -0.018091256 0.12328374 0.10414395
no 0.07685426 -0.1471576 0.12894797 -0.03955068 0.082402915 -0.014790301 -0.041907933 0.15358868 -0.1904967 -0.23417053 -0.25508755 -0.13989264 -0.026649887 -0.040497307 0.0334895 0.025739336 -0.10456587 -0.26412463 -0.19251515 0.30517 0.13134308 0.24944957 -0.03382881 0.03190471 -0.35087398 0.16117518 -0.066975504 0.007394473 0.09977078 -0.28430346 -0.20435512 0.21752518 -0.13466504 0.018539354 -0.26521292 0.3423093 -0.3207789 -0.52211404 0.12982172 -0.054929957 -0.46458533 -0.12060284 -0.29345688 -0.030008644 0.44711563 0.21870911 0.15270497 -0.104575954 0.25240737 0.09297994 0.007314105 -0.08630777 0.07625839 0.10769546 -0.1269054 0.29776862 0.17560428 -0.10801986 0.15706888 0.06616823 0.0076687937 0.1806152 0.055779308 0.027881155 -0.047495667 0.19712092 0.08479917 0.17630064 -0.022761883 0.32693663 -0.21063887 0.17019293 -0.16152237 -0.26928407 0.46071634 0.3924888 0.03791215 0.23921847 0.40562773 0.14922774 -0.3379363 0.3055361 0.1883787 -0.4181945 0.09274246 0.10763748 0.25717896 -0.24149238 -0.46206024 0.13323368 0.12382032 0.1191581 0.11057919 0.17349982 0.08688407 0.08213864 -0.10751913 0.051975474 -0.2978643 0.22803216 -0.11679444 -0.5699347 -0.10808867 -0.068524905 -0.1626731 -0.23128775 0.19816288 -0.0023950972 -0.044163417 -0.16086678 0.19912836 -0.3191261 -0.015794985 -0.09611512 -0.34358904 -0.12747526 -0.28476143 0.33803004 -0.19485648 0.19868888 0.11126914 -0.0106595615 -0.17594771 -0.21965688 0.19688907 -0.10818204 -0.24921931 0.00819229 0.06461938 -0.20655048 -0.10887044 0.17103568 -0.1872348 -0.07735565 0.22289106 0.012666825 -0.5286891 0.08801003 -0.06282374 0.10747275 0.030903826 -0.119925044 0.2954106 -0.17806502 -0.2589322 -0.14704975 -0.04041808 -0.40816692 -0.19154558 0.36501762 0.3975269 0.17983922 -0.35584372 -0.15186656 -0.12771766 -0.20520929 0.08149949 -0.15459807 0.20660633 -0.030874155 0.13947216 0.17354333 0.36755747 -0.27379704 0.0023005693 0.088562496 0.35705733 -0.3838658 0.19596246 0.20088713 0.018948011 -0.05742056 -0.059970196 0.084881954 0.23926173 0.05449365 0.16960448 -0.03026619 -0.07741085 -0.067272045 -0.0025713346 -0.008178678 -0.3239597 0.17117998 0.15468107 0.08153316 -0.09880714 -0.39839447 -0.10673974 -0.12806016 0.27014744 0.19013093 0.11366871 0.013582097 0.04638401 -0.11432465 -0.016411116 0.33355236 0.18798943 -0.04897522 -0.26568735 -0.07795216 0.27344805 0.0035798075 0.0057450286 -0.10807166 -0.16448636 -0.102361895 0.104056835 0.031319745 -0.08140337 0.024410855 0.18854202 0.23474813 0.28189987 0.2533256 0.23554589 0.23654166 -0.17135026 -0.10789951 -0.17687728 0.1883705 0.10787864 -0.09895702 -0.38764405 -0.24672867 -0.009507891 0.43809423 -0.049514476 0.24216507 0.10944351 0.0067604794 -0.07642593 -0.063691854 -0.04811654 0.067573614 0.44958323 -0.29190412 -0.16611065 0.25751564 -0.18473633 0.074277595 0.037711743 -0.228492 0.18100737 -0.47339034 0.22672462 0.084489 -0.17339998 0.17678206 -0.13831362 -0.10444614 -0.12414288 0.060603626 0.24063079 0.50721985 -0.42647597 -0.1449465 -0.16965331 0.24468301 0.11853712 0.082080655 -0.0855242 0.2891419 0.1387428 0.109743595 0.07042625 0.14309335 -0.25775817 0.1406416 -0.25368875 0.28196454 0.06801378 -0.19996974 -0.24693078 -0.13874392 -0.057852726 -0.22583765 0.021446487 -0.17968109 -0.093661174 -0.3829094 0.030946879 0.12351874 -0.14757015 0.032426532 0.09386544 -0.0050641745 0.09568926 0.13872735 -0.33929577 -0.07648149 0.02271701 -0.32995415 -0.3797822 0.09110697 -0.02484315 -0.15378152 0.14930141 0.27063912
louca -0.14005035 -0.16612951 -0.09405344 0.15152141 0.2581194 -0.12975444 -0.045139406 -0.39920652 -0.112204455 0.20100957 -0.11742397 -0.11876706 -0.10091275 0.14123917 0.24944495 -0.23524731 0.00019640615 -0.22561897 -0.032574374 -0.13512094 -0.03483396 0.030688321 -0.13494961 0.10265562 -0.23672263 0.36953396 0.16993435 0.10883523 -0.054604895 0.0863028 -0.013567948 -0.2702652 0.023422528 -0.0500186 -0.3023984 -0.06344312 0.12940755 -0.14577618 0.03996778 -0.1064947 -0.23232827 -0.075676635 -0.043512307 0.003023841 0.2843261 -0.00014839109 0.27440405 -0.029519169 0.12643868 -0.20722224 -0.05974548 -0.036760766 0.10224197 0.021469135 0.08158042 0.19562049 -0.16510735 0.13256508 -0.007032106 -0.2055488 0.16640605 0.21970443 0.022086618 -0.092395574 0.12390904 0.0883472 0.03503823 0.04418798 0.26555556 -0.032572854 -0.099820085 -0.0011049724 0.100780256 -0.2562716 0.095260456 0.29422086 0.12894763 -0.00031798595 -0.053202342 0.17369865 0.03036871 -0.08336194 0.16917473 -0.08931787 -0.02448459 0.038428593 -0.14582366 -0.23088291 0.26792777 -0.0789922 -0.11851538 -0.08238126 -0.030010456 0.010876469 -0.12225088 -0.14413513 0.10945004 0.00909978 0.38576868 0.23716325 -0.05623709 -0.17893481 0.05431789 -0.14217433 -0.10186795 0.038145654 0.08519848 0.08553977 0.13224784 -0.11204497 0.15627879 -0.16834566 -0.13046215 -0.055916548 0.25080535 0.15831597 -0.08911105 0.03873629 0.14221677 0.14138119 0.0032933513 0.08980544 0.28351164 -0.5971398 -0.0041011292 0.23276351 0.07383648 -0.09475689 0.10538301 0.12921879 -0.039435416 -0.15942556 -0.3388385 0.099952005 0.12362093 0.19462687 0.12853321 0.22223322 -0.05591905 0.18517838 -0.025874201 -0.2087533 0.19903214 0.11886872 0.23122846 -0.06710115 -0.496095 -0.115253896 0.13663468 0.018694289 0.2045124 -0.012400383 -0.0077051986 -0.020265767 0.09552261 0.09797159 -0.13241486 -0.19970424 -0.049698524 -0.24876145 0.056675836 0.20170756 -0.047911964 -0.40069795 -0.025218453 -0.13913798 0.3734657 0.49554214 0.05319523 0.036584467 -0.06814916 0.066725686 0.12064114 -0.5639295 0.052133065 -0.16883843 0.13759129 -0.09423765 -0.14285377 -0.19470237 -0.03046342 -0.022416348 0.006432971 0.038387757 0.08438806 0.32890716 -0.0007854422 0.12389762 0.23631264 -0.12948637 0.19325922 -0.12246854 -0.13550712 0.13267957 -0.1755901 -0.090949364 0.25730658 0.15689571 0.20564313 -0.035284065 0.10740971 0.23493339 0.32213426 0.033738088 0.14555952 -0.47226787 -0.038552824 -0.33055583 -0.19447616 -0.31211254 -0.40349323 0.08522259 -0.049816266 -0.0395069 0.092335165 0.11669106 0.14395621 0.042080298 -0.21003495 -0.042894766 0.055118825 -0.07613923 0.004068317 0.1267046 -0.36001796 -0.2250664 -0.0547309 -0.08984323 0.11923817 0.06768884 -0.34005454 0.08916283 -0.11403434 0.08669648 0.02163085 -0.23420234 -0.18288475 0.09582978 0.08505078 0.20269048 -0.008397745 -0.11159539 -0.12822676 -0.03578532 0.094067 -0.032761343 -0.18444444 0.1661984 -0.016123148 0.13133658 -0.24019764 0.07615351 0.07694128 -0.38128498 -0.09886652 0.27837488 0.07663241 -0.10746505 0.06686192 0.020442316 -0.07884668 -0.3586304 0.02968012 0.121369936 0.06389891 0.20550409 -0.07211998 0.037969127 0.10929008 0.15244105 -0.14636816 -0.31088564 -0.088246666 0.1992675 0.08516206 0.059853338 -0.15182027 0.10533797 -0.34993708 0.23890884 -0.15571156 -0.2934206 -0.18873982 0.0010175214 0.19901754 -0.35428235 0.2839467 -0.027728613 -0.087508895 0.023330644 -0.16710663 -0.31722894 -0.032890305 -0.061033707 0.110029116 -0.1505469 0.087602064 -0.019721322 0.35477063 0.008618104
karol -0.19122079 0.07512532 -0.05291551 0.16288394 0.10981586 -0.1212796 -0.022800557 0.012055582 -0.06297079 0.07346426 0.07414369 -0.10956605 0.105187304 0.038734417 0.15663113 0.039985802 0.12740672 -0.65117055 -0.07382511 0.33039045 -0.2095492 0.13438877 -0.19292441 -0.25672412 -0.5628583 0.4723622 -0.11437208 0.16276532 0.35809395 0.21692705 0.08548928 -0.14902134 -0.31494018 0.0710402 -0.40225944 0.07189963 0.17998867 0.19761047 -0.04414652 -0.26422137 0.141393 0.12829335 -0.31972522 -0.17180184 0.58671373 -0.14889738 0.14133447 -0.14649107 0.48790744 -0.019414082 -0.091609925 -0.42509738 -0.20903696 0.10352966 -0.25863624 -0.29195324 0.011038406 0.14521551 -0.12443584 -0.027728757 0.36624256 -0.01450488 -0.23237352 -0.17714849 -0.14011581 0.03210941 -0.13763894 0.108685635 -0.172232 -0.038641684 0.029873284 0.066504985 0.076341376 -0.26561666 -0.4992836 -0.012002197 -0.2028025 0.20929447 0.5610949 0.36852607 -0.098914586 -0.012497984 -0.16980292 -0.13607042 -0.3772715 0.15300155 0.2403135 -0.23682465 -0.037142966 -0.2598037 0.32932478 -0.03424085 -0.09769319 -0.08369973 -0.46858877 -0.3233239 0.062270667 -0.18415359 0.19608471 -0.075175084 -0.19231887 -0.08755293 -0.16985035 0.027990667 0.03870146 -0.023032455 -0.03478729 0.042955857 0.15357202 0.0636657 -0.06599245 0.061358385 0.10787677 -0.20668566 0.35138482 -0.09360195 -0.21806851 -0.17779534 0.27886313 0.11974585 0.21863301 0.23299949 -0.13452616 -0.25920412 0.29739732 0.25617892 0.116444364 0.14258745 -0.5023649 -0.08177958 -0.040478364 0.24296018 -0.45461932 -0.08101693 -0.3684032 0.28091982 -0.0386209 0.21649674 -0.006833921 -0.11041169 -0.09895238 -0.4984882 0.057248656 0.050370786 0.18122469 -0.24879113 -0.28117606 -0.43494874 -0.09865836 0.02097591 0.25928563 0.39999595 -0.29299054 -0.23568596 0.1973088 0.44237083 0.04454042 -0.00047588052 -0.20523535 -0.047813036 0.45239803 0.040886216 0.23482077 -0.36313903 -0.4436857 0.23288728 -0.08437664 0.24208558 -0.051673662 -0.18123086 -0.067929514 -0.24115144 0.10946916 -0.5013872 0.27461058 0.06825115 0.15608056 0.05796519 -0.28285718 0.14416078 0.28572786 -0.03851731 0.15677944 0.2839326 0.018933259 0.011293902 -0.10198477 0.103014 0.29890302 0.19929688 0.30068827 0.10770189 -0.15933362 0.090410896 -0.5101114 -0.29229885 -0.027025286 0.030529998 0.38149878 -0.20140156 -0.1700184 0.12541178 0.4325721 -0.41807264 0.08155849 -0.118024856 0.168101 0.07660325 0.100622825 0.09695581 -0.13702121 0.10425329 0.041288164 0.13032578 -0.08880916 0.31212232 0.289081 -0.10069716 0.16567998 0.3025678 -0.06317827 -0.0076496745 -0.07446291 0.24046734 -0.032925885 0.00478781 0.00016845358 -0.106470495 -0.047628306 -0.10386758 0.2807599 0.36249396 0.07396741 0.1641695 -0.17198479 -0.16216892 0.31828836 -0.20514229 -0.104125366 -0.03255213 -0.29788345 -0.15441997 0.054238535 0.055120315 0.24542995 -0.23177718 0.045247447 -0.04680643 -0.20047753 -0.053092428 -0.2856678 -0.1408626 0.056870323 -0.15046817 -0.21976209 0.5462829 -0.07933786 0.31335852 -0.11880501 0.0681146 -0.1397602 0.11245433 -0.062591165 0.13763934 -0.0970696 0.095299505 -0.17657568 0.31445765 0.024477333 -0.2649357 -0.10990126 -0.18240927 -0.21509752 -0.003157962 0.18458512 -0.11062601 -0.045905735 -0.038715847 0.36450255 0.31202734 -0.0018819424 -0.41319415 -0.4824692 0.38103995 0.1310594 0.0766572 -0.087697014 -0.17038026 -0.051497992 -0.100791395 -0.0877649 -0.02204318 0.163889 0.09836774 -0.3764458 0.022870399 -0.026643857 0.025863297 0.07090671 0.2262989
na 0.0153087145 0.26515773 -0.09190862 -0.13806978 0.10360898 -0.3056892 0.11385781 0.2031229 0.23640014 -0.009001156 -0.106567964 -0.07439892 -0.18507156 0.070599265 -0.08346303 0.0673649 -0.04614204 -0.28511593 -0.3917988 0.18316163 0.062196884 0.18629302 -0.26489726 0.07822317 0.2105654 0.25154006 -0.12155317 -0.017591693 0.06169828 -0.277033 0.111023165 0.14337486 -0.0494615 -0.092395216 -0.0050539975 0.34332082 0.1562734 0.09046657 0.3777202 0.014031276 -0.20101897 0.05115137 -0.031367484 0.17399575 0.3745221 -0.16349575 0.017242156 0.02759212 0.07800815 0.05345831 -0.007480542 0.029933888 0.04630324 -0.11335474 -0.20533308 0.106225505 -0.2238624 0.019100914 0.017862417 -0.07464947 -0.23629406 0.29960075 -0.33420682 0.16906825 0.020667141 -0.17568539 -0.25840852 0.28224856 0.1182278 0.20818155 -0.17739807 0.2849745 -0.038949892 -0.334071 -0.008366279 0.1827387 0.09624295 0.076756984 0.37405935 -0.18993594 -0.15736121 0.009042199 0.32184696 -0.19297388 -0.17024428 0.008964134 0.07120252 0.07812182 0.076991156 0.2687069 -0.028983494 -0.13602726 -0.13827638 0.119133756 0.076993786 -0.26328382 0.29482868 -0.30892354 -0.12794288 0.026616238 -0.29774815 -0.35206988 -0.04433867 -0.06247546 0.02800807 0.27789673 -0.027701447 -0.08607062 0.35607198 -0.2957542 -0.2065482 0.00070961245 0.13685675 -0.34226918 0.17918192 -0.040556923 0.08191763 0.12602581 0.18724802 0.09865241 -0.0868383 0.2931483 0.031999975 -0.2085813 0.083827116 0.17973924 0.0844878 -0.3054739 0.03864848 -0.26700902 -0.06869581 -0.039028704 -0.18038392 0.14988282 0.1641564 -0.012879546 0.05410347 0.079671256 -0.08538028 0.047794934 0.116205774 0.110168666 0.12248134 -0.06606478 -0.26026818 -0.0014298512 -0.15808769 -0.0365134 -0.263597 0.036484756 -0.08490617 -0.04910575 -0.2883064 0.22137406 0.067419335 -0.008147259 -0.19716583 -0.08828378 0.29718423 -0.11895789 0.055397384 0.28906062 0.27879968 -0.039879654 -0.0035852664 0.014750756 0.14212511 -0.023693148 0.11325223 -0.22382472 0.07755163 0.2165947 0.006523226 -8.066284e-05 0.26371792 -0.08657296 -0.15089591 0.04406325 0.049971603 -0.11151553 -0.22094512 -0.26985508 0.187749 -0.0084822485 -0.21081527 -0.100836866 0.22410262 -0.113576554 0.029194284 -0.034792803 0.31791878 0.058029495 -0.042630382 0.010366719 -0.07273622 -0.026961178 0.23670909 0.23446377 0.12671313 -0.06556208 -0.24514636 0.029000824 0.059616864 -0.20775704 0.20855212 0.15765925 0.16067708 -0.2131685 -0.16170616 -0.040912673 0.044879377 0.3921307 0.11243403 0.065454945 0.0038584822 0.0036545715 -0.19850369 0.044818092 0.08379772 0.15806416 -0.22618076 0.134941 0.21171401 0.09500699 -0.09874267 0.010418476 0.09208026 0.029364068 0.10094746 0.13975453 -0.116019584 -0.11043889 0.30097568 -0.25084797 0.14315367 -0.24671689 -0.14307266 -0.013188212 -0.17348221 -0.15074913 -0.2661585 0.13638878 0.12125576 -0.35092017 0.04840416 -0.082869194 0.2417329 0.02115483 -0.16790026 0.07893322 0.076007 0.24160606 -0.04495287 0.100266896 -0.09814953 0.08180322 -0.15066673 -0.06276377 -0.2564805 -0.09153212 0.10549907 -0.021922486 -0.19094451 0.37961107 -0.11331557 0.03003044 -0.33295465 0.26019812 -0.12939662 0.07426418 -0.25432065 -0.012840159 0.2337414 -0.054706026 0.028836375 -0.05523806 0.032932747 -0.10070576 -0.16141924 0.15475152 -0.086069554 0.045393992 -0.014273644 -0.4579725 0.4427467 0.021287957 0.066860825 -0.14809693 0.028889613 -0.13345985 0.17285618 -0.2015716 -0.15774144 -0.08370375 -0.20391615 0.027165886 -0.07779276 -0.015936479 -0.13888803 0.012494589
